620 128
265 -0.8955571 0.8378133 -0.4087639 -1.1920419 0.94877553 1.3666824 -0.16708316 1.2094113 0.9586815 -0.53550124 0.7037634 0.5749975 2.252415 -1.0730973 0.64300054 0.2695389 1.577797 1.8544627 0.6297587 -0.24263981 1.076637 -0.82795304 1.2548717 0.03251876 -0.7156333 0.0833779 -0.2125083 -0.6029118 -1.3980088 1.5312713 0.6681073 0.8105862 0.7695891 -0.5629219 -0.95323247 0.1594273 0.13307643 0.24704546 -0.06455505 -0.13313401 0.32063314 -0.49144277 -0.66128045 0.99314094 -0.99873495 -0.79383665 -1.693822 -0.5432118 0.19411218 0.83808243 -1.0396428 -0.20635405 -0.86429065 0.78428483 0.24749982 0.11167936 -0.18314673 -1.2665738 0.3275737 0.3167374 0.7102657 0.29090372 0.12642601 -1.0115035 -0.54699063 0.14919184 1.1218404 0.48403308 -0.92958117 0.736634 0.46882322 2.320845 -0.94240105 0.14562804 0.12177729 1.8658216 0.25008678 -0.597052 2.1958697 -0.23218268 -0.5533626 0.35923788 -1.8972123 -0.11229746 0.70160323 -1.3986562 -0.16542466 1.4135993 0.4130151 -0.6219782 -0.457954 1.5037998 0.13232043 0.028551986 -1.3327105 1.0838015 -0.6777559 1.2699351 -0.095967025 -0.11678029 1.4456009 -2.4649282 -0.55631965 0.92870736 0.31851885 0.04135015 -1.1661309 -0.5401694 -0.6104281 1.2481633 0.33121338 -0.54324037 -0.17965183 0.5166051 1.5324837 -0.23422319 0.049020264 1.0706741 0.31087267 -1.5645837 -0.10531093 1.1180663 -0.56567156 -0.2687579 0.377447 -0.56865 -0.9105107 -1.5922079
518 0.85988146 -0.9261737 1.291684 1.4593314 0.6989767 1.2185559 0.6356871 -0.2708876 -0.27037862 0.75728244 -2.0124912 -1.2526916 -1.9728162 0.13087688 -1.4954789 -0.31559697 -1.0865711 -2.0370429 -0.062510215 0.15528987 1.7063758 1.7980922 -1.3598874 0.65029806 0.8651355 -0.11062158 0.64697564 2.047688 1.0728246 0.34599504 -1.6264073 -0.11329594 0.6013808 1.5397758 0.8997341 -0.90411127 1.0994669 -0.67899525 -1.5801831 1.0676107 -1.136577 -0.18823019 -1.4273455 -0.5563598 0.9505175 0.16355726 3.0828056 0.21434999 1.1391139 0.36108968 0.8046407 0.9054917 0.053583495 -0.7841722 0.07754479 -0.29013786 1.0723246 0.646478 0.9209751 -1.3531479 -0.0760463 0.83380747 0.16723105 0.9634426 0.28269523 1.347301 -0.7632739 -0.23818102 -2.2970884 -0.14058246 0.40737703 -1.0961968 0.915313 -0.35021734 0.46981534 -1.8519953 -0.38864714 0.3432355 -0.7543676 -0.06581753 0.95197594 -0.27156448 -0.7515776 -1.2746384 -0.15494962 0.3558129 1.616761 1.9091897 -0.87318015 0.90167534 2.689579 0.75027925 -0.26208112 -0.2199449 0.6633409 1.1581758 -1.1343726 0.9060319 1.153628 -1.2732728 -2.0735803 1.3836815 -0.25929195 -0.7029796 -0.86574775 -0.25180927 -0.54683477 0.46436253 -0.5384499 -0.8197204 -1.1742805 1.1637603 -0.87936366 0.21596947 -1.0689394 -0.0173289 -1.9899666 1.4314694 0.79726386 0.008902106 0.41963515 -0.22718517 0.83805656 -0.11490029 0.53514093 0.82309973 -0.05022463 0.41039425
340 -0.9213413 0.3540031 -0.15984407 -0.94123715 0.80512863 2.3982558 -0.5015157 1.3910464 0.17028883 0.4759512 1.30978 0.14984672 1.3163539 0.4736052 0.11537097 -0.52344644 0.17171781 0.29516253 0.79761213 0.21440414 1.1478748 -0.8503372 0.39903495 0.75255716 -0.57976836 0.54031146 -0.75496024 -1.9248918 0.0039667576 -0.1543319 0.9532784 1.0715104 0.20141979 -0.7261915 -1.5060163 -0.22196062 -1.4467216 0.8297909 -0.9224315 0.05847341 0.7021962 -1.5318289 -0.12758957 0.2725653 -1.2470446 -0.38863164 -1.5406169 -0.70760393 0.43398476 0.60423946 -0.69325703 0.2734926 0.35715166 0.8073881 -0.03349429 0.29971632 -0.32210615 -0.41767597 0.37583014 0.6849001 0.07967261 -0.9979996 -0.53154886 0.036324546 -0.75616354 0.5520023 1.0145284 -0.5016983 -0.37009245 0.021639343 -0.7120421 0.7841103 -0.79433244 0.55318785 -1.364791 0.84999233 -0.84232146 -1.2810714 0.65221614 0.13104163 0.89796054 0.06128377 -0.09760665 -0.60015774 0.3910173 -1.4653965 -0.80007577 1.6192281 -0.04707498 1.1170976 0.72208035 0.28714722 0.12716289 1.0364379 -0.6257443 0.49866048 0.13215317 -0.36959222 -0.6660406 -1.1105535 0.5354122 -0.9606212 -0.11475869 1.5339439 0.17544316 -0.259686 -1.2017615 0.35418305 -0.29906687 1.1184809 -0.6285792 -1.3362293 -0.39823017 0.84275776 0.39888093 -0.62967676 0.16595405 -0.45704725 0.19096105 -0.3116666 -1.6494031 0.63187784 -0.57251745 -0.8058027 0.877179 -0.3321231 -0.61184406 0.036184374
67 -1.4446063 0.05794687 0.29545975 0.21167211 0.5092342 1.87193 0.19737133 1.2059081 0.16687426 0.28788495 2.139666 0.36175734 1.237082 0.683572 -0.65369654 0.41652516 1.0944507 0.82027626 0.9774564 0.1618414 0.9463907 -0.921062 0.24429114 0.5189754 -0.36268285 0.15883444 -1.1489483 -1.5612457 0.09464714 -0.35129073 0.59021616 0.7347129 0.44878477 -0.4643368 -1.8700335 -0.053070504 -1.0509331 0.82909125 -1.0474849 -0.6500466 0.29455248 -0.618842 -1.0520585 1.0261872 -1.1929781 -1.3452269 -1.7128966 -0.4860968 0.8597661 0.5434573 -0.9831653 -0.28855127 0.22023451 1.4127305 0.45551413 -0.030017493 -0.8598395 0.23490329 -0.37296638 0.8080199 0.4582252 0.04355847 -0.11408457 -0.6136024 -0.43682346 1.2745692 1.4876637 -1.1519068 -0.81330794 0.6062606 -1.0849215 2.193169 -0.23033372 0.3652103 -0.4796004 0.875701 -1.2052324 -0.9566898 1.3430495 0.5673441 0.05364046 -0.24313205 -0.09737366 -0.43040904 0.371552 -0.7742355 -1.3745352 0.7412183 -0.6924742 0.6875918 0.55133194 0.4335356 -0.005980773 -0.13905118 -1.0240973 0.40559754 0.31416422 -0.31782863 -0.9547847 -0.36306778 0.49782085 -0.69721305 0.33968422 1.8860213 0.67910236 0.235773 -1.4315573 -0.08191562 0.41423985 0.96513647 -1.3169943 -0.46658427 -0.6962915 0.68448806 0.3105447 0.17282858 -0.053217974 -1.1338098 0.44406378 -0.41687003 -1.2429218 -0.44511643 -0.23852713 -1.0616558 0.21550614 -0.16599028 -0.7429895 -0.72585416
90 0.13166389 1.0271499 0.041426223 -0.52501416 0.111362115 1.8608896 -0.2611753 0.6134209 0.29607388 0.29580325 1.2694421 -0.0046236194 0.6776368 -0.17602298 -0.21640646 -0.7037189 0.043654047 -0.2598913 0.91638213 -0.28478265 0.94933474 -1.1639346 0.8977252 0.17179772 -0.57051575 1.0905215 -0.9387157 -0.57636964 -1.5127734 0.7822734 0.063058056 1.5728127 0.5813981 -0.6374348 -0.93085897 -0.476816 -1.0023335 0.62624353 -0.32750252 -0.18873514 0.8370568 -0.36872488 -0.6475856 0.8896157 -0.4879119 -0.42177612 -1.708367 -1.157245 0.4370494 0.5023062 -0.5121851 -0.39452866 -0.7182772 0.6136262 0.19581632 0.23124519 0.7825498 -1.3135622 -0.2912452 0.72693956 0.32771912 -0.07863226 -0.2736747 0.17806366 -0.24223177 0.23335959 0.81374234 0.2742783 0.06863907 0.85163796 -0.16534913 1.2060747 -0.23711973 -0.31650102 -1.221835 0.687513 0.2893089 -1.3378061 0.6101151 -0.69429976 0.62611794 -0.61677915 -0.28663394 -0.8928826 0.4242378 -0.4402158 -1.2504137 1.5029922 0.20412706 0.5072743 -0.2666152 0.5308177 0.52753866 -0.60973245 -1.3489811 -0.435186 -0.8863102 0.45388117 0.14084579 -1.1511424 0.10599691 -1.2642931 -0.7661241 1.3876587 0.26397505 -0.06468772 -1.5317291 0.09151136 -0.27814433 0.61402094 -0.29750216 -0.62780726 0.060399033 -0.4264565 0.11047651 -0.7430697 -0.01903268 0.3376834 -0.4255307 0.37407133 -0.8987359 0.7271681 0.54868585 -0.43524083 0.38056728 -0.2050534 0.057491988 -0.07415185
70 -0.38487053 -0.41364697 -0.51305765 -0.28316987 0.32194275 1.5632685 -1.1562783 0.68931085 0.88140357 0.61749613 1.7613702 -0.1670968 2.2805948 1.5111833 -0.6225413 -0.96967995 0.82805365 -0.27550095 0.8780451 -0.21771917 0.42306527 -1.2924927 0.1097882 0.022898762 0.14615402 -0.28860873 -0.7450374 -1.860092 -0.14544514 0.03698315 0.21956086 0.5531462 0.16592085 -0.8994162 -0.77293617 -0.4832731 -0.54904974 1.1788144 -0.1495551 -0.5666337 0.8886042 -0.33939767 -0.78311586 1.0529984 -1.5291846 -0.38500798 -1.8926398 -1.7380381 0.55639786 1.2992482 -0.80160797 0.029615298 0.29615915 0.7771145 0.021473717 -0.103889495 -0.25714457 -1.092693 -0.20451938 1.0505623 0.050856896 -0.43265644 -0.13796979 -0.51490873 -0.93772775 -0.14698964 0.7683715 -0.81709653 0.37225446 -0.23470473 -0.6505364 0.30243313 -0.59318304 0.010116692 -0.43736297 1.4585369 -0.90214604 -1.8718029 0.6799923 -1.4056046 0.6951023 -0.9212164 -0.049694475 0.3342454 -0.2201701 -0.9001788 -0.5550249 2.1334805 -0.32314938 0.57506734 1.0713242 0.710467 -0.32877007 0.5490324 -1.020888 -0.70948374 -0.19307493 0.32391036 0.2266066 -1.9929715 0.97980136 -1.1202217 -0.25783545 1.7845905 -1.1742177 0.5704851 -0.79310024 -0.50285006 -1.4409959 0.7802634 -0.24102856 -0.66118383 -0.4136182 1.9851065 -0.5160656 -1.544072 0.10111332 -0.72539 0.0068024197 0.9458864 -1.0016919 0.11280697 -0.8077064 -0.7171123 0.39689004 0.61747646 -0.8703455 -0.048852693
56 0.03421747 0.41390273 0.09705479 -0.041168686 0.30079988 1.5236124 -0.6522607 0.779883 0.46842816 0.519537 1.6654161 -0.23665416 1.3281384 0.14687411 0.45563757 -0.15529692 0.19428246 -0.110988915 0.3424651 -0.3568047 1.2766898 -1.5083495 1.0009975 -0.28677976 -0.6594281 0.6997138 -1.1030451 -0.8679081 -0.9247756 -0.21137886 0.4912983 1.3251457 0.014324671 -0.08538221 -1.4758196 -0.86327934 -1.4626558 0.97935855 0.09830853 -0.8352792 0.5384218 -0.140214 -0.28791845 0.8435317 -0.5523547 -1.0650182 -2.1478455 -0.7683009 0.56281734 0.27582774 -1.1813945 -0.1693641 -0.4280098 0.78675455 -0.2628481 -0.7222383 0.15954985 -0.8779303 -0.38412252 0.7157805 -0.35362414 0.13758972 -0.60736173 0.012653338 -0.87392443 0.7714398 1.1038461 0.21940178 -0.3765813 1.0806357 -0.3555875 1.712895 -0.43676797 -0.5178917 -0.8064956 0.8228902 -0.11088768 -1.0962975 0.91843265 0.34270722 0.062463365 -0.46446615 -0.73735243 -0.29019254 0.5893251 -0.7182135 -1.442003 1.537615 -0.035284746 0.17033613 0.12795435 0.18040952 0.8354197 -0.11951591 -1.5761242 -0.18012801 -1.0240647 1.2250309 -0.23958065 -0.5846873 0.6538045 -1.4381329 -1.0242151 1.181607 0.49445045 -0.26639646 -1.3899977 -0.31589398 -0.6581688 1.1565913 -0.97800213 -0.017615546 -0.2597086 -0.21769978 -0.0018501044 -0.5827212 0.041482665 0.45444563 0.47008938 -0.09105603 -0.85698116 0.6970124 0.45875132 -0.35946423 -0.101078905 -0.94243467 -0.7340239 -0.32079783
611 0.2577071 1.0341424 -0.4107214 -0.95610416 0.20418632 1.8635119 -0.003155419 1.1827844 0.25027728 -0.48619983 0.9222269 -0.08248752 1.5728118 -0.22329284 0.5104541 -0.20799282 0.8448968 0.830839 1.0801656 -0.16386887 0.39110258 0.12616856 0.9893482 0.45053744 -0.05889918 0.3484675 -0.62959343 -0.9211587 -1.3925371 1.6303763 0.28282672 1.2090282 1.5520599 -1.0423796 -0.35719526 -0.004271251 0.49140698 0.33682096 -0.61266625 -0.033121087 0.34019205 -0.050830908 -0.64417106 0.42149663 -1.3573809 -0.42492822 -1.5866405 -1.0055453 0.32356206 0.68158776 -0.7804578 -0.6539336 -0.5364431 0.8158247 0.3415403 1.4994776 0.59056973 -1.7135259 -0.0993875 0.5680258 1.0316919 0.10827047 0.6842941 -0.08460209 -0.82271004 0.29384524 0.33150783 0.62102413 -0.8369158 0.91135067 0.2874437 1.1426549 -0.55117315 0.09208649 0.13995004 1.5446978 0.1864022 -1.0546995 0.8678505 -1.2236365 0.65426356 0.6761733 -1.5221664 -0.5454682 0.23431672 -0.52256167 -0.46401778 1.5468243 0.48571652 0.07463381 -0.7132471 0.6481583 -0.017965399 -0.11786713 -1.7647532 0.49463975 -0.5710583 0.15716347 -0.440787 -0.85652214 0.5135384 -1.6251668 -0.61993706 1.6967101 0.31314975 0.0043537878 -1.150217 0.16984013 -0.17340909 0.62489367 0.3867351 -0.26818156 -0.8610467 0.42517835 0.9212381 -0.97664976 0.89027005 0.8113085 0.43369505 -0.39440176 -0.38918844 1.4457836 0.047262136 -0.4936458 1.0880647 -0.039373558 0.6942207 -0.06366773
288 -0.5319563 0.35930067 -0.45060822 -0.77779174 0.63875216 2.9245555 -0.29976285 1.3746544 0.20863166 0.23628978 1.701329 -0.4019054 1.764112 0.035755973 0.22155325 -1.2460811 0.37361914 -0.08696193 0.8829785 0.48373333 0.6341761 -0.6873516 0.5899389 1.2596364 -0.66565305 0.46863744 -0.042602845 -1.2456032 0.424374 0.44048014 1.3244307 0.92242414 0.46724215 -0.7472534 -0.9992653 -0.5665745 -1.050372 0.9362389 -1.564427 -0.3669287 0.5757972 -1.315942 -0.2781702 0.1315324 -1.3300196 -0.073939234 -0.6919826 -0.2174743 0.5880272 0.48474842 -0.37812024 -0.17138988 0.4065868 -0.35682255 -0.82364243 0.15471393 -0.43708685 -0.043286845 0.28176278 0.37361905 -0.4060282 -0.5564523 -0.95694244 -0.56268007 -0.014951773 0.8650571 1.4172233 -0.52717555 -0.087179236 0.07312457 -0.27687535 0.7587808 -0.1754513 1.1864733 -1.1257851 0.117721565 -1.0251851 -1.5983312 0.14078051 -0.28225884 0.64355075 -0.40372598 0.4353656 -0.31931928 0.08094085 -1.3364185 -0.4788402 1.4379842 -0.7777358 0.64026403 0.80120194 0.17759912 -0.0051033655 1.5293932 -0.70435685 0.5984199 0.008292046 -0.57042414 0.13215181 -1.363516 0.0589611 0.09439756 0.6762226 1.5174676 -0.19683588 -0.28713423 -1.9896989 -1.1768482 -0.21885571 0.5773446 -0.5370577 -1.0167753 0.14508496 0.72891 0.3520731 -0.81649786 -0.19465396 -0.45628288 -0.5540578 -0.37297156 -1.3004856 0.90020573 -0.07569137 -1.0411611 0.8522296 0.24996786 0.16488059 -0.61720234
89 -0.5057201 -0.113038994 0.3654197 -0.7914876 0.84533477 2.2000034 -1.3006276 0.70134753 0.32792926 0.08202036 2.3569188 0.15642911 1.8473612 -0.8055035 0.9968609 -1.2953695 0.70179474 1.4897034 1.1997013 -0.23702835 0.56206685 -1.2311398 1.5317824 -0.0197995 -1.1516631 0.2269623 0.23965903 -0.7655394 -1.0240146 0.3231673 1.4008355 1.3121593 0.5926948 -0.042112336 -1.0286796 -0.38264722 -0.76404965 0.04983426 -0.106463626 -0.50281984 0.83272517 -0.30861554 0.38428518 1.1519804 -0.8495976 0.20875405 -1.8008318 0.012681645 -0.30762333 0.3908311 -0.9558962 -0.83382297 -0.32256538 0.09560932 -0.7389234 -0.4862163 -0.45993027 -0.1508654 -0.2301193 0.6026287 -0.082691856 -0.2934684 -0.31599304 -0.6172497 -0.11199545 0.5553683 0.819962 0.30470243 0.8378127 0.27087787 0.6828695 0.41804898 -0.8059502 1.4060738 -0.4044819 0.6704213 -0.14314306 -1.328447 0.3948116 -0.7739386 -0.80895305 -0.14386906 -0.20723452 0.058585353 1.0537288 -1.3603914 -1.0064414 0.71140844 -0.15947063 -0.6202805 0.17995086 0.40989515 -0.3498473 0.6210816 -1.4554394 0.33156198 -0.6109408 0.6446449 0.15206254 -0.64877295 0.6800699 -0.825425 -0.012382921 1.3336003 0.10498578 0.047579218 -1.7933959 -1.0522029 -1.1534938 0.6080355 -0.23791888 -0.5557533 -0.35291904 0.42220476 0.85552603 -0.45471266 0.63520294 -0.09158255 -0.4862444 -0.45271277 -0.4905144 0.93465936 0.6317026 -1.2660745 0.79456955 -0.7125389 0.06594718 -0.4035543
505 -0.7838806 0.6891347 -0.009557423 0.7307461 0.22186136 1.8321764 -0.07348963 0.65909415 0.2602004 0.37527704 2.0012054 0.29314157 1.9328258 0.37755784 -0.66623807 -0.28876868 1.249616 0.53809494 1.0197206 -0.57756877 0.2574208 -0.6335274 0.8087288 0.36896345 0.050359793 0.14942609 -0.5638848 -0.9625705 0.53795236 -0.19172308 0.80212945 -0.043896616 0.89263123 0.3673647 -1.1614254 -0.31566927 -0.6049448 0.5299336 -0.9510934 -0.3740849 0.23522916 0.2510792 -1.7905058 0.36722767 -1.1838807 -1.8096557 -1.5360771 -0.9733 0.45720845 0.38493466 -1.1799599 -0.24301665 -0.14732987 1.4079282 0.49622023 -0.5773781 -0.89418167 -0.29305017 -0.41189802 0.87896824 0.76490337 0.18399444 -0.17891805 -0.47141656 -0.6282125 1.2956259 1.8658258 -1.1193585 -0.9353674 0.55320513 -1.3335079 1.9045031 -1.2850419 0.10418024 -0.614868 1.5088935 -0.7224003 -1.0588021 0.746783 0.03219658 -0.33738917 -0.03121849 -0.8244134 0.09202869 0.5523963 -0.6479787 -0.7433641 0.9288797 -0.85045254 0.8761081 0.9193255 -0.12456664 -0.049471647 0.08107734 -1.3171718 0.4647111 0.38338882 0.40132433 -0.870317 -0.8145245 0.5815868 -0.32049084 0.39948326 1.7030671 0.55828696 0.04848887 -1.7775062 -0.84669447 0.12174551 0.7991654 -1.489936 -0.3759274 -1.1255565 0.2194419 -0.15211836 -0.18095955 0.13640513 -0.84018064 0.22491099 0.09944181 -1.5328021 0.03571696 -0.18438177 -0.62086505 -0.057989925 0.30956015 -1.3835447 -0.37198874
524 0.064313814 -1.0358388 0.67947423 1.2711018 0.59387785 -0.7587564 0.22526687 0.1518009 -0.23561564 0.6857839 -2.073731 -0.954287 -1.9166942 -0.3218449 -1.5507413 0.518975 0.04785035 -1.9641125 -0.26417753 -0.33838052 0.052564938 1.8372105 -0.75065315 -0.573827 0.8385036 -1.2411045 -0.2826301 1.8498338 1.0006772 -0.058175784 -2.2718248 -1.7948132 0.686527 1.6903191 1.5009531 -0.2951529 2.1372015 -1.6462123 -0.6243314 1.1684595 -0.99956685 0.75850713 -1.4287862 -0.7858572 0.7328935 -0.08845698 2.5975091 0.40735558 0.98633605 1.049003 0.60744077 0.8551974 0.17581443 -0.29703245 1.753491 -0.62723416 1.4839785 0.41386548 0.6373439 -1.6032351 1.0345961 1.4583728 0.4779938 0.31261665 0.89210004 -0.21849895 -0.48800817 -1.512482 -1.8318614 0.005590032 0.37536123 -1.1124717 -0.1942583 -0.018567333 0.18599455 -0.8478194 -0.622297 2.0425875 -0.23216757 -0.025212148 0.53973967 0.415937 -1.025448 -0.99119043 -0.24669887 0.40024325 1.8182108 0.82050985 -1.0918972 0.63267165 2.3450923 0.7362299 -1.1269548 0.40344653 0.49460202 0.80689037 -0.33414212 0.060561255 0.7591572 -1.6071217 -2.1536138 0.66284424 0.41653073 -0.7851706 -1.2146857 0.19824833 1.5235503 -0.0029714915 -0.37304115 -0.34947768 -0.059628967 1.6591706 -0.8435267 0.47770795 -1.9865836 -0.074652776 -1.3014226 1.0131327 1.3474019 1.6830199 0.99386877 -0.50497484 1.0066044 0.15336336 0.029716328 0.24955896 -0.69076186 0.52305907
229 -0.49147025 -0.19191808 0.07170796 -0.10115164 0.8148106 1.9231515 -0.4886202 1.0261174 -0.13851771 0.24402995 1.6231003 -0.49176055 0.0069442387 0.9026043 -0.30502963 0.41904008 1.0467204 0.103787646 0.7045607 0.37134424 2.3156664 -1.1318506 0.44290906 0.25950864 -0.18520878 0.6993836 -0.7544332 -0.8668164 -0.79936224 -0.038323015 1.096111 1.4624884 -0.68139684 -0.021058148 -1.6104264 -0.08334433 -1.5605868 0.41596246 0.10617603 -0.8634647 0.5820839 -0.60665834 -0.6359561 1.8099432 -0.5358332 -0.6913278 -2.3984742 -0.99439824 0.53973985 0.8233219 -0.4918472 -1.4517598 0.14407153 1.2124685 0.5058905 -0.053303603 -0.25944102 -0.5748319 -0.24119006 0.93120193 0.39754364 -0.06719312 0.2714802 -0.34731886 -0.8610625 0.8263933 1.1002612 0.035602964 -0.09644876 -0.33634183 -0.50747514 1.8941644 0.22774096 -0.06857884 0.041442264 0.22045238 -0.13641842 -1.0305682 1.6499681 1.0176339 -0.36254647 0.6423718 -0.89720416 -0.9679633 -0.25501904 -0.6643888 -1.5281923 1.8001055 -0.38358587 0.54543936 0.19270507 0.47204188 0.3975082 -0.61412364 -1.5287008 0.68985295 -0.082137555 0.08158268 -0.6303781 -1.2494081 0.67029595 -1.2737957 -1.2626921 1.9483986 0.18707255 -0.3576176 -1.0138587 0.50968593 0.20660219 0.18440421 -1.0230199 0.1600399 -0.5407132 0.4234383 1.2152761 -0.12709588 -1.1637512 -0.43089798 1.1549634 -0.9194005 -0.8692351 -0.29443464 -0.7698681 0.119374536 -0.46032098 -0.9321341 -0.8113259 0.011190699
357 0.66423726 -1.0656983 1.0527507 0.8384157 1.0612463 0.38652167 0.30805498 0.3446627 -0.098030776 0.55039734 -1.5790302 -1.2684895 -1.3466706 -0.23630393 -1.284496 -0.050152637 -0.03583746 -1.8140572 -0.07663956 -0.082294434 0.6954471 1.648053 -0.88827497 0.14253937 0.6157412 -0.60205084 0.28059918 1.6644377 1.0244981 0.31570277 -1.7275054 -0.76922673 1.0435237 1.7410153 1.0130756 -0.5681103 1.8762726 -1.1365079 -1.0016612 1.1242459 -0.62734264 0.570073 -1.094996 -1.0803573 0.8287572 0.32952344 2.5163972 0.1614193 0.8748447 0.48373276 0.82019717 0.65963733 0.0025353923 -0.59755886 0.63607186 -0.42462268 1.0927461 0.3014654 0.8708675 -1.2960998 0.4879284 1.1706499 0.9335965 0.29686964 0.39095232 0.62715185 -0.5071052 -1.0233748 -1.8554022 0.07471475 0.47085097 -1.0650142 0.26702023 0.086739436 0.69994986 -1.163231 -0.28677094 0.9865881 -0.43128395 -0.3810194 0.6479177 0.04391588 -1.0551506 -1.0387912 -0.34510842 0.2379265 1.6454903 1.3655381 -1.0458668 0.41592187 2.2261736 0.7602348 -0.48568407 0.33135086 0.32007253 0.7277008 -0.8389679 0.47345382 1.2019646 -1.2287494 -1.9473808 0.99095434 0.16465482 -0.8134346 -1.4412465 -0.08922995 0.17337751 0.25530303 -0.59474266 -0.7251225 -0.3655934 1.5595121 -1.0040375 0.40312615 -1.3255217 0.02147072 -1.5769476 1.0696459 1.0454305 0.42779535 0.17838515 -0.04808654 0.6867948 0.29718697 0.75790083 0.3340402 -0.20351066 0.38906622
498 -1.9925954 1.1162056 0.8892025 0.30112374 -0.21809448 0.39336988 -0.004915199 -0.536573 0.40361154 1.0297092 2.0832856 2.0969656 0.8576465 0.4331566 -0.5325498 1.0852253 2.1040595 1.5664877 0.69436246 0.19095545 -0.10423754 -0.3957027 0.76234514 0.2062976 -1.211763 -0.00074112194 -1.1983421 -0.86586297 0.50856096 -0.13610667 0.9389499 -0.92335176 1.6699114 -0.39281157 -1.2338347 -0.53983015 -1.4851981 0.56122017 -1.5700366 0.8010045 -0.122157894 0.39721307 -1.6773574 0.3789968 0.025449825 -1.1912878 -0.6478609 -0.5922085 1.3613485 0.46615386 -1.3832762 1.4230418 -1.2190361 1.0098358 1.3758141 0.5284263 0.59510916 0.24817115 -0.51135087 1.1675768 0.23851208 -0.1340244 0.14749248 -0.034443736 -0.6961716 0.38051233 0.9225637 -2.5458875 0.48842415 -0.13410383 -1.372928 1.997671 -0.081629775 -1.1256733 -1.7790772 2.3147485 -1.4511865 -0.018103523 0.89578855 0.90712667 1.3615305 0.009151947 1.07998 0.16379225 1.707779 -0.49121457 -0.16885425 0.57279503 -0.04674612 -0.26510036 0.35377905 -1.320122 0.39508092 0.30521256 1.1579493 0.14512682 1.5130253 -1.6815337 -1.4799018 -0.39137235 -0.7617676 0.11888723 0.43169537 0.30876076 0.43382257 1.4581121 -0.95876706 -0.52344 -0.5021407 1.2608671 -0.21645638 -1.7432542 -0.37922797 1.163083 -0.8819677 0.37270227 0.15772358 -0.86658216 -0.9475309 0.5079641 -1.8411682 -0.8724506 -0.094741076 -2.0186064 -0.096417084 1.1585146 -1.0433946 -0.32562232
182 -0.9403051 0.40648636 0.80963004 -1.4297353 0.222376 1.2813255 -0.57662517 1.438389 0.47808772 0.65065503 0.7382276 0.5738653 -0.25999266 -0.54360104 -0.23991032 -0.20799358 -0.18983817 0.4639147 0.8478249 -0.46183434 1.3541398 -1.5654775 0.71304816 0.19974008 -0.88161075 0.9439684 -0.052034754 0.18983942 -2.7747955 0.18419263 -0.4166694 2.175222 -0.27318412 -0.011892794 -1.3653245 -0.46106386 -1.2853874 -0.1511956 -0.34353307 -0.07851123 0.7620548 -0.6238772 0.64788777 2.0360558 0.2771473 -0.16054465 -1.7692039 0.12846862 -0.17375727 -0.19666685 -0.14268464 -0.18051983 -0.114550054 0.79228365 0.7166976 -0.18801972 -0.2268502 -0.4730157 0.4446043 0.19234133 0.43760535 -0.6737623 -1.3786162 -0.7617193 0.19395904 0.36124724 0.036695115 1.0436438 -0.14659339 0.72017676 0.9217689 1.6481333 -0.33317477 0.873936 -1.1191587 0.1411196 -0.16140285 -1.2716231 0.5886179 0.6774859 -0.6611829 -0.47109252 -1.1408018 -1.3868641 0.07290931 -0.09101579 -1.2844692 0.1044605 -0.17318594 0.12782593 0.11811887 1.1737953 0.2675539 0.28671017 -0.9117484 0.64807206 -0.6975234 0.7532203 -0.13118762 -0.32563445 0.0025970202 -2.0511746 -1.3395802 1.7018032 0.53020126 -0.9001383 -1.5514315 0.6922615 0.0410517 1.4738684 -0.35317528 0.2872469 0.43061188 -0.59913063 0.4484071 -0.52048856 -0.21715899 0.59882814 0.43029678 -0.29469946 -0.5568534 0.36992693 0.29902583 -0.69599676 -0.2733594 -0.2624118 -0.19310726 -0.49313715
31 1.0310955 0.6851357 0.19059318 1.050078 0.10152076 1.3776658 0.66616124 0.25429094 0.38164237 0.75862885 -0.76573205 -1.218821 1.1664081 -0.11313713 -1.4933217 -0.12872432 0.15684348 -0.95212203 0.75857913 -0.43393958 0.63265264 2.58577 -0.273354 0.6646453 1.0625998 -0.6309068 0.012341729 1.1785325 1.214956 1.474724 -0.8229555 -1.248438 1.9568275 0.9696895 0.9840002 -0.7922462 2.4256215 -0.09322168 -1.6638517 0.87743914 -1.0263265 0.55513257 -2.1720197 -0.5232561 -0.7028095 -0.41984844 1.8437732 -0.6141375 0.6853379 1.4668603 -0.15704402 0.1707965 0.27489936 0.052014362 1.2597265 0.46294406 0.51666445 -0.6918558 -0.021962557 -1.1269851 1.2059327 1.7426685 0.8694927 0.2713698 0.3683285 0.0046539446 -0.3852217 -0.81683475 -2.440742 0.36481762 -0.34029272 0.45993444 -0.29840142 -0.05096086 0.7999905 0.80972874 -0.9438017 0.27263716 0.11808497 -1.3472688 0.48375812 0.5108405 -2.0659769 -0.7334213 -0.7390325 0.033952344 2.0443647 1.9726852 -0.7161908 0.5272812 1.5111039 0.97460175 -1.1844331 0.20567083 -0.8819232 1.3766038 -0.94315207 0.8965018 0.19027597 -1.0354273 -1.0708638 -0.16354515 0.24886277 0.6357789 -0.9354016 0.26402134 -0.78915566 -0.777498 -0.43549192 0.0022494025 0.31147 1.2289426 -0.8046214 0.68979317 -0.5096199 -0.40684074 -1.2978704 1.0754044 0.58467853 0.46461475 0.8865352 0.3572077 0.47464913 -0.16348274 1.4762752 0.8140229 -0.36777556 0.19316246
164 0.4567007 0.28639543 1.0718167 0.96326953 0.17056912 0.61612266 0.3973999 -0.52053636 0.35315686 0.74274427 -0.9782306 -0.36549684 -0.7797762 -0.103400305 -1.4383912 0.075826615 -0.18904214 -0.98697114 -0.1719699 0.0028909566 0.6654492 1.9052514 -0.7442067 0.81282556 0.3013661 -0.60779834 0.79698837 1.5055276 1.4398965 0.663284 -1.5571715 -0.7719374 1.5437146 0.78266644 0.95317894 -0.79676867 1.6442579 -0.5303711 -2.0065272 1.0091903 -1.3127718 0.3268337 -1.5482881 -1.0504206 0.67226785 -0.024784103 2.7197092 0.60933447 1.0387051 0.3315827 0.0974096 1.5625901 -0.14671423 -0.09791951 0.6920531 0.43285084 1.065381 0.6028629 0.61496663 -0.83659226 0.106823824 0.9609401 0.50215626 0.49518934 0.5670368 1.1403027 -0.6854668 -1.2649062 -1.5073256 -0.47442973 -0.29985744 -0.4793579 0.7503592 -0.28964862 -0.12885852 -0.12855437 -0.9436613 0.76883364 -0.9552097 -0.08786641 1.0977101 0.2161 -0.36463174 -0.9811887 0.64441687 0.28242034 2.0918412 1.1286876 -0.551892 0.5287345 1.9570056 -0.3809962 -0.5997253 0.15475556 1.220024 0.98888403 0.018483179 -0.24142492 0.22440653 -0.9254776 -2.125744 1.1322297 0.30029237 -0.8611502 -0.3483887 0.46795586 -0.63382286 -0.14903933 -0.53697616 -0.2803828 -0.12058806 0.561788 -0.2533482 0.8062394 -1.4837474 0.12418595 -1.1486022 0.71847236 0.34778398 0.87065065 0.0064131073 -0.556084 1.060882 -0.907033 0.8051105 1.4532815 -0.51799965 0.43806502
389 -0.78062624 0.59226394 0.5581795 -1.9268297 0.017873777 0.8338657 -1.3864042 1.0586143 0.7720415 0.1756874 0.8603762 -0.10592709 -0.47601023 -0.39040136 -0.19966574 0.859863 -0.16556253 0.9785797 -0.597436 0.3331157 3.2344573 -0.97545654 1.2570165 -0.18981689 -0.7178379 0.7903018 -0.35217857 -1.0529186 -1.2292966 -0.020920213 -0.397726 1.9217881 -0.7211577 -0.13990602 -1.5561324 0.3860219 -0.63671124 0.33740416 1.0421963 -0.8298263 -0.32789037 -0.2229242 0.49561483 1.1927189 1.0522487 -0.0420001 -2.2002578 0.08400018 0.40211514 0.40061063 -0.88650787 0.19841656 0.042634726 1.6251968 0.44749537 0.03973606 -0.502745 -0.42651275 0.5625913 0.4634584 -0.47032452 -0.22278342 -0.9040948 0.051695194 -0.38871148 0.37639266 1.3679014 1.0505168 -0.00094933365 0.16068408 0.39463487 1.5900122 -0.09620658 -0.7628568 -1.2255355 0.15201673 -0.32979062 -0.22461775 0.9044785 2.3409786 0.09291831 1.5148809 -1.2103016 -1.3906435 0.39529765 -1.0095229 -0.7968441 0.71500516 1.5477315 0.38903472 -0.6191955 1.0335706 0.35251367 0.23981753 -1.0505434 1.6162632 -0.19218889 0.5781058 -1.0055755 -0.2852054 0.8780635 -1.0455978 -1.3951793 0.75368 1.4762338 -1.727204 -1.3131601 1.3214071 -0.4393433 1.6246718 0.38935548 0.48733416 1.372866 -0.3073457 1.4826119 -0.36198983 -0.94545376 1.0025885 1.8373168 -0.8604793 -0.857048 0.065006346 0.6355349 -0.578399 -1.47732 -0.8558551 -2.0746262 0.022610275
603 0.376746 0.70692444 -0.40663245 -0.89111567 1.5319753 2.1351345 0.38313437 0.4196794 -0.70342386 0.4320522 0.677211 -0.5986445 0.8220271 -0.31909123 0.24922086 -0.65884304 -0.43638647 0.28719237 1.1362014 -0.41193676 0.54749286 -0.7476332 -0.6784284 1.0622716 -1.4548721 1.0282668 0.32795078 -1.5477911 -0.88247687 1.0325251 0.9746243 0.7694352 0.38946116 -0.21625921 -0.8481908 -0.19947171 -1.864706 0.73641974 -0.80671453 -0.15271053 1.0297384 -1.4256061 -0.061114553 -0.113147244 -0.94888526 0.1656292 -1.8028599 -0.89300793 0.51921666 0.47809634 -0.23079637 -0.49409658 -0.6824254 0.23606125 -0.40442258 -0.68521404 0.36235917 -0.5504381 -0.07323356 0.24013202 -0.21459617 0.29484642 -0.59156114 0.35117093 -0.35151374 0.7154738 0.8467525 1.4768713 0.18990119 0.34835225 -1.1028206 0.64548117 -0.42677775 0.38989243 -1.16896 -0.70262814 0.97874326 -1.0296273 0.5327415 -0.2649732 0.4142038 -0.34913626 -0.022461174 -0.7801549 0.81880265 -0.47107926 -1.6084503 2.4777553 0.04667346 0.5425636 0.013604932 0.3537013 0.80647326 -0.20050259 -0.85975486 0.10613643 -0.46324426 0.42363015 -0.02291663 -0.58139586 0.56264114 -1.7465415 -1.1356043 1.9162858 0.21688886 -0.3283525 -0.7403623 0.4935364 0.93499327 0.6962906 -0.6162278 -0.9713638 -0.28185982 -0.94443464 0.6866364 0.806124 -0.77723646 -0.33379462 -0.6104449 -0.6638353 -0.727991 0.4526278 -0.65071356 0.44552013 0.86200494 -1.2037334 0.43250674 0.23841923
317 -0.69304776 -0.05228113 -0.7570228 0.38889992 0.91891485 2.0530398 0.4360193 0.92821157 -0.2491559 0.15714115 0.52247757 -0.02645748 1.02395 -0.5519649 0.40857312 0.11840911 -0.4157142 0.29231653 0.62939924 -0.36963615 1.2409725 -1.076257 -0.19440915 0.37878188 -1.0879734 0.14323646 -1.2112218 -1.2756937 -0.85476774 0.34937993 1.1073798 0.99416304 0.08118679 -1.1459196 -1.3801419 -0.83591753 -1.4372495 0.40663248 -1.4107778 -1.1772639 0.7189683 -1.4858855 -0.34260213 1.6701213 -1.8859326 0.59214574 -1.7673523 -0.47752964 0.94031256 0.5897702 -0.79749817 -0.54438627 0.0050801267 -0.25281447 0.003886056 -0.015581731 -0.02985614 -1.0152179 0.008477293 0.3370799 -0.51427346 0.121025264 -0.3161618 -0.15188643 -0.54360646 0.54478765 0.43192092 0.37544104 -0.44874442 0.87073815 -0.61403674 1.8389786 0.2349773 0.8085382 -1.2611796 0.32827437 -0.57547826 -0.6314351 0.6572027 -0.9225045 0.22044435 -0.9338366 0.20952448 0.04198555 -0.20580667 -1.4690093 -0.8322368 1.6058183 -0.27821565 -0.012576617 0.8281737 0.5201343 0.33937562 -0.19460872 -0.36576533 -0.025652327 -0.86336744 0.22036771 0.41919333 -1.0557334 0.47365057 -1.3769313 0.052054558 1.7260079 0.099077486 0.2595076 -1.0496377 -0.5885621 0.5834496 1.1687342 -0.7551244 -1.4912099 0.090119146 0.39546987 0.427305 -0.85137594 -0.7004368 -0.20498927 -0.47008768 -0.6052103 0.0578048 0.41988927 -0.4219392 0.23869796 0.5449475 -1.163828 0.2431733 -0.7767747
217 0.1526029 -0.4710412 0.5387172 0.96912766 0.43803564 1.5369054 0.14156732 0.22781189 -0.112386 0.6782257 0.19798864 -0.24988154 -0.23190343 -0.027805664 -0.28711382 -0.09075037 -1.0432599 -1.2430567 0.57656 -0.28509885 2.2705848 -1.0615795 0.47069812 -0.32921225 -0.1795608 1.3378305 -1.46135 0.20166269 -0.40504566 -0.31671646 0.6098827 1.2685515 -0.6568298 0.43216437 -1.5128119 -1.3266016 -2.2106583 0.7163075 -0.26011133 -0.495401 0.6966977 -0.56383556 -0.7601154 1.3191831 -0.37103885 -0.73448795 -0.67494667 -1.0335574 0.4654342 0.2726626 -0.5640778 -0.5286255 -0.2891512 0.14350197 0.15612887 -0.47655293 0.63816315 -0.94579154 -0.01918565 0.6314635 -0.6337918 0.14997137 -0.3544063 0.60002214 -1.2389811 1.087 0.56496745 0.25753757 -0.9965267 0.56369424 -0.5283398 1.1502126 0.019876521 -0.83333683 -0.68368286 -0.034942865 0.2651132 -0.66102993 0.6925708 -0.3007361 0.49058267 -0.73191476 0.12731938 -0.8810753 -0.2803659 -0.575591 -1.0018969 2.2144635 0.05544802 0.7857423 1.0311619 0.4835938 1.2007467 -0.98930824 -0.93293077 -0.674907 -1.7176772 1.3579116 0.36391822 -0.9921839 0.04645028 -0.6437229 -1.4453553 1.2197534 0.2356115 -0.19516976 -1.2070943 -0.13707829 -0.3781521 0.45501086 -1.5452669 -0.17163323 -0.42460662 -0.70898354 0.06662695 -0.9545254 -1.0623873 0.55706877 -0.0672125 -0.7879559 -0.66108733 0.091818415 -0.37968194 0.31065753 -0.50475246 -1.0687774 -0.437912 -0.17833783
87 0.54051113 0.06490744 0.90194416 -1.0329309 0.16910294 1.2469765 -1.1261919 0.5134829 0.90712804 0.8506042 1.2894548 0.3487233 0.71902263 0.03506097 0.13513492 -0.5432556 -0.3831057 0.13796014 0.44680315 -0.08763581 1.3316776 -0.9977967 1.1141686 0.1359709 -0.46124843 0.7406647 -0.40361822 -0.2484383 -1.307377 0.07941842 0.3220928 1.447211 -0.25096914 -0.19589876 -1.2368262 -0.6534841 -1.2337818 0.7025892 0.31362724 -0.07124148 0.53636223 -0.18505718 0.5299964 0.87502694 0.13303663 -0.3273053 -1.2035139 -0.7109212 -0.24559066 0.05417678 -1.2869874 0.08081566 -0.25079063 0.68553156 0.30581364 -0.2632632 0.12198375 -1.0040554 -0.06632291 0.6877369 -0.13842915 -0.15476665 -0.5034919 -0.19577698 -1.0454205 0.37979642 0.6104779 0.77255416 -0.1506681 0.65420866 -0.010516737 0.8058611 -0.6769786 0.037517168 -0.40942004 0.8360925 0.19589008 -1.0139009 0.76142406 -0.5850806 0.2866603 0.096725136 -0.7530299 -0.910137 0.30785218 -0.7157396 -0.82703733 1.7471834 0.832686 0.5294361 0.1504508 0.69454277 0.584604 -0.27813935 -1.2721639 -0.76763415 -0.83511925 1.1952095 -0.044705693 0.03775362 0.82637644 -1.7227123 -2.2331517 1.010318 0.014882216 -0.24714196 -1.2079235 0.17085731 -1.3087045 1.0892688 -0.13898483 0.11008426 0.22259052 -0.41407946 0.16908632 -0.576258 0.4361511 0.76496804 0.21195139 -0.8044769 -0.7393128 0.33359456 -0.030473566 -0.52405494 0.41569284 -0.722942 -0.77540046 -0.34345403
9 -0.9189831 0.16820233 0.10469366 -0.065994985 0.20089611 2.1940582 -0.18142004 0.97667724 0.35497066 0.22508155 1.9814442 0.21901897 1.4512872 0.22352551 0.2161877 -0.25988933 0.63383675 0.3314014 0.67290795 0.2764875 0.94669014 -1.0420502 0.88878876 0.28522164 -0.8468127 0.33496425 -0.735252 -1.130231 0.18011191 -0.23358576 1.0381252 0.8163935 0.69419193 -0.64257294 -1.5304861 -0.8462836 -1.3305751 0.5754207 -1.1652845 -0.7307009 0.47700575 -0.91919005 -0.55569434 0.8181669 -1.1599307 -0.8069997 -1.4008573 -0.1605664 0.7575431 0.47156474 -1.0028785 -0.079626046 0.08173231 0.33909807 -0.23911254 0.11060444 -0.42865518 -0.06104152 -0.21739064 0.65638244 -0.22160469 -0.42967296 -0.34993476 -0.56878453 -0.30462143 0.95508724 1.0736226 -1.0962707 -0.24093448 0.58092374 -0.5457092 1.8348846 -0.10039498 0.28884125 -0.917293 1.0685369 -0.97659713 -1.0021431 0.76845837 0.19717105 0.16037549 -0.42273352 0.4020016 -0.015513814 0.7312393 -1.1992896 -0.61551696 0.85047525 -0.42298803 0.4050533 0.65396446 -0.009006875 0.16760665 0.74888426 -0.51149315 0.38187137 -0.22914279 -0.2629557 -0.4354424 -0.85374045 -0.12471344 -0.3069768 0.23752795 1.1891845 0.20421967 -0.19722272 -1.7598665 -0.72906697 -0.3405564 1.0186068 -1.0995977 -1.0966262 -0.37052572 0.88287044 0.1407732 -0.5796094 0.11783285 -0.4522376 -0.28851005 -0.5720558 -1.2543789 0.5695033 0.16569987 -1.0966209 0.2638935 0.047104094 -0.4662166 -0.75673807
198 -0.07981984 0.21801925 -0.109468535 -0.33411357 1.0725218 1.3253895 0.3715473 0.4881818 -0.57550836 0.4963608 0.79396677 -0.33544302 0.91921705 -0.062391035 -0.1489077 -0.14358144 -0.09339167 -0.1846127 0.71459824 -0.66327566 0.71188873 -1.158948 -0.05577767 0.03623438 -0.84321487 0.943705 -0.45846394 -1.3535595 -0.9560525 0.18168433 -0.046973594 1.1134112 0.37696195 0.06361452 -1.2411877 -0.18720159 -1.1900342 0.6784616 -0.24247435 -0.09334774 0.95351994 -0.619435 -0.18269403 0.10466199 -0.61519694 -1.0592849 -1.8597662 -1.1681854 0.764101 0.05407648 -0.050521165 -0.39533255 -0.5722886 0.72117543 0.069004916 -0.18784839 0.5291287 -0.7296101 0.0414626 0.3873942 0.21537052 0.3890646 -0.34261924 0.4817261 -0.4930779 1.0872374 0.73672485 0.52580905 -0.5210857 0.8088114 -1.0217012 0.88530654 -0.198505 -0.4003746 -0.7626943 0.23341581 0.6018463 -1.2821558 0.95214504 0.2070804 0.3097841 -0.7453788 -0.36892775 -0.79969877 0.7278099 -0.24821536 -1.9189065 1.6607683 0.067958996 0.54680735 -0.53368974 0.6999088 1.2873094 -0.6784424 -1.6090224 -0.5609518 -0.8054724 1.00755 -0.30605492 -0.2224601 0.77331036 -1.4237092 -1.0509881 1.970648 0.32085583 -0.0066803694 -0.567531 0.77813965 0.03366288 0.472323 -0.8384709 0.025800286 -0.8198191 -0.44678584 0.21826576 0.6301942 0.07052359 -0.16015698 -0.09341498 -0.073963694 -1.0518125 0.18600553 -0.24814968 0.12405241 0.39881954 -1.2999692 -0.14674743 -0.0042113746
289 0.49232805 0.3220845 0.29337555 0.1942916 0.031994667 2.321247 0.3593429 1.3651152 0.45203894 0.4752066 1.5422897 -0.38843286 0.69623727 0.2953681 0.16890341 -0.7215004 -0.5808533 -0.04437319 0.35251024 0.17718725 0.93890274 -0.99696165 0.9704008 1.0707921 -0.4126956 1.0009136 -0.33276263 0.24913354 -0.47949892 -0.20451725 0.64435554 1.4432523 -0.06009728 -0.61930156 -1.1337261 -0.9041875 -1.4992881 0.7981799 -0.7287511 -0.6888987 0.36867952 -0.8522742 0.118120804 0.6272433 -0.4076903 -0.59722596 -0.7394013 0.20407017 0.1443152 -0.4095737 -0.69659555 -0.11981556 -0.09353342 0.6309993 -0.34487733 -0.3198073 -0.6108686 -0.18054806 -0.34303483 0.6094764 -0.43952617 -0.46375948 -1.0166048 -0.3586988 -0.16293201 1.8897982 0.72017026 -0.5333152 -0.81348526 0.44361803 -0.16906887 1.076319 -0.16276185 0.85332 -0.6436889 0.41637713 -0.29156935 -1.4426311 -0.6506755 -0.13471274 0.04906169 -0.29357892 0.2591804 -1.2947762 -0.50803816 -0.05780062 -1.4276189 0.82964647 -1.2224393 1.0151371 0.46213868 -0.58595926 0.34438074 -0.13649626 -1.1340483 -0.1189093 -0.56505525 0.31767574 -0.19110616 -0.26881656 0.4542889 -0.5621211 -0.040154446 1.1770947 1.4036537 -0.39777774 -2.4074242 -0.22618787 0.24320434 0.5844783 -1.4627745 -0.1258701 -0.40496677 -0.29195094 0.43117204 -0.7193538 0.44427258 -0.28899 0.19051819 -0.9801197 -1.871876 0.49286962 0.4659446 -1.0704893 0.30686808 -0.042942192 -0.42959437 -0.31728232
131 0.63530093 0.6115424 0.12152559 0.3577109 -0.1744803 2.0718539 0.22235392 1.1693625 0.36727962 0.47240087 1.692382 -0.45940667 0.8632764 0.17199613 0.5248899 -0.6273713 -0.32096353 -0.034623116 0.39783326 0.149196 0.7722774 -1.0554776 1.2883718 0.98780847 -0.3577378 1.0793388 -0.45949742 0.350887 -0.5772224 -0.19688065 1.0038197 1.236239 -0.048937574 -0.5135394 -0.90312374 -0.86209893 -1.6694206 0.76816654 -0.50478154 -0.82022357 0.3181874 -0.6680206 -0.12334296 0.7741097 -0.4089374 -0.86885256 -1.1717323 0.31075975 -0.10085937 -0.35151997 -0.87929386 -0.16283573 -0.215859 0.66286105 -0.30831212 -0.52295095 -0.5936522 -0.30401978 -0.60006934 0.64508784 -0.38700977 -0.411822 -1.0753168 -0.34285936 -0.4269539 1.5199935 0.64046204 -0.5593519 -0.70519346 0.2960583 -0.17846487 1.3974298 -0.38439143 0.4592153 -0.5363893 0.5948234 -0.07616766 -1.2166538 -0.515611 -0.050520644 -0.25479916 -0.016966892 0.22787386 -1.1293142 -0.6525208 0.12384185 -1.5519406 0.6809012 -1.1668621 1.0158536 0.10320714 -0.8553982 0.36975756 -0.1830554 -1.300992 -0.08390789 -0.5622374 0.4078374 -0.338651 -0.2579108 0.50278574 -0.7866366 -0.20814012 1.2224637 1.4185148 -0.38572744 -2.172001 -0.29592484 0.14174765 0.5433854 -1.4536803 -0.072007254 -0.40552577 -0.46711355 0.76822895 -0.83336514 0.5111019 -0.45336565 0.20160106 -1.1054178 -1.7969308 0.538966 0.3130948 -0.89872575 -0.10743377 -0.14933783 -0.42556885 -0.14612266
343 -0.28437743 0.5753363 -0.7414649 -0.9208156 0.33266386 2.4809866 -0.012021086 1.522738 0.36687124 -0.13357249 1.4323176 -0.75655097 2.018435 -0.15346472 0.48108855 -1.1836362 0.62835854 0.05382099 0.5733555 0.40103084 0.15375675 -0.33980536 0.32745418 1.1778852 -0.4830347 0.34958258 -0.03940174 -1.1015741 0.336473 0.80527884 1.1137412 1.0482178 0.890003 -1.1533226 -0.5190923 -0.3165392 -0.43105593 0.7550139 -1.3538431 -0.18730491 0.63052994 -1.0296692 0.27750352 0.18663435 -1.0940261 0.37123105 -0.6714312 0.038635675 0.2287785 0.19960965 0.24494503 -0.37206298 0.48560035 -0.3027499 -0.77509695 0.60247886 -0.3741537 -0.16013142 0.20331942 0.17804994 -0.057100475 -0.4629159 -0.7255547 -0.34098226 0.054320894 0.6058437 0.8427694 -0.3714859 -0.2325388 0.18215194 0.033882238 0.7550877 -0.06073426 1.2664032 -0.45050648 0.22424282 -0.6771519 -1.4408288 0.04012816 -0.5659025 0.64069825 -0.28468847 0.1925413 -0.47113565 -0.41375646 -1.1475999 -0.34096882 0.8829991 -0.6028958 0.69759035 -0.17397416 0.3825591 -0.4425876 1.0434885 -1.2682785 0.24296242 0.0016302664 -0.3507593 0.38989908 -0.7157378 0.14199056 -0.2829406 0.710471 1.1608044 -0.36650112 -0.14185394 -1.4598801 -0.62310237 0.028124161 0.4356907 0.18798582 -0.84555423 0.42927095 0.8237077 1.1625706 -0.938367 -0.024927318 -0.4893924 -0.68488216 -0.61159 -1.0810583 1.1740385 -0.2560812 -0.84754145 1.0301536 0.19507691 0.4457378 -0.48626995
35 1.5416951 1.3062319 0.05585873 -0.38679835 -0.4162717 1.2978909 -0.8587997 0.42874742 1.5768702 -0.3025142 2.62559 -0.5125481 1.407807 -0.020900201 1.2236392 -0.7972504 0.34372765 0.27214602 -0.8495919 -0.32905322 0.0910289 -1.0693152 1.2150357 -0.0124602625 -0.3651589 0.8275847 0.2608299 -0.3661326 -0.8607746 0.6822816 -0.13760422 1.945809 0.9348228 -0.9086419 -0.31028926 -0.6582164 0.032362238 0.47264737 0.23512465 -1.1802534 0.35925645 0.88033587 0.5221021 -0.14467911 0.5205931 -0.031150693 -2.2319107 0.08268459 -0.3142467 -0.69373167 -0.8015239 -0.46225443 -0.67447203 0.54278314 -0.90980893 0.051287856 0.1695336 -1.2889141 -0.6028313 1.3076546 0.13335702 0.20726846 0.0464324 -0.5327976 -0.677804 1.321497 0.82430506 0.12577179 0.16448854 1.1814966 0.049453996 1.2168624 -0.103163466 -0.13657181 0.24871154 0.9659787 0.95402235 -0.8996577 -0.1525539 -0.26384187 0.00082891557 0.029291516 -0.2560343 -0.59116185 0.8508178 -0.043186255 -1.4534642 0.5379025 0.19078688 0.2135184 -1.2360902 -0.6938882 0.43303925 -0.49391487 -1.7244819 -1.4078107 -0.22864136 0.8276482 0.75483716 0.21340674 0.9206756 -0.9444298 -1.0541949 -0.044288587 0.92310214 0.0014930244 -1.6675375 -0.38359353 -0.86385334 0.412578 0.3009198 0.26242527 0.44130954 -0.18941572 0.96760875 -1.0553602 1.1679881 0.34351084 0.10366046 -0.08556577 -1.3927678 0.90697974 0.5990731 -0.48946354 0.03033307 -0.10690712 -0.5799525 -0.035672422
434 0.21131562 1.5586352 -1.0131336 -0.76208436 -0.8553139 0.84364295 0.2751614 0.42080432 -0.11005444 -0.15460317 1.2210184 0.54148555 1.6061109 -0.107654855 -0.3367269 -0.051532518 0.63674104 0.52761674 1.0271297 -0.1694104 -0.420431 -0.45866877 0.56712717 0.9096276 -0.74335045 -0.0046059047 -0.5444086 -1.1537663 0.08439762 0.8431018 0.8823624 -0.5196122 0.61530894 -1.6266313 -1.028708 -0.3172085 -1.0606737 0.63666195 -0.9053616 -0.70416677 0.9207813 0.113696784 -0.62702125 1.2681003 -1.633058 -0.09362731 -1.0463005 -0.8135676 0.9796257 1.1758581 -0.8123688 -0.18146941 -0.050518025 0.32206568 0.38937208 0.6656713 -0.060541186 -0.7137902 -1.073188 1.0055919 0.2354638 -0.2338889 -0.22210327 -0.42369986 0.39430633 -0.10588407 1.4004734 0.16735531 0.801645 -0.27901796 -0.64990294 1.3121296 -0.38627833 0.487942 -1.4989383 1.3036463 -0.6858392 -0.6974542 -0.15773171 -1.2173029 0.5935458 0.038157433 0.61469096 -0.15892181 0.023569195 -0.3124745 -0.5458027 0.6803683 0.20710985 0.58974904 -1.2337017 -0.20325871 -0.9227456 -0.2020319 -0.7614922 0.16292533 0.8661994 -0.9493996 -1.1118357 -0.9523466 -0.20611401 -1.0932205 0.054949243 1.6951727 0.72418904 0.24449757 -1.0202523 -0.6713831 0.602876 1.2135427 0.99245024 -0.87661874 0.8853145 -0.30193874 -0.057488058 -0.75522226 0.09979905 -1.0969143 -0.67857945 0.5748812 0.1452705 0.50263035 0.94979364 -0.40743628 0.14525302 0.6492681 0.27076072 -0.6266962
550 -0.70509356 1.0439942 -1.280847 0.092401326 0.95205796 1.4283428 1.0988576 0.63249403 -0.035064135 0.046752065 0.6726151 0.4085614 1.1314892 -0.04633217 0.43266428 0.53756607 0.459038 0.7268435 0.21757707 -0.1361438 -0.12147956 -1.0613513 -0.4163352 1.2173417 -1.3440061 -0.11771909 -1.1304096 -1.676263 -0.7496021 0.79636425 0.6966897 0.041569058 0.75631934 -2.0897067 -0.6533813 -0.22049032 -1.0025191 0.7943433 -1.8554155 -1.0714455 0.42493996 -1.508396 -1.0083905 0.50485206 -1.6213816 -0.19011387 -1.9286934 -0.40422112 1.6138549 0.24395066 -0.8676753 0.39648 -0.76084864 0.2260459 0.34361923 0.5058596 0.32446033 -0.96900034 -0.16392642 0.5008194 -0.42509392 0.13625851 -0.25919133 -0.26499134 -0.4021876 0.47531754 0.76234853 -0.81662464 -0.062251203 0.7787741 -1.522368 2.2579124 0.39268968 0.08416328 -1.699843 1.0008463 -0.5040912 -0.35447645 0.6455022 -0.4762887 0.8724245 -0.86721736 0.74304754 0.19664598 0.24481589 -0.69530684 -0.92208374 0.98548883 -0.5512488 0.04123897 0.09855525 -0.68646365 0.7055309 -0.28601903 0.61096036 -0.27947474 0.40321326 -1.0191927 -0.2228012 -0.8252374 0.43102384 -1.1906135 0.6381418 1.0781639 0.7383327 0.81865233 -0.467949 -0.25078383 1.2348301 1.1871225 -0.55324095 -1.9305738 0.014313499 0.69051903 -0.10541994 0.0066685705 0.07240828 -0.85467565 -0.5791421 -0.114333436 -0.98990893 0.11112353 -0.42409194 -0.17896198 0.61077285 -0.2525034 0.13655366 -0.70560646
116 0.39929172 0.802684 -1.3343078 -0.7674973 -0.40648448 1.3435785 0.10222162 0.8976738 -0.017276697 -0.33934897 1.288184 -0.8298956 2.3766096 -0.4639483 -0.6317781 -1.5493522 0.5953721 -0.49517444 0.11238516 -1.1063288 -0.04007828 -1.3601817 0.81899905 -0.12208867 -0.38125977 0.29472065 -0.1412082 -1.4432496 -0.71703076 0.54736656 -0.45942494 1.2010665 1.2399175 -0.96533257 -0.75100505 -0.0021241752 -0.52047926 -0.25432193 0.11962524 -0.37635145 1.6834499 0.23037346 -0.3070694 1.4892759 -0.8091153 -0.14647256 -2.3509486 -1.2349849 0.09681552 0.7349305 0.6739458 -0.6963903 -0.3879271 0.07066871 -0.58204824 0.3827804 -0.22764169 -1.2092083 -0.38618737 0.72277474 0.7987891 -0.46158195 -0.90392935 0.090729155 -0.04424192 -0.49796945 0.7022404 -0.10837322 0.7433466 0.63566923 0.01598246 1.1330316 -0.80300045 -0.07512758 -1.1811528 0.6605339 0.56267965 -1.0855103 0.41926822 -0.51084954 -0.47467092 -1.0735704 0.42282793 -0.051527843 0.05482405 -0.13227163 -1.3592757 0.55297315 0.21138106 0.727746 -1.8619475 1.7612686 -0.4056347 0.07707018 -2.0106003 -0.23189396 0.15508887 1.2159665 0.9480623 -0.9443408 0.5908735 -1.6921088 0.11758239 1.5186985 -1.0107738 -0.29962426 -0.8388635 0.4011754 -0.4816545 0.34305578 1.1622438 -0.41233167 0.8370282 0.87901926 1.2979946 -1.2838103 -0.34268034 -0.6205208 -1.3401843 0.94878244 -0.533814 0.9537513 0.33269063 0.641306 -0.25517195 -0.08458883 -0.48377994 -0.5009436
151 0.43969476 1.3016509 0.59988946 -0.6078103 -0.15579593 1.365546 -0.6373311 1.0139707 -0.0061032297 0.61879456 1.3792331 -0.10078724 0.44228825 -0.0323167 -0.03611337 -0.6615597 0.58073246 -0.53894585 0.74680156 -0.13291624 0.74660283 -1.0839257 1.6134472 0.9104481 0.018587625 1.3505925 -0.38043684 0.41425496 -2.3738072 0.51235384 0.42208725 1.578769 -0.0143459635 -0.01972057 -0.4875694 0.34197158 -1.4701828 0.38800725 0.022422653 0.4637495 0.70677835 -0.15188369 -0.24374045 1.1466061 0.6372822 -0.27118662 -1.5663395 -0.1641621 -0.7537896 -0.31674328 -0.35934845 -0.29508406 -0.60665035 0.571306 0.79289633 -0.48290002 0.17568539 -0.877712 -0.37825143 0.67751205 0.50561863 -0.3994942 -0.9960178 0.115864135 -0.96651936 0.124763265 0.53528064 0.3967938 0.1300707 0.09173344 0.15367796 1.2272671 -0.74853766 -0.20015787 -0.82325417 0.7494345 0.39006472 -1.3157635 0.6588812 0.22161284 -0.06595261 0.24342628 -1.0277361 -1.5417228 -0.3885961 0.2163559 -1.6701964 0.87390363 -0.17637387 0.94809926 -0.4957384 -0.06841505 0.60672545 -0.42932442 -1.8338071 -0.07675846 -0.038894117 0.81103706 -0.19830988 -0.6672523 0.6262784 -1.5138922 -1.3594625 1.2093738 -0.08639651 -0.15916371 -1.3966 0.34941074 -0.77326876 0.56352353 -0.418805 -0.029079057 0.19888526 -0.84554535 0.5184548 -0.5431499 0.029829994 -0.22650915 0.38887596 -0.3647766 -1.281908 0.5247202 0.24783444 -0.19457695 -0.02735206 -0.20229432 -0.6309334 0.24688128
248 -0.5112025 0.6057409 -0.062078 -0.54341817 -0.04709405 1.4498267 0.07916733 0.7018831 0.85891503 0.36678946 1.6079903 0.48960862 1.9270099 0.47311395 0.083642 -0.88325995 0.86250365 0.49272025 0.81149256 -0.11057472 -0.48682258 -0.8467544 0.83228797 0.92836684 -0.7381621 0.15240397 -0.724151 -0.66811603 -0.21408972 0.4702677 0.586963 0.26728424 1.5995053 -1.2619867 -0.1652185 -0.69874245 -0.69375145 0.5590457 -1.2616568 -0.45771644 0.5238403 -0.6516711 -0.47540608 0.643351 -0.7375951 -0.7866226 -1.2176683 0.09708485 -0.08380431 0.08956052 -0.17552158 0.36981544 -0.5243727 0.51686877 0.3164234 0.77560717 -0.22875595 -0.5846263 -0.22471993 0.48739868 -0.019669818 -0.5342213 -0.6642905 -0.27577403 -0.70977104 0.14529084 -0.10816809 -1.7067173 0.2701043 0.24524486 -0.6205706 1.4035989 -0.368657 0.24477838 -0.85160184 2.204093 -0.4467577 -1.0923009 0.100131184 -0.5485002 0.295433 -0.34764883 0.42769343 -0.024291705 0.026503364 -0.013633385 -0.37978175 0.3269795 -0.7417481 0.40464336 0.23318684 -0.19821543 0.17589708 0.80614084 -0.135903 -0.31831303 0.19063203 -0.10206651 -0.06363646 -0.7577054 0.14160667 -0.78146505 0.46404773 0.74674207 -0.25707227 0.5670276 -1.017105 -0.61137354 -0.6168854 1.1936761 -0.33384523 -1.0059861 -0.619109 1.6448725 0.13009891 -0.9584442 0.8262566 -0.7901392 -1.0452862 -0.21433105 -1.8053817 0.39384925 -0.24743626 -1.4411155 0.5490543 0.95970064 -0.3146501 -0.06618656
555 0.14090839 -0.8469733 -1.0879742 -1.1013014 0.81936735 0.74972636 0.34329626 0.2562665 -1.1646948 0.035956822 0.18874335 -1.0068333 0.42056495 -0.64359945 1.5500153 -0.2152452 -0.11043158 0.18984635 -0.01600965 0.34125376 -1.0132674 0.65073043 -0.8379284 1.4047767 0.33762494 0.08565817 1.2739437 -1.425441 0.96929526 0.5421188 0.24285512 0.17316893 0.18329409 -0.33801267 -0.121157095 0.98681146 -0.017121717 -0.28340155 -1.3501104 0.09894035 0.7841623 -0.6726177 1.2596089 -1.4662467 -0.509267 0.27793264 0.17784677 0.20200244 1.3284218 -1.3156649 0.7438142 0.2307368 0.4400881 -1.2246995 -1.2864769 0.65048933 0.44132495 0.5432769 0.7469342 -0.25417444 -0.715224 -0.17430218 -0.24218713 0.038761705 -0.46897322 1.8364304 0.6349461 1.6476457 -0.50326335 -0.6158722 -0.23591419 -1.793116 0.49096233 1.2734954 0.2197806 -1.7695565 0.19809899 -0.64919376 -1.4039648 0.110929914 1.3896393 -0.06625318 0.7685182 -0.34452564 -0.084476694 -0.5867564 -0.84371454 0.9280783 -0.032970965 0.6222364 -1.3754989 -1.0498029 0.48044947 0.3782505 -0.8189838 -0.30774054 0.8859825 -1.0469108 -0.1175485 0.6690829 0.123725116 0.9472401 -0.3585618 1.4533758 0.23776975 -0.36562085 0.73844475 1.058365 0.4276635 -0.32941484 0.4741624 0.47863212 -0.038205367 -0.28485525 0.5854685 0.62898386 0.8400012 -0.6076094 0.022273263 -0.67833173 0.107586734 0.62671834 -0.7781676 0.16980122 0.73202246 -0.7050544 2.001763 0.09064347
545 0.12598214 -0.20250115 -0.31498766 0.12054848 -0.28501666 -2.8009653 -0.9884495 -1.6418957 0.14632131 -0.67456853 0.31779802 0.43492183 -0.19500244 -0.7380807 1.5981044 -0.016182419 1.1769129 0.87004185 -0.21990363 0.57383454 -3.198277 0.1460801 -0.037218954 -0.025606992 0.41281167 -0.6611916 0.66202116 1.2831208 0.4113183 -1.0933214 -0.34766605 -1.4426458 -0.6742866 0.012799447 1.698258 0.59363616 0.9531826 -1.1299952 0.24238348 -0.41479176 -0.54552054 1.7983279 0.5372875 -0.5284532 1.2145393 -0.016691908 0.48155472 1.0423892 -0.041714054 0.131855 0.7003983 0.91941875 -0.281674 -1.1858565 0.058246 -0.71814775 0.09518602 0.28082168 -0.16798912 -0.84774435 0.021983389 -0.49982765 0.25314912 -1.5891379 -0.069472454 -1.0943096 -0.7753773 -0.28408334 0.8966527 -0.686565 0.86461306 -1.2449073 -0.7691019 0.81227326 1.0470172 -0.50307685 0.6162379 1.3673115 -1.479216 -0.8870504 -0.6570677 -0.101579726 0.5770969 1.3951652 -1.4591357 0.8830951 0.22023828 -2.0012085 -0.66000485 -0.21580899 -1.5222132 -1.3972033 -1.1568966 -0.043899592 1.4396573 -0.7363626 1.1711493 -0.3014681 0.9509808 1.3111601 0.030241601 0.84846663 0.56948274 -1.8768071 0.3233602 -0.057314698 2.4884648 0.2482535 -0.8015728 -0.49828082 1.1096132 1.4495208 0.17100039 -0.650801 0.022815323 0.5707092 1.605701 -0.90711665 -0.27392206 -0.32057616 0.719425 -0.7113373 0.5868498 0.8036201 -0.837117 0.19323596 1.3120465 0.6232103
601 1.205592 1.0930959 0.0933078 -0.04372402 0.33980846 2.2815316 -0.42555368 0.4742733 0.365881 0.61347836 1.8098547 -0.6291329 1.1603446 0.05882309 0.8301339 -1.626815 -0.2933753 -0.8106572 0.7843561 -0.27893597 0.4444241 -1.175576 1.0738287 1.0827949 -0.67320675 1.5614817 -0.3662577 0.25941497 -0.94836694 0.2812539 0.814811 1.5389504 0.30271903 -0.105838336 -0.45477295 -0.7617774 -1.5621669 1.0884892 -0.2871257 0.061308656 0.8811392 -0.36861306 0.19303817 -0.07497844 0.20154928 -0.067648634 -1.2817514 -0.44995913 -0.50457114 -0.046047535 -0.15451407 -0.379232 -0.55615157 0.19284493 -0.36235636 -0.7787612 0.39377937 -0.9391994 -0.5028095 0.6394107 -0.042368516 -0.2102437 -0.8956496 0.39356068 -0.6337931 0.738335 0.25749233 0.05738021 -0.1447561 0.3949282 -0.38283888 0.28381646 -0.5550871 0.32947657 -0.7535302 0.7421628 0.75286967 -1.8187389 -0.4209136 -0.7613382 0.21459825 -0.43316188 -0.08696237 -1.2184238 -0.121297844 -0.075585 -1.5698891 1.5531838 -0.6559171 1.1946335 -0.113725 -0.6267467 0.7861144 -0.43244427 -1.8771402 -1.0584543 -0.9521365 1.1803119 0.52462465 -0.61628777 0.68531036 -1.1892179 -1.0505728 0.86897683 0.11616697 -0.047718827 -1.7819155 -0.23095189 -0.97439855 0.15087603 -0.85135835 -0.4843399 -0.25506395 -0.7365262 0.43497694 -0.68713117 0.46180984 -0.04006942 -0.40679684 -0.303394 -1.6703857 0.8602617 0.51501757 -0.42356098 1.0164393 -0.5444255 -0.17595269 0.65365946
374 0.44100833 -0.055703055 -0.42219886 0.12981021 -0.4013348 -2.6911125 -0.9747229 -1.5827817 0.13455439 -0.6795148 0.2635235 0.40050122 -0.06775487 -0.7582867 1.4664677 -0.12412216 0.92685336 0.7517637 -0.26261693 0.30318233 -2.9811532 0.19967607 0.055300582 0.0867807 0.27554956 -0.5979487 0.7988431 1.3172351 0.45487785 -0.9059426 -0.37803197 -1.3088917 -0.555539 -0.059989866 1.6623629 0.48209417 1.0333971 -1.084264 0.16732861 -0.5876436 -0.39924875 1.8269165 0.6713201 -0.55254394 1.1754957 0.14884022 0.41365254 1.1541833 -0.07679126 -0.010082583 0.6532585 0.7752027 -0.21179485 -0.9908744 0.08945166 -0.54309285 0.10535867 0.27684763 -0.24074994 -0.6502086 -0.09334209 -0.3016311 0.24810384 -1.4098134 0.09954088 -0.8022655 -0.90251106 -0.08529361 0.937025 -0.8585505 0.6741966 -1.253905 -0.52698237 0.9183578 0.9862736 -0.29214317 0.71667963 1.3321862 -1.6035315 -1.0105869 -0.6342572 -9.618296e-06 0.6862626 1.1864531 -1.2608876 0.93774384 0.32434073 -1.9409277 -0.52055717 -0.04217146 -1.647905 -1.5837429 -1.1033533 -0.1968596 1.3323101 -0.8007263 1.0699776 -0.30389306 0.84579384 1.1651539 -0.056262147 0.746133 0.33298412 -1.6870852 0.38734788 -0.022623003 2.2666845 0.1351247 -0.80072385 -0.46713883 1.2060502 1.3568941 0.46144056 -0.68003166 -0.010954396 0.39502236 1.6093875 -0.98364836 -0.2993133 -0.027348345 0.7604768 -0.7176708 0.7621335 0.8064424 -0.7179413 0.19201171 1.2882301 0.6403161
616 -0.008409269 0.1227846 -0.44688806 -1.292276 0.9201884 1.5868226 0.2181822 0.4512293 0.05294225 0.15484114 0.99301296 -0.34119606 1.556216 0.06688215 -0.0791869 -0.7859929 0.5286038 0.16049862 1.142725 0.007991051 0.17884937 -0.8582781 0.016605966 0.749282 -0.970282 0.5827485 -0.5215896 -1.3651532 -0.6993299 1.0637031 0.33852947 0.71661574 0.8290579 -0.8464874 -0.7046989 -0.008008756 -0.7661379 1.049057 -0.2689295 0.41921127 1.1335242 -0.7395569 0.01232182 0.07478082 -0.71894205 0.062233225 -1.0753272 -1.3189985 0.51181525 0.8096959 0.32528245 -0.3956489 -0.7017985 0.24936154 -0.06428204 0.26967192 0.613638 -0.7426038 -0.09557155 0.27651793 -0.0009882391 0.22291559 -0.13850579 0.34298816 -0.18301904 0.040467307 0.5329608 0.30653828 0.2586233 0.34704834 -0.5273705 0.14672397 0.060908403 0.18872343 -0.5655085 0.68405056 0.44923013 -1.643149 0.8687818 -1.0535511 0.8707217 -0.7664706 0.2654039 -0.7298773 0.43037575 -0.4370812 -1.2512043 2.0390873 0.15662862 0.35757202 -0.7140699 0.99933106 0.6080124 -0.31792074 -1.4519159 -0.6723111 -0.5679526 0.52782065 0.29322758 -0.5977886 0.672995 -1.6098634 -0.6337498 1.4323475 -0.8951748 0.40210292 -0.539721 0.2767243 -0.5656261 0.4536868 0.2919044 -0.7456577 -0.23478065 0.40672922 0.4297319 0.19427821 -0.01606004 -0.17975427 -0.9977673 -0.286566 -0.7557671 0.50921154 -0.09683684 -0.4608975 1.4563437 -0.48389962 0.31666073 -0.2559535
597 1.7283986 1.2329707 0.18101715 -0.038443442 -0.8606514 1.9091086 -0.24998114 0.79343414 -0.35287663 -0.22771889 1.5886496 -0.813047 0.5714149 0.48138097 0.2974026 -0.98204505 -0.13073416 -1.4503946 0.4227713 0.08181025 0.76395136 -0.6483152 1.3177629 1.1277118 0.16595067 1.2384464 -0.5547433 -0.087041035 -1.1670704 0.09151446 0.551123 1.3716857 -0.3570771 -1.0239798 -0.6677805 -0.23501985 -1.7156483 0.55166495 -0.23481795 -0.30547312 1.0813475 -0.23138198 -0.2438074 1.0661054 -0.3994697 0.31894574 -1.2121042 -0.5979695 -0.43149278 0.53209937 -0.8538546 -0.75210106 0.038869824 -0.1471679 -0.011064953 0.10748628 0.24673152 -1.1482769 -1.2173882 1.287828 0.06817599 -0.8245796 -0.7145471 0.32904986 -1.0103908 0.037891764 0.54690063 0.75694495 0.54093504 0.3310955 -0.11705328 0.69743156 -0.42478654 0.077335365 -0.698822 0.37731072 0.32086268 -0.8377199 0.056614306 -0.569862 0.4015126 0.28574404 0.30305412 -1.0716372 -0.70364475 0.04185646 -1.7145071 1.8491508 0.011931057 1.3791634 -0.79585665 -0.42915335 0.14266482 -0.9041648 -1.8734323 -0.5727344 -0.28146702 0.43512443 0.08173777 -0.8766694 0.34766856 -1.6048865 -1.6057321 1.362223 -0.001988332 -0.473815 -1.2340621 0.54876745 -0.5018458 -0.0018239458 -0.022266418 -0.6857091 0.55861527 -0.606985 0.5260235 -1.1138077 0.092121065 -0.54521817 0.22687824 -0.37408668 -0.63923836 1.0349826 0.7253778 0.3648487 0.5380102 -0.2648212 0.033870157 0.05349337
230 -0.112050734 0.025816906 -1.9787586 -0.15840493 0.2504093 -0.32467055 -0.6474621 -0.89129084 0.110109486 0.5309724 0.060394764 -1.2013488 -1.5404948 -0.53510606 1.3178321 -0.9537904 -1.1189122 -1.5943613 -1.132937 0.76854634 -1.432219 -0.7394812 0.48800516 -0.13623396 0.27479348 -0.63700545 1.3965108 0.24749084 0.37956426 -0.031012267 -0.88418466 -0.32148194 -1.5708736 -0.17271182 1.8319712 -0.1981248 -0.20887868 -0.32292503 -0.45054358 -1.3075297 -0.4242722 -0.546688 0.07796005 -0.34363493 0.018380102 -0.5073829 0.6471709 1.3281136 -0.05460427 -0.1700375 0.18740734 0.44994396 -0.2314276 -0.79436743 0.24467038 0.087980345 1.0056378 1.1094936 -0.045187894 -0.5897264 -0.7281268 0.42982578 -2.1349437 0.32167223 1.4226906 0.40364397 0.750192 -0.7367277 1.045922 -0.12615089 0.40304083 -1.0740505 0.63924384 -0.012388997 -1.5867636 -1.5607469 0.32553905 1.1210452 -2.743888 0.14539222 -0.4968274 -1.2196643 2.0008895 -1.0572193 0.84956414 0.44810313 -1.3158562 -0.88025486 -0.42732733 0.1367157 -0.21956958 -1.6400462 -0.40723312 0.7690583 0.180094 -0.6615217 0.58125293 -1.2633823 0.5888714 -0.5853906 -1.2247175 1.2059658 0.43786198 -0.08530333 1.228607 0.019743085 2.2208095 -0.41899854 0.8908312 -0.79901016 -0.118051864 1.1416439 1.512468 -0.7012686 0.23877057 -0.91708237 0.18002252 -0.20244412 -0.2830223 1.565304 0.93663436 0.11439857 0.32781017 -0.63641804 -1.5307326 -0.62766016 0.73232526 1.4920105
350 0.13886413 0.22467837 0.462222 -1.3980579 0.24208978 1.648295 -1.0096452 0.734749 0.5603927 0.63463116 0.14896452 -0.080136806 0.23677911 -1.2143154 0.23964252 -0.36385334 -1.7335652 -0.16974 0.14236195 -0.31454143 2.3872619 -1.2014195 0.6010204 -0.0665651 -1.1505501 1.0796292 0.19350341 -0.5058526 -1.3940841 0.028875927 0.26472852 1.6444914 -0.7293699 -0.03869986 -1.0589682 -0.9989199 -1.6305583 0.58382565 0.10083895 -0.8955188 0.2064177 -1.1859016 0.647217 1.1854304 -0.0835254 0.81565964 -1.473302 0.12668635 -0.47479442 0.6806793 -1.1103957 0.4375917 -0.31182685 0.01781371 -0.30108398 -1.0423132 -0.2316104 -0.8472849 0.3448547 0.0364814 -0.914624 -0.4023188 -1.690597 -0.17276186 -0.32503518 -0.115155816 0.3469977 1.5439687 -0.048730925 0.86313456 0.5297768 1.0668697 -0.7403726 0.023325795 -1.6311541 -0.3811449 0.0025588984 -0.33774728 0.0011596548 0.14620781 0.023157734 -0.23856133 -0.0050364956 -0.78946507 0.26422742 -0.9245524 -0.53168476 1.8423606 0.9463753 0.09035727 0.9109422 1.1857917 0.54571396 0.97995996 -0.34808165 0.5741935 -1.4818283 1.372899 0.530675 -0.492268 0.618778 -1.8031715 -1.4448606 0.99547774 0.5102261 -1.1886249 -1.4854305 -0.002332854 -0.50315064 1.8817955 -0.104139686 -0.5109638 1.0124555 -0.93249995 0.82676905 -0.99673194 -0.7683282 1.148727 0.067365855 -0.97164476 -0.32648423 0.5578652 -0.034228925 -0.23311526 -0.7847052 -0.74406147 -0.9174453 -0.44949916
491 0.53642327 0.14938661 -0.08133295 0.9043313 0.27768284 0.334276 0.8494293 0.081279166 -0.39684826 0.054926533 -1.5137036 -1.0610211 -0.86548674 -0.64743614 -1.2328733 0.37590227 -0.67636305 -1.62797 -0.20324759 0.18161607 -0.030683177 2.3257554 -0.99383646 0.40722615 0.962695 -0.6759587 0.4117991 1.3925452 1.5117565 0.21121722 -1.6837867 -1.0049545 0.84881276 1.0008147 1.0610662 -0.15106273 1.8908927 -0.8068564 -1.3696924 0.952762 -1.3902627 0.24743341 -1.6151038 -1.4395995 -0.2610311 -0.4250563 2.654713 0.7378329 1.2612396 0.5109975 0.248867 1.4433486 0.41932642 -0.45547858 0.6834778 0.06174819 1.0819142 0.36903417 1.1231089 -1.5777084 0.5190606 0.81515294 0.30089515 0.18630515 0.9180784 0.6442003 -0.15527385 -0.76937944 -2.1066396 -0.11119497 -0.36352196 -0.68736583 -0.04459998 0.07063351 -0.2689337 -1.0752304 -0.9417227 1.3348197 -1.0993829 -0.21260534 0.97988534 0.5249681 -1.1604084 -1.0357097 -0.2309792 0.09479598 1.7518704 0.5406644 -0.1527075 0.8212206 1.4294927 0.007595454 -1.3537394 0.32160035 0.587428 1.2404333 0.23394257 -0.25306144 0.09014541 -0.69171023 -2.1595087 0.782287 0.8570297 -0.3161861 -0.10459256 -0.37769362 0.19995622 0.07388203 0.43453905 -0.3474009 0.10722579 0.9724213 -0.41400725 -0.03818904 -1.669391 0.36045495 -1.0790877 0.96765316 0.71038824 1.1002427 0.77090204 -0.22611322 0.8761506 0.29368928 0.3809496 0.20104113 0.123475745 0.66494083
253 -2.297256 0.28772408 0.11350634 1.5492809 0.6020501 0.3085131 -0.47066638 -0.80576706 -0.5161166 0.54402405 2.5165634 1.85196 0.95443654 -0.0031084558 -0.48317572 0.88705647 1.5194377 1.8090186 0.89589924 -0.60233694 -0.45199606 -0.62801737 0.31838363 0.28479177 0.32839423 -0.1321861 -0.9933864 -1.6091846 1.5291477 -0.8898572 1.048549 -0.5874895 0.29324514 0.52235794 -1.4755988 1.1781218 -1.2307801 0.40313694 -0.41104493 0.009229622 -0.27332836 0.79854184 -2.3807168 0.5638162 -0.9028616 -1.8214957 -1.3715304 -0.8041747 0.5312487 0.30934343 -0.99850667 0.26553974 -0.79106253 1.8143059 0.83077747 -1.0149999 -0.65446883 0.8264252 -0.70135105 1.1844456 0.51934934 0.08568247 0.22464973 -0.069990106 -0.7879217 1.0058489 2.4002728 -1.711234 0.23671055 -0.21470468 -1.7656325 1.0404823 -1.4865456 -0.105651945 -0.9886905 0.95784813 -1.0742265 -0.044511534 0.71993303 0.66883177 0.09325839 -0.09856443 0.72661155 0.90335727 1.2261271 -0.6320599 -2.0613105 -0.3594076 -0.7554934 0.48614842 0.3990469 -0.8246268 -0.21226907 -0.58557224 -0.33485463 0.2214819 2.185465 -0.48293003 -1.4788014 -0.14678977 1.0214524 0.52628416 1.5949414 1.1633888 1.4286742 1.6706198 -0.8070249 -0.67400926 0.56364 0.8181891 -1.393418 -1.106232 -0.87719685 -0.75528854 -0.45887697 1.0395472 0.5543477 -1.9678026 -0.084886655 0.9021596 -0.44736674 -1.5836235 -0.057247102 -0.581138 -0.57900023 -0.009859124 -1.7306131 -0.14543764
526 -0.12642083 -0.5393141 0.6289936 -1.5002364 0.35168055 0.0928283 -2.4037323 -0.7007541 1.7597319 1.8640275 2.0989537 0.7808891 1.9082102 1.1455206 -0.5530931 -0.50639015 0.35586149 0.7957538 -0.10239358 -0.0239525 0.7293343 -0.85854477 0.44485024 0.4152945 -0.76345646 -0.4368822 -0.044923298 -1.5065072 0.016691063 0.22172791 0.3563766 -0.15713714 -0.14400141 -1.2000728 -0.3807858 -0.22010855 -1.2273935 1.5856133 0.5584616 -0.07938179 0.44669282 0.14337975 0.6306906 0.9368865 0.66096985 0.9688424 -1.187012 -1.0809356 0.114214465 0.7785642 -1.4077138 1.3056014 -0.3942591 0.6615737 0.90126765 -0.20234874 -0.09245003 -0.6758004 -0.1442805 1.2687846 -1.3263531 -0.035691842 -0.5832866 -0.22289783 -1.5605787 -0.7087686 0.4587928 -0.75446576 1.8641136 -1.188212 -0.9082708 -0.47139677 -0.6280581 -0.5753907 -0.99240154 1.7621905 -0.8793126 -0.75537276 0.29403245 -1.0237291 1.6904836 0.01896692 0.9299208 0.1391876 0.124308996 -0.9472163 0.13419414 2.4882817 1.1337447 0.10937118 0.707344 0.23668003 -0.002359092 0.6983063 0.14815482 -1.6032643 0.9909582 0.26871178 0.0013917675 -0.62165755 1.5558633 -1.0682766 -1.4345185 0.30294362 -1.2968094 1.0059199 -0.16969383 -0.43796933 -2.564128 1.8496889 1.6001219 -0.8410369 1.235149 1.9777013 -0.35355213 -1.0121012 0.053857792 -0.41105074 -0.5558376 0.25317094 -1.0781232 -1.1898943 -1.0317637 -1.3886876 0.052328926 0.44136629 -2.2092347 0.20907848
446 -0.38242885 0.63856995 -0.6843502 -0.8923793 0.49831086 1.8226323 -0.4414079 0.6336856 -0.084436074 -0.46876878 0.37495443 -0.5666609 1.3532146 -1.1644074 -0.012442796 -0.41082627 -0.3291344 0.4317999 -0.16029027 -0.42651418 1.9714646 -0.6278872 0.31453565 -0.43402678 -0.9018777 0.42436337 0.46549293 -1.6034987 0.44463578 -0.03887406 0.76553696 0.8969434 0.43865559 0.06372021 -1.0505908 -0.109564394 -1.0403228 -0.009528005 -0.025819598 -0.95430374 0.15422732 -0.9499723 -0.42819065 0.47709182 -0.85058457 0.33816737 -2.0207086 -0.0011731086 0.09736687 1.1672448 -0.7705913 0.08873081 -0.39027917 0.3392786 -0.82980824 -0.8900753 -0.8129517 -0.50917715 0.24265546 0.09756587 -0.36022687 -0.3543884 -0.7549052 0.3568889 -0.17828403 0.082167715 1.2520068 0.5028771 0.23030344 0.27319828 -0.31462878 1.3342084 -1.3256272 -0.26309708 -1.6416085 0.0023551837 -0.0763916 0.15069535 0.19873461 0.70782393 -0.18674855 0.40823835 -0.08902701 -0.022154767 0.98358434 -1.5891379 -0.3475313 1.1588598 1.2065938 0.37198502 0.44283158 0.8651678 -0.49896702 1.1350993 -0.43653172 1.727664 -0.17825797 0.90389746 0.08622028 -0.98109645 0.6449203 -0.9042679 0.26555833 0.66439784 0.4902953 -1.1158729 -1.1849169 0.16298309 0.06459544 1.4138258 -0.25961566 -1.2686865 0.7488745 0.073510066 1.4648083 -0.49005258 -1.3598685 0.0072245444 -0.043483783 -0.5428881 -0.47659248 0.94933754 0.089874804 0.19436888 -0.66140157 -0.81012386 -1.5496339 0.006628908
147 -0.11860828 -0.14859746 -1.8033433 -0.018983457 0.28363848 -0.36211002 -0.5973047 -0.81465083 0.07372887 0.64726764 -0.15250672 -1.129236 -1.3935223 -0.3474576 0.89153266 -0.8233677 -1.07769 -1.654019 -0.9716765 0.6701068 -1.1915773 -0.4477532 0.4266536 -0.20920861 0.44414222 -0.63686174 1.176479 0.38635942 0.52757734 -0.08213715 -0.843216 -0.5264245 -1.5050151 0.056570567 1.7779471 -0.18192522 0.011812164 -0.22796008 -0.26288235 -1.0351392 -0.42491657 -0.5112349 -0.0872918 -0.41556633 -0.025404789 -0.60577834 0.85015494 1.0697044 -0.034977738 0.024841167 0.15143402 0.38848165 -0.19020766 -0.628814 0.48527086 0.070368834 0.914473 1.0697984 -0.034845382 -0.7198107 -0.65681326 0.55718964 -1.9319664 0.39665303 1.4126348 0.11584925 0.62591296 -0.85947686 0.86268437 -0.1602422 0.3120542 -1.0897146 0.5140327 -0.1319528 -1.3743788 -1.3679559 0.19203222 1.1835854 -2.3717694 0.12543839 -0.41582796 -1.0814507 1.7612119 -0.89841545 0.6622207 0.45612383 -0.93885183 -0.7196415 -0.40457842 0.09568032 0.041808475 -1.355875 -0.3653714 0.77885866 0.21565555 -0.48802507 0.3822642 -1.1080859 0.44988337 -0.6064638 -1.1908752 1.1605175 0.4842921 -0.074678265 0.94180363 0.030181324 2.1821127 -0.47023788 0.7925138 -0.83432305 -0.15913102 1.1346806 1.2593534 -0.5303529 0.028420866 -0.7305974 0.0071293474 -0.055845898 -0.22755332 1.6129868 0.94676316 0.058965497 0.26070768 -0.56510264 -1.3704603 -0.5748119 0.5854012 1.4056197
128 -0.027395291 0.15095836 0.16660129 0.36685476 0.507066 2.6259592 -0.6253133 0.8099734 0.388103 -0.58738005 1.6521983 -0.76225525 1.6750488 -0.9535964 1.3001809 -0.8911069 0.06599542 0.12633345 0.23528147 0.30056402 1.7230936 -0.6029726 0.7827861 -0.28441402 -0.80658996 0.51052976 0.28524536 -0.58515453 1.1695551 -0.52406913 2.154861 0.92488766 0.23713762 0.5909282 -1.1874517 -1.2029889 -1.1685908 0.42026764 -0.6369625 -1.2963722 -0.10768746 -0.85215294 -0.1701252 0.60042274 -1.1046929 0.27941465 -0.8940126 0.86803335 -0.7252301 0.9114374 -1.3091397 -0.5523375 0.6344831 -0.6146426 -1.5344253 -1.3042186 -1.0541373 0.6155732 -0.5147771 0.18309866 -0.41753966 -0.23758289 -0.31685024 -0.5149248 -0.042810183 0.7376064 1.1467795 -0.15581879 -0.41919518 0.567982 0.29311025 1.5617183 -0.60598904 1.0650592 0.022047877 -0.24898891 -0.46130022 -0.060765564 0.5204478 0.19398807 -0.92895 0.22734645 0.25054708 0.20713769 0.8958364 -1.8667767 -0.11427399 0.83955467 -0.049498156 0.11547314 1.19125 0.27176693 -0.9466677 1.2110676 -0.6692203 1.2177436 -1.2077318 0.8559748 0.8326239 -0.50737387 -0.04036218 -0.17460993 0.34672093 0.28470156 0.22897206 -0.5076416 -1.7969381 -1.4637303 -0.74537235 0.53341156 -1.0971321 -0.95994216 0.31103113 -0.11183745 1.6860733 -0.6814592 -0.68655217 -0.19024459 -0.036858957 -1.5790541 -0.0928038 1.2214125 0.3720975 -0.66074026 0.077428594 -0.65070814 -0.6165549 -0.82614714
179 0.0074059945 -0.67919356 -0.3796273 1.1289655 0.6778152 0.120051645 -0.27466837 -0.49039707 0.22821705 0.8451465 -1.0067811 -1.2750778 -1.2689824 0.038392104 -0.5042005 -0.12742744 -0.5436579 -1.7302763 -0.5382237 0.69262594 -0.30438164 1.3382615 -0.20453206 -0.5621448 1.2676415 -0.6309969 0.64593464 1.6045502 0.9222412 0.1440514 -1.044054 -0.8379753 -0.1964449 1.4408667 1.6292866 -0.41737264 1.5046177 -0.31355688 -0.5093239 0.68423593 -1.261669 0.018325029 -1.0197719 -1.2344773 0.42342985 -0.5845351 2.35724 0.778512 0.27555165 0.59187 0.2787326 0.4363347 -0.1413473 -0.4534 0.87647223 -0.27053717 1.0652316 0.8830729 0.3708701 -1.609654 -0.039843675 1.347064 -0.5019495 0.4795955 1.181221 0.37508795 0.096256465 -1.4041091 -0.99051243 -0.10871306 0.22606462 -1.0980312 0.35601792 -0.21586092 0.0027660937 -1.1665709 -0.52787626 1.1269416 -1.1446136 0.10453411 0.073551774 -0.35951906 -0.2033511 -0.94583315 0.32892996 0.26687455 0.8213614 0.32811105 -0.68592155 -0.13406326 1.7385477 -0.5419363 -0.5379231 0.76210135 0.2399288 0.43797794 -0.47481415 -0.37839252 0.52169627 -0.72016305 -1.7079656 1.6573615 0.75514835 -0.58626133 0.09750921 0.36530665 1.0823324 -0.6566696 0.046633586 -1.0775987 -0.51767695 1.7530267 -0.31038547 0.29027525 -0.7979116 0.13539615 -1.0955564 1.0243701 0.28481272 1.13279 0.6532404 -0.11564446 0.23802134 -0.7820303 -0.39916614 -0.19827454 -0.04571954 1.2973937
432 -1.3955733 -0.28944016 0.44158545 -1.2005223 0.62974685 0.9425382 -0.9362609 0.672578 -0.0432001 -1.1994087 0.4744769 0.9712582 0.31189123 -1.2546215 0.4877896 0.14316715 0.17220937 1.605783 0.41472906 -0.26682332 2.1001604 -0.3325369 1.318106 -1.6617243 -1.2463036 0.48482257 -1.6679878 -1.7228066 0.15833957 -0.9746663 -0.15828407 1.4426998 0.5039313 0.80476236 -2.3683467 -0.009188313 0.08151537 -0.59392893 0.23171915 0.4280939 0.26382598 0.26119098 0.23834531 0.09233125 -0.516605 -1.0308807 -1.203736 -0.49097112 0.55977887 1.1017529 -0.82061875 -0.391837 0.250792 1.0952055 0.5564959 1.1213999 0.7659707 -0.46174377 0.8354469 0.39086547 0.83124876 -0.08461865 0.6788567 1.07993 -0.51149434 0.6924077 1.31107 0.67775977 -0.48681355 1.3489603 0.20106904 0.51056033 -0.5822857 0.43086413 -0.9044684 1.4351654 -0.53065455 -0.3287122 1.5021421 0.9565558 0.7405685 0.9816423 -1.2599027 -0.51681566 1.8034207 -2.259818 -0.6132997 1.049873 2.147969 0.021801801 -1.0807514 1.4044802 0.2064748 -0.3104569 -1.3717978 0.72396183 -1.4445126 1.0083796 -0.7038015 0.5940237 0.20399785 -1.0885497 -0.82183415 0.9202096 1.4818716 -0.8497639 -0.5222714 1.2312084 -1.4175849 1.1279684 0.22436729 -0.27847815 -0.38763842 0.11574362 0.68262964 0.0318162 0.69656795 1.6847543 0.64068735 -0.5704297 -0.21238798 1.1442139 1.5138336 -0.8306882 1.2361224 -2.1225095 -1.0091101 0.01095363
254 -0.91318667 -0.7464373 0.13078737 0.16462857 1.0908476 2.2347903 -0.8118911 0.4835193 0.20347834 -0.44097787 2.282623 -0.3094403 1.8575186 -0.2194563 0.9864288 -1.091446 1.2905877 0.825615 1.036455 0.17624192 0.45723498 -0.88851684 0.60903865 -0.56044614 -0.6249302 -0.100209005 0.5431027 -0.85339993 0.53361213 -0.35262606 1.5584134 0.6158544 0.6319517 0.68230134 -0.74706006 -0.6317219 -0.19530474 -0.06164178 -0.47648656 -0.8714426 0.45671692 -0.278467 -0.3185571 0.54207915 -1.2477351 -0.22628184 -1.4091429 -0.05390361 0.0047329417 0.88685006 -0.62182933 -0.8839906 0.09698162 -0.4679063 -1.2972292 -0.8926768 -0.8221891 0.62914264 -0.28298235 0.30098608 0.2548439 -0.21809658 0.33427602 -1.1334162 0.19129479 0.6838833 0.81252587 -0.5455532 0.30630192 0.2927511 0.5174247 0.47467142 -0.37101683 1.420968 0.68376666 0.1476427 -0.43910572 -1.106189 0.74680376 -0.05274111 -1.2982017 -0.39664325 0.07074198 0.82987046 1.2157593 -1.3003016 -0.69439566 0.6531524 -0.9376491 -0.9709546 0.91275835 0.37694013 -0.65625095 1.1327587 -0.88982373 0.88193697 -0.5675262 0.3726795 0.772662 -0.72536725 0.3039932 0.000590328 0.79660684 1.0857699 -0.4997796 0.18653154 -1.3476871 -1.4729867 -1.0384051 -0.2830343 -1.0129977 -0.5536532 -1.1255957 1.0522904 0.7690256 0.060895834 0.10598034 -0.44063294 -0.17238358 -0.42126858 -0.10582881 0.80238944 -0.03178541 -1.0443615 0.66722846 -0.2777027 0.19717568 -0.58481795
181 0.27722698 -0.27581513 -0.36417082 -1.0134019 0.39581612 0.10995897 -1.5798734 0.050519563 2.0039349 1.5052785 0.5268335 0.23567776 3.118361 0.68692666 -0.24370275 -0.59123915 0.0951042 0.5587777 0.26617664 -0.25776944 0.23659462 0.25628892 0.52971375 0.89099413 -0.35151628 -1.0741355 -0.17391673 -1.0124507 0.6448078 0.9195305 0.30324402 -0.78393614 0.83241874 -1.2446347 0.45914638 -0.5887859 0.3629309 1.2697948 -0.13148217 -0.06537305 -0.16147004 -0.45700878 0.32080075 0.5677575 -0.5444639 0.7220049 -0.18334696 -0.30965316 -0.63586783 1.3335432 -0.7143921 1.0512258 0.47166747 0.5420939 1.3470956 0.3959652 -0.45435777 -1.1342409 0.07413401 0.22051096 -0.69239175 0.37996262 -0.16788368 -0.2293527 -1.1982106 -1.1691897 -0.9094387 -1.0940711 0.06425738 -1.0699844 -0.8231636 -0.047555316 -1.0409145 0.2058162 -0.11186136 3.1100495 -0.8995357 -0.40071222 0.20803499 -2.1871178 0.818589 0.61813253 -0.4855089 0.04536765 -0.9677344 -0.7752305 1.458479 2.218256 0.38712043 0.64730227 1.0161834 0.81391746 -0.8298858 1.4939581 0.033360086 -0.45657974 0.106522284 1.0692091 0.007248591 -0.93133026 1.5888608 -1.6364202 -0.7737139 0.43012092 -1.6154478 1.0128198 0.24423894 -0.88405484 -2.7054994 2.1222227 1.742175 -0.27703196 0.5833134 2.432268 0.2521441 -1.8437119 0.29433975 -0.27672875 -0.10227777 -0.32172945 -0.14450678 -0.62564707 -1.0805447 -0.9783432 0.9668593 0.6243545 -2.0420814 0.27892402
576 -0.2860662 -0.49518383 -0.5590195 -0.38717818 2.2704473 1.7822309 -0.5438949 0.2668369 -0.48806036 -0.4537705 1.1087748 -0.5141736 -0.029800987 -0.19636215 0.55432415 -0.78881955 0.7478499 1.1277869 1.1544054 0.08371633 1.5043961 -0.83653957 -0.26838845 0.55260265 -1.6839592 0.30117118 0.18435393 -1.0510002 -0.38129535 0.92728317 2.3024728 0.96401656 -0.46852365 0.42934912 -0.6421766 -0.15353706 -2.0292327 0.2976752 -0.14533317 -0.9568622 0.6315855 -1.1855563 -0.15016232 1.3197932 -0.766525 0.70773035 -1.9824038 -0.22996035 -0.29525056 0.98942876 -0.014180236 -1.8491491 -0.08398099 0.021837736 -0.08634669 -0.51405776 -0.18500268 -0.12741287 0.2455832 0.9202303 -0.11164055 0.07002262 0.0530253 -0.24890989 -1.0238928 0.61549056 0.62659717 0.90096986 1.3602524 -1.1617447 -0.25287953 0.6897288 0.29105815 0.9268486 -0.0054877657 -0.54772645 0.937913 -0.8301454 1.2804587 0.19797143 -0.39866465 0.63494563 -0.116703406 -0.20416328 0.397692 -1.130185 -0.9531492 2.2980402 -0.06375963 -0.053238023 0.5288255 0.6463432 0.13198955 0.074790575 -0.22925036 0.623415 0.20635374 0.03514359 0.5322941 -1.2024307 0.73281217 -0.9564632 -0.9855933 1.3287462 -0.42184448 -0.31967095 -0.42472506 -0.46705285 0.36968789 0.09243404 -0.65076137 -0.95134825 -0.16154996 0.3085982 2.0101032 0.13959955 -1.7283963 -0.5057822 -0.17340799 -1.6419375 -0.4945155 -0.4035159 -1.5372396 0.30216488 0.069865964 -1.316266 0.16819607 0.6164952
563 -3.3475294 -0.08607962 0.8050266 1.8130751 0.04928706 -1.2983863 -0.5065642 -0.66955113 -0.9203486 0.15185903 1.3751452 2.5475547 -0.4562659 -0.51440936 -0.8607513 1.8363794 2.472371 2.5037496 1.3544405 -0.36112463 -0.718121 -0.2884151 0.44634876 -1.0236415 0.23095478 0.22537921 -1.6598712 -0.3712771 0.3541135 -0.84034795 0.6851295 -0.5917455 0.95202786 1.7246418 -1.5696318 1.514254 -0.78853405 -0.7638468 0.20249288 1.4755917 -0.3335077 1.5497408 -2.2581537 1.095689 0.13700704 -1.146007 -0.6671941 -0.06116255 0.08042233 0.5117879 -0.046963662 0.3617621 -1.383108 1.9908504 1.864185 -1.4789491 0.4899362 1.0944747 -0.63695145 0.58426344 1.323974 0.527404 1.125568 0.58555293 -0.7495618 0.7052628 0.9480859 -1.0653563 0.085278265 -0.67074007 -0.33138347 0.28608724 -1.0142045 -0.40577793 -0.47289765 1.3439857 -0.73509264 0.041012634 0.9017584 0.76822466 0.14118408 0.123908274 -0.12946059 0.18137634 1.3546034 -0.24771471 -1.7158105 -0.85934675 -0.30388463 -0.23161973 -0.16806206 -0.4343619 -0.3466265 -1.6916033 -0.5464314 0.5060025 1.2210736 -0.26353478 -1.627569 0.22397882 -0.005748289 0.07457773 1.3304704 0.622053 1.0222831 2.135759 -0.5179216 0.29464662 -0.22488652 0.8006456 -1.0105809 -0.82805234 -0.9725832 -1.1038413 -0.65969604 1.0995917 -0.026031887 -1.3085558 -0.2682212 0.6653323 -0.044292286 -1.5468395 0.32529825 -0.7428493 -0.6088244 -0.17769608 -1.4936938 0.4851631
522 0.5150897 -1.1501478 -0.38010702 -0.5980678 0.57239115 -0.49065477 -0.004865465 -0.79307747 -1.241492 0.1767481 0.20912182 -0.66196054 -0.691831 -0.52743113 1.5995415 0.43731692 -0.3436353 0.03803857 -0.533024 0.31807655 -1.2267398 0.6166344 -0.8078727 0.7271166 0.21260159 -0.05673098 1.1078761 -0.92511976 0.7745098 -0.1328556 -0.32347053 -0.2380858 -0.37629786 -0.037185524 0.48257616 0.8544906 -0.49043667 -0.40753666 -0.7349809 -0.2542222 0.3705597 -0.0035899756 1.2049084 -1.4277458 0.4640798 -0.056112297 0.61650825 0.49234164 1.2946457 -1.2578437 0.47268817 0.7305286 -0.05430871 -1.3287697 -0.6288152 0.121276274 1.1278871 1.0559884 0.654309 -0.20940718 -0.98648524 0.21952686 -0.10209125 0.041607488 -1.005661 1.899451 0.18809107 1.432951 -0.3388828 -0.99958247 -0.37100548 -2.1101558 0.40205744 0.047993906 0.507305 -1.7705343 0.66728765 0.41259047 -1.3670534 0.109192766 1.2323273 0.041005127 0.9669443 -0.30417496 0.39465356 -0.16170245 -1.0880777 0.91612667 0.322452 0.39213145 -1.6751484 -1.1916757 0.86860484 -0.61084265 -0.39492318 -0.7817862 1.0190668 -0.59930044 -0.15520947 1.0275286 0.0711844 1.1279303 -1.1766152 0.22353466 0.38497534 0.021426463 1.4646972 1.2626063 -0.059169453 -0.44727919 0.5431512 0.7805259 0.09864023 -1.0968499 -0.10626933 1.0090686 0.41119233 -0.49957836 0.33759332 -0.42412615 0.49648687 0.009503266 -0.65950936 0.77988946 0.069548704 -1.1967084 1.2978846 0.41860613
494 0.36023098 -1.4411631 -0.54707056 -0.5613552 0.6851841 -0.34007955 0.25656906 -0.460932 -1.4258324 0.2567928 -0.122800894 -0.7622222 -0.67670536 -0.5947778 1.5664409 0.43403336 -0.38915378 0.0040601357 -0.4897338 0.37533823 -1.0744305 0.7434053 -0.89818984 0.815048 0.31519154 -0.06919302 0.94019085 -1.008065 0.7323085 0.015318816 -0.17412274 -0.20719853 -0.27152833 0.11405192 0.25255194 0.9475053 -0.34360495 -0.51509625 -0.8493926 -0.17793313 0.41734034 -0.15472628 1.3677086 -1.5838363 0.3893215 0.033739336 0.6894208 0.5583353 1.3567339 -1.4449456 0.5386374 0.59643155 0.29089355 -1.344224 -0.7387457 0.2570068 1.0875875 1.028536 0.7690267 -0.216809 -0.96222425 0.10448212 -0.08150813 0.056461543 -1.044791 2.0143626 0.13207836 1.4992325 -0.5668816 -1.0693417 -0.44347292 -2.0776968 0.5333963 0.25428885 0.5113321 -1.9632854 0.5102845 0.27550095 -1.3116581 0.3775704 1.4545093 0.17428312 0.9958149 -0.4679224 0.20347925 -0.2935459 -1.0014433 1.0042931 0.27079046 0.48239917 -1.6116979 -1.3053788 0.92376626 -0.39143035 -0.33837175 -0.5820692 0.9916037 -0.8363362 -0.17566767 0.9731025 0.08019567 1.2600791 -0.96285975 0.4347817 0.35304084 -0.019071827 1.400678 1.4130132 -0.002033739 -0.5478382 0.46967772 0.8780518 -0.067632355 -0.95068395 -0.100742914 0.97680855 0.53485817 -0.48279506 0.4183486 -0.5495416 0.40563145 0.06953661 -0.86177236 0.64828527 0.14499515 -1.1056503 1.5898316 0.28210482
465 -0.30121312 0.25771832 -0.61485445 0.47380868 0.34644815 1.7771679 -0.1395541 1.0851755 0.031768322 0.29735458 1.4041703 -0.5422259 2.463847 -0.29991004 0.40703878 -0.10853213 0.7124812 0.126282 0.74677867 0.17851393 0.35617077 -0.3066384 0.66815954 0.49286157 -0.2212919 -0.18458986 -0.48377046 -0.9035078 0.45586446 0.16872135 1.5291467 0.06856613 0.6106166 -0.26389998 -0.9115816 -0.53776973 -0.20989336 0.6362445 -0.8903009 -0.67831206 0.08005065 -0.54444295 -0.5998408 0.59368485 -1.7263787 -0.14228812 -0.9918828 0.07996739 0.32340863 0.76579535 -0.74567664 -0.5517055 0.49635965 -0.12625216 -0.4636764 -0.60384506 -0.73708814 -0.01777082 -0.6302182 -0.041295137 -0.1851638 0.42066664 -0.1394629 -0.48478776 0.09210469 0.30784166 0.96593684 -0.62047905 -0.82452494 0.30322635 -0.31679997 1.3054222 -0.4512655 0.9622444 -0.22040921 0.76221365 -1.0493413 -0.7365869 0.45922557 -0.78144896 -0.4961092 -0.10309282 -0.25444165 0.09697879 -0.20940033 -1.0008842 -0.40117648 0.58720416 -0.8754307 0.081528574 0.565289 0.095583245 -0.6665814 0.9632418 -1.2229054 0.8440274 -0.4600747 0.25090796 -0.21160771 -0.83707047 0.3521019 -0.36476898 1.0522703 1.5043206 -0.18834424 0.4729923 -1.2480255 -1.5638223 -0.38182044 0.5704739 -0.58930993 -0.27381888 -0.26941895 0.36930758 0.5169563 -0.5893484 -0.18511492 -0.8618934 0.019998515 -0.348071 0.0029365257 0.59751344 0.2421327 -0.5278187 0.45277897 -0.4039993 -0.19001622 -0.6519304
195 1.1158236 0.41724187 0.8274145 -0.70124674 -0.42342263 0.92502844 -1.1923337 0.2286416 0.62153774 0.86271054 1.067021 -0.09030196 0.3663944 0.4447891 0.2924025 -0.29185903 -0.6562156 -0.45041198 0.21618971 0.090739794 1.4693326 -0.91886747 1.0709578 0.3852315 -0.19748095 0.9490561 -0.4930924 -0.19812872 -1.5519266 0.059181653 0.33486074 1.2719364 -0.78580385 -0.4488625 -0.5750851 -0.5094765 -1.5033536 1.1508776 0.6850972 -0.110403456 0.2774885 -0.1601874 0.3959968 1.1032916 0.5471182 0.56360376 -0.97850686 -0.7722887 -0.4909586 0.4497595 -1.3587329 0.43645403 -0.3710034 0.2958648 0.16158009 -0.48842806 0.23197687 -1.0341386 -0.51941675 1.015135 -0.44126546 -0.40637043 -0.74163556 0.1330198 -1.4320436 -0.3047861 0.13176844 0.9738547 0.40027052 0.123077326 0.33493188 0.37100238 -0.2886592 -0.644596 -0.41374505 0.4553854 0.3228207 -0.7000445 0.35124576 -0.43500128 0.8011942 0.24859653 -0.10698653 -0.83660483 -0.3090601 -0.13488765 -0.8983295 2.2799687 0.685898 0.44091085 0.00916608 0.1931859 0.5203716 -0.14492689 -0.88699377 -0.57967085 -0.6519889 0.9614794 0.25453392 -0.44364142 1.0016699 -1.6310866 -2.1010385 0.6163352 -0.13859576 -0.049985666 -0.94564086 0.263945 -1.4126835 0.8965839 0.3250118 -0.08437725 0.634128 -0.5687281 0.3200435 -1.0689744 0.16489728 0.578357 0.6054838 -0.4865014 -0.59359854 0.13789561 -0.010736425 -0.30133772 -0.22904623 -0.08896342 -0.69188154 -0.060781177
264 -1.6925902 -0.16921663 0.1258154 0.4088423 0.3711756 -0.20694472 -0.07223323 -0.9402724 -0.8062376 0.47565067 0.54190737 0.8098312 -1.0063112 0.05135941 -0.45993418 0.4349297 0.52429605 -0.45864734 0.70463616 -0.23269214 0.057092465 -0.44160706 -0.5097486 0.37257048 0.5995761 0.27329427 -0.18002614 0.14517786 1.7709271 -2.264299 0.8662121 -1.5188257 -1.2450066 0.40534708 -0.034957338 -0.19275184 -1.1336424 -0.17134343 -0.14740326 -1.1888895 -0.090476654 -0.41998187 -1.897493 0.46916065 -0.49726874 -0.87337 -0.47858953 -0.21248026 1.2864201 1.2257022 -0.15737069 1.3522356 -0.601441 -0.4987764 1.1027458 -1.4565927 -0.09168905 0.8402201 0.21504223 -0.56969076 0.018653415 -1.4917862 -1.2238328 -0.18866177 0.18870872 -1.7991139 0.13332222 -1.9391289 1.1892909 0.22864589 0.5932861 -0.28875598 -1.4545729 -0.40829816 -1.2002416 -1.2946486 -0.95556563 0.8775323 -0.8082597 1.8215717 0.22841789 -0.18803419 2.168485 1.291483 -1.2324296 1.0666473 -0.7366325 -0.5978694 -0.8122597 0.36907396 1.4402435 -0.14110705 -0.4528484 0.9263148 1.4387718 0.44653517 0.7008767 -0.8721971 0.29143393 -0.36615968 -0.7723768 -0.13922235 0.8514077 0.47267333 -0.1653263 -0.61806756 0.92100924 1.1827381 0.42353833 0.6789672 -1.6058029 -1.0984296 -0.22232887 -0.41771913 -0.38508826 0.84427017 0.029959386 -0.41981742 -0.32722205 0.005408215 -0.1889596 -1.0294322 0.26383874 -0.7215 -1.2523745 0.6553725 -0.2618993 0.25860614
352 -1.2144556 -1.2226231 0.446021 -0.779735 -0.018906716 -0.5700933 -1.0372317 -0.6311761 1.1016989 0.5894559 2.0520804 1.1521314 1.7075317 1.4161763 -0.51030153 0.40041944 1.8110644 1.6309751 1.0810702 0.5158969 -0.16116667 -0.49692655 -0.25493017 -0.29331207 -1.743475 -0.7140787 -1.8829136 -2.0365143 1.1275153 -0.43781602 0.617217 -0.79333913 0.5038389 -0.99142104 -1.4602735 -0.2884036 -0.77652943 1.3493782 0.41267148 0.5728019 0.5176898 0.69538945 0.75962627 1.2676256 -0.14052461 0.5801569 -0.33600962 -0.893187 0.22279333 1.7386655 -0.40911376 0.024028867 0.3068147 1.2013626 1.4251218 0.5242061 0.3850168 0.52566826 -1.1049232 0.8834428 -0.23186351 0.76851326 0.90513366 0.44935447 -0.44155443 -0.4080152 0.22887608 -0.9972121 1.3495481 -1.0154549 -1.0996515 -0.35554433 0.8745894 0.7189115 0.1031186 2.749921 -1.441227 -1.0576456 0.958651 -1.1399593 1.4723656 -0.14179921 1.163712 -0.18927625 0.7036109 -0.8528983 -0.46499225 2.100133 0.7162811 -0.07733385 -0.8251038 0.593273 -0.6372476 -0.90287715 -0.757855 -1.6800648 0.08782258 -0.07918849 -0.6297408 0.42103156 0.33612806 -1.5417289 -0.9086669 0.5788445 -1.0845057 2.2614474 0.4841535 -0.001090678 -2.2930949 1.4001023 1.7436004 -0.5733377 0.33769625 1.9967346 -0.2990809 -0.06737277 0.26197863 -1.1367985 -1.1848018 0.007473454 -0.04086383 -1.392128 0.19819225 -2.1952732 1.5169582 -0.10126724 -1.1782885 -0.08223545
372 -0.49406707 0.92905664 -0.93124807 0.20266038 0.78949326 1.8168672 0.9932877 0.9318827 -0.22856 -0.032688584 1.1301811 -0.39730877 1.814903 -0.6872315 0.3800395 -0.17620814 0.56813306 -0.04376347 0.6669698 -0.56909513 -0.18868175 -0.8111661 -0.0744894 0.57608354 -0.6231354 0.630104 -1.2346234 -1.4328398 -1.126886 0.9771232 0.16370015 1.1832598 1.1953212 -1.1145039 -0.71182615 -0.04672163 -0.51850426 0.51168615 -1.4129449 -0.24186485 0.9062485 -0.638438 -0.6086426 0.5288165 -1.2736698 0.13084751 -1.8851631 -0.9871488 0.74004227 0.15504017 0.23499487 -0.90816605 -0.5295238 0.088926494 0.46888778 0.50802666 0.55527276 -0.94701064 -0.35544726 0.29881883 0.54806423 0.56965786 -0.087561205 0.16078208 0.099150985 0.38947135 0.6488625 0.038779825 -0.58054316 1.560818 -0.68708444 1.7680594 0.10461374 0.7644188 -1.0180508 0.59922117 0.17454593 -1.0364386 0.9408451 -0.96624535 0.48635915 -1.3095905 -0.09936708 -0.51047117 0.14151622 -0.5741982 -1.6720425 1.1198375 -0.61740893 0.2500071 -0.82486236 0.6873466 0.4250207 -0.63372374 -1.5497267 -0.56941265 -0.56744653 0.3895637 0.8397691 -0.5325411 0.55113035 -1.4468884 0.52731323 1.6690361 -0.13760358 0.82988423 -0.61357117 -0.17525813 0.69131947 0.5566294 0.026833022 -1.0501049 -0.037688483 -0.021965247 0.781827 -0.19961375 -0.103387736 -0.4748306 -0.9352322 0.2924145 -0.36311507 0.5598028 -0.119447716 0.21332204 1.0124608 -0.9836054 0.63945216 -0.58748484
299 -1.158269 -2.148865 0.6701814 1.1035005 0.23221451 -0.5424278 -0.7867602 -0.000857125 -0.80432564 -0.1923219 1.3171636 -0.31697437 -1.2497201 1.3693839 0.2855899 1.9820366 2.0091798 -0.02711857 0.11604393 1.1266582 0.9249041 -0.39485794 -0.9221135 -1.900851 0.24384685 -0.17608911 -2.2593613 -0.91334206 0.30862567 -1.5120604 -0.102562025 0.84932834 -0.44944525 0.5100384 -2.0720215 0.15220876 -0.42090493 -0.3301037 0.9754983 0.45782915 0.26536176 1.1887473 -0.23729594 1.5049354 0.07370338 -0.3010355 -1.0033598 -1.1935272 1.5872371 1.3650087 0.1801807 -0.6822965 -0.15930603 0.79925764 0.3766299 -0.16591485 1.5402726 0.35331103 -0.89326024 0.0147883585 0.46914196 0.7723386 2.302786 0.8358965 -0.8833585 0.5749261 0.20885584 0.20724334 -0.38273636 0.07008563 0.33450863 -0.38175663 1.7097985 -0.35693777 1.7357359 -0.15658897 -0.63538677 -0.09669749 1.5407215 0.50209904 1.0147886 -0.35982278 -0.060323305 -0.3270385 0.55726534 -0.76243645 -2.1196442 1.693826 0.3490166 -0.3758103 -1.0820178 0.443072 0.07573015 -2.3283346 -1.8659084 -0.39773783 -1.0536456 0.15184852 -0.08287363 0.20579971 -0.87472785 -0.9098179 -1.4265746 0.7612497 -0.7954926 1.4488908 0.9581035 2.1296089 -1.1852535 -0.62286305 -0.28843385 1.0080721 -1.0124305 0.63609326 -0.30672157 0.6513877 -0.439607 -0.17466424 1.0881919 -0.033434317 0.92558163 -0.38751644 0.6298412 -0.25330395 0.36479998 -1.5826943 0.20486717 0.08295077
224 -0.11511487 -1.4164306 0.3760811 -1.16872 0.8506777 -0.4399419 -2.5530493 -1.4308004 1.4797696 1.3484858 1.6618686 0.4920296 1.7561257 0.39719272 0.41961613 -1.1461494 0.14791389 1.099821 0.004961292 -0.21886154 -0.10274724 -0.7018819 0.14670445 0.48052222 -1.0879781 -0.9113606 0.35179484 -1.2212167 0.8642755 -0.24667643 0.34046492 -0.56008655 -0.37534252 -0.6494403 0.30174673 -0.13546534 -0.5333104 0.8622089 0.6797431 -0.6359017 0.22209343 0.17709197 1.18685 0.9043939 0.6368176 1.2252688 -0.5098417 -0.015714556 -0.7176423 0.71982074 -0.32735094 0.80043167 0.07563662 0.14050114 0.5137513 -0.46129757 -0.39415058 0.19415702 -0.11468222 0.68626153 -1.473045 0.22064278 -0.6808361 -0.015611276 -1.4426932 -0.60366493 -0.2895645 -0.48525617 1.9532336 -1.603881 -0.5067947 -1.6098106 -0.44574156 0.5199652 -0.250667 1.5502536 -0.26604027 -0.40680128 -0.46809918 -1.446376 0.5048837 -0.07606392 1.496753 0.54140836 0.24614382 -0.69651264 0.06539843 1.8485873 0.50111467 0.01910342 0.35796925 0.4495927 -0.35616237 0.5662242 0.27406073 -1.7608323 0.6632244 1.0567787 0.77762175 -0.12875289 1.5086442 -0.7612997 -1.1713073 -0.19294398 -1.4285899 1.4486706 0.89094514 -0.5768615 -3.107381 1.3573662 1.6620361 -0.19889404 0.8483242 1.8931315 0.14670928 -0.7994171 0.5703804 -0.7792807 -0.86150366 -0.1520684 -0.019794885 -1.487913 -0.7210177 -1.2391684 0.3009345 -0.06687629 -1.5594944 0.5301426
41 1.0566897 1.7906444 -0.3876688 0.41490307 -0.81952024 1.2905666 0.27189094 0.78020865 0.5459321 0.72735065 -0.08999072 -0.9253777 2.5056834 -0.5172774 -0.35192528 0.5948886 0.19438414 -0.41840783 0.5917987 -0.063575186 0.83537406 2.133562 0.3445577 0.9155862 0.9856329 -0.3047778 -0.67684907 0.12084683 0.6045612 1.708007 0.5543324 -0.8128428 1.3730141 -0.6519337 0.07117638 -0.4134244 1.3588928 0.51060396 -1.129526 0.2126591 -0.77972627 0.00033311563 -1.4588499 0.5597402 -1.7021177 0.37056917 0.13084495 -0.65413314 0.15582103 1.6783224 -1.2360204 -0.044425815 0.68130666 -0.0030980788 0.8496556 0.3589131 -0.3172501 -1.4882098 -0.91533566 -0.72854066 0.8424856 1.1720095 0.70872724 -0.21836407 0.055589553 -1.2893603 0.16138877 0.24338198 -2.218574 0.71662337 -0.34397727 2.0405343 -0.9614934 -0.108296424 0.49577996 1.2933819 -1.1184759 0.73597693 0.8601772 -1.7768637 0.21076418 1.0469544 -1.9303986 -0.22889131 -1.2697377 -0.80661255 1.5864383 1.4824578 0.33392388 0.68905675 0.2667377 1.0188478 -1.5389416 0.51926035 -1.425374 1.5420278 -0.6949795 0.79987967 -0.56313246 -0.5225011 -0.021564303 -1.4827461 -0.04672265 1.1045431 -0.737522 0.15793227 -0.8572912 -1.0135105 -0.10531555 1.1096537 1.2370514 0.19964424 0.5476493 -0.2374261 0.81085855 -1.0636407 -0.99719733 0.44530442 0.6284686 -0.39337543 1.7049389 0.9634546 0.2188228 0.5986875 0.7942225 0.20062584 -0.24516691 -0.7398777
404 0.04115189 -0.1178707 -0.1443409 -0.19895187 0.1258431 1.3780217 -0.188287 0.61990494 0.29845172 -0.87678224 -1.0273739 -0.36713982 0.90101045 -1.8131902 0.9498002 0.40565297 -1.6816169 0.08800831 -0.5088762 -0.07398206 3.113204 -0.093508944 0.38399363 -1.2558501 -0.7385379 0.39103696 -0.629188 -0.92834115 0.9945528 -0.75954956 0.65333915 0.8102765 -0.34735432 0.106307834 -1.6497142 -1.2670484 -0.7058529 0.13453987 -0.11615492 -1.3236942 -0.4265882 -1.088467 -0.00192659 0.65556294 -1.4565529 -0.078564234 -0.5825559 0.3722289 0.05929783 1.3673472 -1.7208016 0.55894643 0.46165448 -0.05377731 -0.7531526 -0.3613802 -0.38749632 -0.53922623 0.30128214 -0.50906575 -0.66351247 -0.16431662 -0.23837359 0.47879547 -0.3255315 0.28102246 0.7271274 1.2011306 -1.6749932 1.4647412 0.44117308 1.5989428 -0.9663727 -0.12041324 -0.6615325 -0.01989878 -0.47841877 1.1543971 0.5130752 0.20857425 -0.09461827 0.54443604 -0.6358766 0.0063588596 0.5956608 -2.1852217 0.60931534 1.5175209 1.9932455 0.21860537 0.72178894 1.3855764 -0.6334187 0.56239206 -0.12761845 1.493501 -2.2690775 1.7850806 0.18629214 0.12088262 0.053616557 -1.417913 -0.64131266 0.027532304 1.4113839 -1.232583 -0.74206054 0.22185187 -0.4076252 1.6560385 -0.4416082 -0.625353 0.664384 -0.5938956 1.5178351 -1.0206256 -0.7519328 1.6875489 0.72562927 -1.8526028 1.1605787 1.5590553 0.4617479 0.21016017 -0.29216883 -1.8178957 -1.0405992 -0.9238587
387 0.1459496 -0.81161535 0.6648149 0.5884836 -0.11262799 -1.8053164 -1.212533 -1.5305027 -0.36413905 0.7465462 -0.6162421 -0.11999496 -0.51131314 -0.31585905 -0.68352807 0.11832981 -0.20806485 0.097434044 0.010369781 0.25716966 -0.4372994 1.3415903 -0.8974122 0.4069466 0.6188706 -1.3609989 0.12695949 0.34836945 2.1788704 -0.6183772 -1.3099546 -1.4609336 0.05476126 0.8887845 0.70784134 0.44980374 1.2545649 -0.83278674 -0.1975387 0.8075935 -0.91197866 1.5087943 -0.7079111 0.029494544 0.5951643 0.57939845 1.811113 0.30523518 0.41686803 0.90697795 0.18884477 1.5657191 0.42724162 0.17985114 0.050166663 -0.71181244 0.21267626 1.1122811 -0.34442824 -0.898339 -0.42570755 0.9496875 0.49054688 0.5289385 -0.004538568 -0.4273461 -0.39199492 -0.029940965 -0.4652527 -1.4377164 -0.017717253 -1.8774229 -0.073565446 -0.031620994 0.4313991 -0.9458553 -0.3531473 1.4794154 -1.2762941 -1.163774 0.17537835 0.058327947 0.6482462 -0.010531041 -0.15002091 0.15024431 0.92686075 0.18434612 0.26324472 0.9387538 -0.036174394 0.034410935 -1.6159357 -0.47509122 0.6074094 0.5624429 0.51195717 0.13377102 0.050790597 0.056757856 -1.0988058 0.6877842 -0.03180559 -0.54833174 -0.4523388 0.5331702 1.3364713 0.69092983 -1.1453468 -0.197886 1.060989 1.4804664 0.67838895 -0.106528774 -0.61600155 0.2040339 -0.597289 -0.87269944 0.39545876 0.8437893 1.8119125 -1.3631673 1.1267157 0.4918133 -0.0748328 -0.015842868 0.010317565 0.7260953
235 -0.31152824 -1.1872193 0.07359972 -0.32081804 0.5245615 -0.166319 -1.8303714 -1.1540337 1.1942153 1.6121001 1.8431488 0.66247755 2.2766378 1.3090504 -0.57781625 -0.5887517 0.42446235 0.65472794 0.6694211 -0.23792964 -0.08995326 -0.5967636 -0.046267796 0.66997343 -0.4808697 -0.86044616 -0.4636369 -1.6967759 1.2929641 -0.24267589 0.33629608 -0.90479815 -0.2436505 -0.7079495 -0.26317203 -0.011609792 -0.8334151 1.6225857 0.47379768 -0.15762709 0.25182343 0.27425143 0.07541279 0.8925396 -0.15097944 0.13136186 -0.4463348 -1.1330502 -0.21663257 1.1322192 -0.67714626 0.61443686 0.23739678 0.8821671 0.9559995 -0.35228676 -0.50681204 0.093464084 -0.5664682 0.9377201 -1.0022432 0.43453178 -0.3032357 0.084172614 -1.319509 -0.419335 0.38254476 -1.0629925 1.1854073 -1.4883976 -1.507639 -1.0556052 -0.62289786 0.05326824 -0.29867592 2.1227505 -0.93145007 -0.8771339 0.13024856 -1.664508 0.95823616 -0.3079415 1.0561484 0.45775247 -0.110177495 -0.55653083 -0.19049032 2.214495 0.17841142 0.63400906 0.64577734 0.3729178 -0.3617645 0.22045013 -0.23789822 -1.67305 0.9518202 0.77677166 -0.1803003 -0.5670954 1.5836501 -0.6644276 -0.63327926 0.6126725 -1.3148013 1.7043654 0.50665975 -0.843063 -2.3967402 1.3307517 0.9626729 -0.30210552 0.21666759 1.7241329 -0.5588877 -0.74355376 0.40706915 -1.383157 -0.69646925 0.48745304 -0.14417192 -1.7288456 -0.8129222 -1.1025305 0.49548483 0.33971405 -1.8878589 0.3223461
245 -1.3932382 -1.0146222 0.5977602 -0.31808668 1.3103853 1.0394565 0.512496 0.70235395 -0.25812963 0.58784974 0.9359882 0.334708 1.1569525 0.72273105 -1.322526 -0.4576574 0.9644264 -0.2538817 1.8232491 -0.21213093 0.6565654 -1.4558083 -0.19455285 0.053325146 -0.50120234 0.4947769 -1.0858189 -1.0025833 -0.9279183 0.38724485 -0.44440234 1.0799285 0.86772186 -0.119535536 -0.86450475 -0.23592305 -0.8484631 0.8150858 -1.0644392 -0.27127874 1.3207858 -0.633075 -0.93970025 1.1576946 -0.88269496 -1.9420512 -1.6712868 -0.9145452 0.892874 0.20979097 0.9627535 -0.7096199 -0.43270633 0.9549151 0.9751703 0.8077203 0.26734227 -0.38079625 0.30532822 0.37546206 0.749676 0.54966456 -0.56957674 -0.17848752 -0.74577916 0.958877 -0.04784379 -1.1916565 -0.7218349 0.80639434 -0.6924613 1.6012472 0.3705261 -0.74942935 0.2032349 0.7266158 0.1525878 -2.0338035 2.0987537 0.13651063 0.13050936 -1.5659465 -0.08516398 -0.74911845 -0.24116586 0.34555852 -1.3983259 1.1766742 -0.6301235 0.4040835 -0.05157132 2.0860057 1.3922001 -0.80488634 -1.5017654 -1.1130327 -0.95534587 0.68014455 -0.0670363 -0.2701275 0.4120515 -1.0122281 -0.92475224 2.5577703 -0.7785383 0.37430897 -0.23805417 0.48743108 -0.23171103 0.14199018 -1.244546 0.48742098 -1.7391169 1.2948874 0.4474485 0.3806288 -0.11304927 -0.3868589 -0.60935104 -0.6039984 -1.3819772 -0.8339373 -1.4868714 -0.8669707 0.23464678 -0.6574002 0.6138656 -0.1577162
516 -0.434502 -0.7811785 -0.8267493 -0.3135608 0.46855322 -2.3301136 -1.0967673 -0.75049543 -0.32018605 -0.3785001 0.50305915 0.63964206 0.25390932 -0.45998466 1.2665395 0.08971776 1.5840183 0.8053369 0.24155077 0.3179654 -2.5997336 -0.12505437 0.28532946 -0.17589411 0.49404576 -0.45784685 0.3163303 0.79349804 0.41991192 -1.1392996 0.3020124 -1.2916291 -0.8651328 0.37524536 1.350955 0.94674444 0.80927485 -0.82457054 0.5319014 -0.3615127 0.097477496 1.270998 0.28442195 -0.6792494 0.84286517 -0.37937507 -0.4569414 0.8388838 0.59271145 0.2085709 0.49339995 0.53493196 -0.6370692 -0.4168251 0.8357689 -0.8230285 0.13256481 0.57653224 0.16018838 -0.66038436 -0.002959312 -0.24336055 0.001070521 -1.3865529 0.021493997 -1.085223 -0.24749514 -0.51792955 0.92674804 -0.88889116 0.5631362 -0.9713309 -0.892891 0.8242424 1.0943699 -0.3919975 0.6035938 1.0643752 -0.5060361 -0.41964442 -0.23903447 -0.13221835 0.7226041 1.3696642 -1.3437762 0.51350206 -0.041377563 -1.4977887 -0.49917734 -0.038123075 -1.5028644 -1.2128567 -0.5179073 0.18702662 0.85635465 -0.51166946 0.83614224 -0.5805688 0.56091297 0.9347931 0.18717201 0.5734951 0.35673398 -0.9183165 -0.21206671 -0.19976483 2.6246486 0.31398058 -0.6505294 -0.3337586 0.5433772 1.0433036 -0.1308391 -0.5053166 0.018691398 0.86258835 1.6282045 -0.91056144 -0.045119245 0.01098817 0.12454081 -0.74274075 -0.010461401 0.53645045 -0.8211203 -0.2825546 1.2864566 0.58002985
276 0.9253394 -0.75943923 -0.3926878 -0.76436484 0.6697226 0.3548488 0.12112705 -0.5336222 -1.0542343 0.3965112 0.43691587 -0.8051223 -0.08356146 -0.372878 1.0230725 -0.20070845 -0.5486541 -0.35231313 0.050220896 -0.009253556 -0.94830626 0.31358716 -0.8692298 0.8367192 0.063986026 0.28710636 1.0083662 -1.0203627 0.32719076 0.32797846 -0.123956054 0.017080627 0.010510943 -0.16176406 0.030194126 0.47841668 -0.6288141 -0.07199471 -0.6898608 -0.09525276 0.91526407 -0.22031385 0.9734077 -1.2563647 -0.07296235 0.1792351 0.02405283 -0.37168184 1.1730672 -0.9329904 0.32667732 0.19786887 -0.15765342 -1.0269903 -0.74094486 -0.00074146414 1.0574328 0.15367565 0.3333276 -0.048780367 -0.7534452 0.18265998 -0.11971397 0.20146134 -0.76389813 1.5381632 0.48278216 1.712057 -0.061137885 -0.4417449 -0.6015993 -1.7289762 0.13801798 0.19241612 0.15577678 -1.6695702 0.8993185 -0.34829813 -1.0251292 -0.5130262 1.1631407 -0.3949373 0.83199453 -0.43306038 0.3453216 -0.1805225 -1.1693927 1.5522084 0.32558182 0.63624185 -1.2438837 -0.66919196 0.94439363 -0.6740018 -0.9317766 -1.1028159 0.45011798 -0.21568833 0.020696046 0.5625115 0.13114467 0.36808395 -1.3996695 1.02841 -0.044007678 -0.15221553 0.7381123 1.0484592 0.09684776 -0.31865966 0.35233417 0.44272256 -0.06392866 -1.0467056 -0.09409204 0.8324611 0.29251716 -0.41507953 -0.1869069 -0.36143634 0.19360353 0.32800356 -0.6945992 0.69868475 0.5192615 -1.1117681 1.3613106 0.32161665
