620 128
265 -1.6312696 0.15714274 -0.2189943 -1.698042 1.2594407 1.6035786 0.78963774 1.8096671 0.13224198 -0.55881083 0.35551295 1.0039295 1.2563798 -0.086427055 0.058372542 0.5506693 1.1111064 1.8048347 0.66611886 -0.35216513 1.9116541 -0.34012172 0.6632117 0.31662744 -0.91442376 -0.081098 -0.087951705 -1.0148988 -1.9382035 0.63094527 -0.44871625 1.2348241 0.9158806 -0.8994436 -1.2392745 0.7808599 0.11772206 -0.38531548 -0.36132127 0.43763685 0.76821935 -1.3785464 0.0857773 1.2964011 -1.3454698 -0.33546367 -1.7836432 -0.73238987 0.52896255 0.5545619 -0.4569478 -0.18804817 -0.06697546 0.7941041 0.8143849 1.0696157 0.48156843 -1.0317669 0.39231664 0.11966343 1.3131338 -0.36582023 -0.20836364 -0.6949382 -0.15753737 -0.29245365 0.25974223 0.62056124 -1.1468316 0.6446476 0.15268295 2.2885332 -0.4476225 0.39549643 -0.13322955 2.031864 -0.32927027 -0.8235153 2.1641848 1.0689774 -0.047580644 0.5889673 -1.7183344 -0.6362936 0.6077347 -0.76492715 0.20245863 1.2596806 0.093460485 -0.23703043 0.30820316 1.840256 0.16644256 0.515244 -0.5902947 1.1239473 -0.85007954 0.24629357 -0.5635749 -0.15245675 0.67754114 -2.6296315 -1.0487356 1.8702347 -0.5961146 0.1185083 -1.2102 1.5180156 -1.0312529 1.5306767 0.18445379 -1.037347 -0.8837168 1.752156 1.0002114 -0.121344924 -0.5380634 0.6775368 0.4005618 -0.74503535 -0.2776873 0.92780423 -0.43652067 -0.24655114 1.6382288 -0.45741794 -0.7160153 -1.2675804
518 -0.12654856 -1.2269615 2.0388846 1.4851063 0.87489134 0.44229397 1.2094502 -0.27095544 -1.1361454 1.4029121 -2.323865 -0.8889389 -2.594598 -0.41838166 -1.4475337 0.1796863 -0.8704963 -1.3578848 -0.58528954 0.6932203 1.2829984 1.8991238 -1.3737285 0.18894593 1.1207112 -0.48189047 0.19289385 1.8046955 1.6137756 -0.3879279 -1.5549301 -0.4991905 0.34078595 2.116003 0.6451623 -1.1364973 0.6284144 -1.4940856 -2.8810904 1.0265589 -0.3167472 -0.21644424 -1.7472576 -0.32932287 0.7982968 -0.51915026 3.2129066 0.7296135 1.9292141 0.32553592 0.6444352 1.1119798 0.09413749 -0.3799137 0.74134105 0.24967805 1.1455356 1.063564 0.9925547 -1.6546161 -0.1601604 0.47181502 0.7105285 0.5629968 -0.31600335 1.7404329 -1.0472106 -0.9313118 -2.4726014 -0.49199158 0.17896394 -1.2602776 0.8265475 0.26169246 1.1259061 -2.0164297 -0.45010063 1.3607557 -0.65015864 0.32986307 0.9629637 -0.08835646 0.3425014 -1.1103066 -0.5811796 -0.49326622 0.5155663 1.2727318 -0.89567035 0.8214042 1.9047062 -0.010850504 0.33154628 -1.0092063 0.5524097 1.0847981 -1.0227904 0.7010492 0.016359815 0.13376284 -2.220874 1.3018417 -0.030392528 -0.3240379 -0.73162144 0.2874134 0.08843102 0.83605784 -0.35836774 -1.7326303 -1.0975667 0.90002364 -1.7909272 -0.28893307 -2.16628 1.2202064 -1.2535951 0.48375946 0.92080766 -0.07809847 1.0387957 -1.1835133 1.3321157 0.036391318 0.9466017 0.8179072 0.03267473 -0.41613126
340 0.017196411 0.8960824 -0.30003634 -0.9313738 0.47000745 1.7126894 0.15564215 0.8448079 -0.44030303 0.1723662 1.3567361 0.8477115 0.81643194 0.5103131 -0.12999797 -0.5932327 -0.021132996 -0.17691816 1.0583252 -0.5231751 1.2282839 -1.2658398 0.7588798 0.18499468 -0.86900884 0.9876932 -0.19991177 -1.5627884 -0.6383459 -0.75107247 0.59142905 1.0225097 -0.5539155 -0.5117734 -1.297427 -0.034044124 -1.9546524 0.77728754 -0.52461135 -0.37168902 1.087039 -1.30602 0.16402048 1.0347589 -1.7738677 -0.21927464 -1.3094236 -1.7890745 0.3613055 0.25247532 -0.9586361 -0.59855366 0.06379016 -0.118662655 0.01792311 0.7713943 -0.0008503851 -0.7419236 0.051994998 1.2407118 0.6260928 -1.3125895 -1.0980294 0.37927344 -0.38979253 -0.23270918 0.6250033 0.2242311 0.7068879 0.2790814 -0.5422713 1.0452414 -0.9413097 0.054102145 -1.3443118 0.2359244 -0.72879654 -1.2611727 0.550734 0.7011328 0.5418208 0.10111379 -0.21472578 -0.5814697 0.15456681 -0.15737927 -1.1448524 1.1721234 0.267756 1.1266279 0.6457623 0.25080845 0.24652511 0.71375597 -0.48969546 0.46798185 -0.14683887 0.27521303 -1.1691315 -1.0508775 0.35927013 -0.6932365 -0.6094414 2.177856 -0.35503563 -0.65921116 -1.1492221 0.34626037 -0.18658996 1.3275127 -0.3945569 -1.1402084 0.0060457126 -0.1329519 0.83270687 -0.5554423 -0.51851404 -0.6636449 -0.34426016 0.8089553 -1.0505702 0.6576899 0.24309987 -0.3907191 0.37263742 -0.3104172 -0.6406345 0.32305193
67 -0.8668601 -0.032216165 0.033864774 -0.028126065 0.27456647 1.2735778 0.81199414 1.0439175 0.4207344 -0.013517046 1.957032 0.66752183 1.1016299 0.5908847 -0.26599142 0.23175943 0.092263214 0.11955941 1.281484 0.18291244 0.47014368 -0.8586565 -0.2845374 0.51588154 -1.0934592 0.19429648 -0.23794362 -1.5156085 -0.106592715 -1.3803318 0.38739133 0.9722003 -0.5905445 -0.95075715 -2.0935848 -0.31950527 -1.5981036 1.6656574 -0.55125326 -0.8266877 0.95112824 -0.9835704 0.486988 0.8609972 -1.6697035 -1.1966591 -1.4533592 -0.9628266 0.29403064 0.34729347 -1.2946992 -0.15732647 0.20851654 0.90254384 0.30024856 0.43287107 -0.9901382 0.3430545 -0.5136625 0.7199596 0.36000746 -1.1807115 -1.3820285 -0.02681464 -0.18247777 0.73848754 0.21968982 -0.4123128 -0.066659994 1.1525372 -0.94180447 1.715395 0.0012276666 0.8209905 -0.24474558 0.6879753 -0.96284914 -0.8362976 0.9089329 0.4484156 -0.11030268 -0.6324652 0.5694316 -1.04087 0.014838452 -0.3845863 -1.2146437 0.5113991 -0.5441536 0.46423784 0.31456903 -0.17852606 -0.19344011 0.3410687 -0.7257354 -0.14555418 0.3516288 -0.35080633 -1.0713736 0.436397 0.49226987 -0.45736554 0.07926358 1.8728694 0.30439392 0.26449934 -0.6255506 -0.26575744 0.9212536 1.0874618 -0.8860544 -0.43629858 -0.90946114 0.35046586 0.992213 0.23874585 -0.47828916 -1.8067954 0.10743405 -0.050640933 -0.82135415 -0.64340365 -0.8918403 -1.1135687 -0.1837058 -0.537286 0.077049464 -0.6305357
90 0.37866476 0.61694694 -0.14261991 -0.8783479 0.04919292 1.173175 0.3863093 0.8576718 0.5821828 0.20362268 0.96045476 0.11296645 1.076419 0.10775544 0.1805216 -0.28211066 -0.0069453316 -0.11619255 0.76930714 -0.39740086 1.464042 -1.0766277 0.99189705 -0.11033924 -0.49739736 1.1955814 -0.9079437 -0.84622437 -1.1753374 0.4614074 -0.17991571 1.2936989 0.1286908 -0.87521124 -0.31780863 0.038201235 -0.013989102 1.1331958 0.62949395 -0.72581345 0.5759415 -1.0561131 -0.09487137 0.6233255 -0.54954845 -0.60170895 -1.5612674 -1.4075443 0.49331653 0.008407262 -1.0092411 0.05323718 -0.79789215 0.2357248 -0.15270676 0.06684811 1.1038253 -1.6386184 -0.17880043 0.5872544 0.10568329 -0.2995926 -0.17607121 -0.31200013 -0.5784132 0.07210025 0.9845486 0.45274478 -0.34892383 0.5988005 -0.037206504 1.4850248 -0.21569958 -0.56013656 -0.29755884 0.33308923 0.23487993 -1.33264 0.79276013 0.2706777 1.2809964 -0.26365945 -0.51844877 -0.9961663 0.31277522 -0.065080605 -0.75120324 1.9387882 0.27926794 0.62002164 -0.19793864 0.40524077 0.94834536 -0.60496914 -1.0691351 -0.5544719 -1.3448751 0.923683 -0.0073533803 -0.46773928 0.9589166 -1.090184 -0.8582851 0.8804476 -0.09435078 -0.19558635 -1.4234954 0.3751037 -0.62948084 0.9417731 -0.49536106 -0.5510546 0.51557374 -0.7290049 0.67872083 -0.74604684 0.05044428 0.5567361 -0.5420317 0.2813294 -1.3576767 0.6357176 -0.2109957 -0.4272391 0.23368095 0.26652396 -0.43430603 -0.26262182
56 0.31723958 0.26848513 0.13559528 -0.5533221 0.6349262 1.2543349 0.37846556 1.1218046 0.44271845 0.38423783 1.5702674 -0.092557505 1.0978926 0.6042045 0.5193965 0.22829463 0.25533092 0.4071634 -0.123411715 -0.64699686 1.8971086 -0.81530756 0.76425534 -0.44456828 -1.0565901 0.82739383 -0.5764234 -0.56180495 -0.78110874 -0.4946457 0.19880843 1.0609517 -0.2878144 -0.12414308 -1.1078943 -0.49171066 -0.60982543 1.0122002 0.6504497 -0.88077956 0.5858677 -0.49656332 0.5654832 0.9041074 -0.37590754 -0.7144988 -2.2380872 -1.6562057 0.96366316 -0.18306775 -0.8443531 -0.621464 -0.3129155 0.19222824 -0.5200288 -0.02996024 0.5703833 -1.1359946 -0.571062 0.59202707 -0.15455854 0.25105587 -0.40242505 -0.1713528 -0.6285778 0.5685948 0.8017977 0.3630941 -0.32434002 0.62813866 -0.14191364 1.7714627 -0.11275901 -0.16764894 0.12163972 0.20856653 -0.091475755 -1.3845487 0.8971915 1.5155693 0.6035685 0.04215437 -1.2844563 -0.6093873 0.111834064 0.087319694 -0.9140204 1.7941557 -0.15882674 -0.2891691 0.043127477 -0.1319023 1.3479079 -0.3492733 -1.3482835 -0.13949177 -1.1257607 1.5313725 -0.10628043 0.025502084 1.0299311 -0.6326745 -1.4635392 1.24243 -0.27539915 -0.6162157 -1.4514251 -0.036727842 -0.6031173 1.1825702 -0.9928291 0.30568093 -0.6275788 0.19811492 0.79903144 -0.45389262 -0.6336286 0.47883016 0.34777263 -0.13550127 -1.4977736 0.5981763 -0.18663852 -0.20696758 0.1787152 -0.68089724 -0.630382 -0.30383065
70 -0.35648122 0.1946887 -0.09657775 -0.32382816 0.8780814 1.133928 -0.76612103 0.21828091 0.47074798 0.9003661 2.166395 -0.18166806 3.0060763 0.7513408 -0.21401954 0.11991115 0.68184614 0.17329857 0.28005296 -0.8896969 0.73838633 -1.355871 -0.2627822 0.18553612 -0.5383962 -0.023738192 -0.57128567 -2.2440464 -0.31935784 -0.5238192 0.69407594 0.59033376 -0.5192557 -0.77676797 -1.0604355 -0.7530963 -1.0192854 1.6730946 -0.62424046 -1.2584945 1.0038638 -0.2643716 0.47902015 0.62049556 -1.863612 -0.5562025 -2.2737617 -2.0785198 0.112082206 -0.007187502 -1.6730479 0.0732744 0.09825514 0.41386828 0.23175246 -0.12732232 -0.653874 -1.710793 0.049025793 1.1072205 0.22567983 -0.529744 -0.75747865 -0.6593894 -1.5461195 -0.15513878 0.33067882 -0.61866164 0.14071202 0.12823038 -0.96475464 0.798813 -1.2471749 -0.16850784 -0.82614946 1.0155209 -0.89808846 -1.3265445 0.18106905 -0.39457604 1.0326382 -0.3101113 -0.34970275 0.07533378 -0.16268341 -0.7691559 -0.24190179 2.2168987 -0.34291565 0.094913445 1.0301903 -0.014366489 -0.12067555 1.204362 -0.4445082 -1.0098636 -0.16910478 0.51126486 -0.70564 -0.89998186 1.3600429 -1.3068782 -0.24100791 2.0811055 -0.68256235 0.9239587 -0.7522348 -0.66953295 -0.73812497 1.8105491 0.42344537 -0.14491928 -0.74404204 1.5638279 0.5151399 -1.1629962 -0.6363829 -0.8227656 -0.41871682 1.3044409 -1.2406046 -0.33215025 -1.7131308 -0.8104754 -0.104718536 -0.7710114 -1.4422318 0.004702617
611 -0.77043927 1.3967627 0.19622459 -1.0050575 1.0467795 1.4325911 0.5480188 1.6459197 0.4917134 -0.8218486 1.2523743 0.33869088 0.5477757 -0.060249776 0.25777823 0.071436584 1.2433728 0.80115086 0.65924615 0.08160266 0.84740233 -0.21967179 0.6922011 0.5208301 -0.6116439 0.38137802 -0.42126665 -0.6446332 -1.3962213 0.65265316 -0.70223194 1.775533 0.74680406 -1.1815434 0.014607373 0.2596032 0.28657278 0.37786084 -0.768432 -0.15446925 0.38341045 -0.03866464 -0.41069096 0.17048755 -1.2673031 -0.9872038 -1.1987382 -0.9778026 0.277657 0.48741448 -0.770215 -0.6196121 -0.33866757 1.7626674 0.87074345 2.2103348 0.7045093 -1.3460242 0.8688652 0.75456107 1.3319626 -0.051174402 0.48007512 0.25618562 -0.3212311 0.13979852 0.5249381 -0.1253616 -1.0314385 1.505588 0.5494801 1.2032299 -0.05483736 -0.06556992 0.04691517 1.3159374 0.0017894962 -0.601359 1.222438 0.026822729 1.2155983 0.54978883 -1.378048 -1.4232379 0.4785194 -0.034345534 -0.71388865 1.0279619 0.26447782 0.42441025 0.09367445 1.0332763 -0.36179042 0.11786662 -1.4209124 0.2714518 -0.039348323 -0.0075129997 -1.1133369 -0.5470097 -0.32866862 -1.5858771 -0.035922486 0.94899184 0.50979924 0.08426438 -1.2576193 0.60998666 0.14095798 0.5000626 -0.6094574 -0.70150447 -1.0495355 0.30043417 0.9357096 -1.0551091 0.6212603 0.698891 0.4042479 0.27566248 -0.7862202 0.035882335 0.52581906 -1.04693 1.3401024 0.17249097 0.5785008 0.27540916
89 -0.0059580137 0.14973162 -0.13753146 -1.0736414 1.3928591 2.112991 -0.32112005 1.3856746 0.13539203 -0.21990111 2.287224 0.3035819 1.6686684 0.081895605 0.49718922 -0.81968665 0.77375543 1.7160681 0.4261594 -0.75757927 1.0859796 -0.5719012 1.2533443 -0.36080402 -1.1140175 0.578019 0.82562864 -0.6981871 -0.70346713 -0.61064017 0.74734706 1.4069386 -0.218665 -0.04505975 -0.92641866 0.22873326 -0.16202514 -0.15121672 0.015757889 -0.736997 0.44448778 -0.6970638 0.30170164 1.1544836 -0.8705908 0.29660705 -1.965177 -0.7721098 0.49396038 0.44627327 -0.6780724 -1.4395039 -0.46711737 -0.035372168 -0.5871615 0.5145317 -0.13956141 -0.11501373 0.030500729 0.9543108 0.36748913 -0.11360973 -0.40392837 0.1165916 0.5444007 0.42253286 1.1406132 -0.034513135 0.8467523 0.90930086 0.7768527 1.0729291 -0.6211751 1.0394955 0.36560956 0.06877971 -0.76141393 -1.4626763 0.1252314 1.0494359 -0.106991634 0.0121851405 -1.0991883 -0.115374856 0.86938417 -0.5561881 -1.1770846 0.5278535 -0.0680057 0.03312617 0.64165425 0.45136312 -0.3185134 0.59551436 -1.2012677 0.6267094 -0.67084944 0.9018663 0.33311677 -0.4249596 0.73864555 -0.37842947 0.11462902 1.0557783 -0.25338966 -0.66906303 -2.1320121 0.120178126 -0.7281517 1.0692859 -1.3848124 -0.28451863 -0.26158163 0.42347822 1.4238046 -0.34599683 0.13762648 0.26989713 -0.099565916 -0.32059082 -1.1610389 0.8931445 1.1115553 -1.3046945 1.2844996 -0.11551441 -0.6783048 -0.09759691
288 -0.7446662 -0.0240301 -0.5116434 -0.06963819 1.2083415 2.0625527 0.30130315 1.287552 0.30651155 0.02896598 2.001149 -0.1361572 1.1599762 0.28905165 0.1855254 -0.4228518 0.8165483 0.4158568 0.61082166 0.34780714 0.7624296 -1.0521911 -0.0034426646 0.08559394 -1.0677373 0.48382556 -0.48016366 -1.6473192 0.4075893 -0.96714133 1.1588949 1.4676906 -0.47480774 -0.6651659 -1.0746876 -0.85050803 -0.4405713 0.67822605 -1.3134751 -0.3766745 0.48609707 -1.6351165 0.28879666 0.5503459 -1.7661605 0.07653136 -1.0171379 -1.1990839 0.40843078 0.056154504 -0.5795081 -0.7333842 0.08889117 -0.6905277 -0.45054874 0.7512343 -0.17936105 -0.43520018 0.411683 0.6792967 -0.058959108 -0.66350645 -0.7490303 0.2123588 -0.5577394 0.46841174 0.28907576 -0.7444386 0.5298152 0.9588116 0.18664834 0.7349823 0.33502036 1.082117 -0.18727791 0.15436457 -1.259977 -1.6660756 0.22419003 0.35461435 0.64289385 -0.6711214 0.33976704 -0.09130337 -0.060279787 -0.9354342 -0.6597268 1.220181 -1.0543839 0.30722344 0.7516642 0.023111932 0.26878732 0.8073085 -0.35168308 -0.37923786 -0.8812988 -0.08556758 0.2486446 -0.44242978 0.4283006 -0.054084748 0.6488394 1.6984121 -0.7438302 -0.00275343 -1.4374834 -0.8536907 -0.47555497 0.8304768 -1.1692749 -1.2829106 -0.20629747 1.1290321 1.4240508 -0.7465328 -0.31989118 -0.3640391 -0.89847654 -0.32447693 -1.3702166 0.83904546 -0.08355606 -1.1397455 0.98729813 -0.6201233 -0.081608355 -0.2731326
505 -1.1864861 0.62055916 -0.17368472 0.2894592 0.7255206 1.7007512 0.49325824 0.7502576 -0.20020069 0.009358307 1.3242369 1.0298028 1.4007515 0.32833892 -0.13076277 -0.059803594 0.2442103 0.16053358 0.5004127 -0.648256 0.6859707 -1.241619 0.58062446 0.3980801 -0.15322855 0.322118 -0.006541823 -0.8921988 -0.5680686 -0.996917 0.14353934 0.6174206 -0.44974843 0.4002532 -1.1612743 0.67600626 -1.3071202 0.9880839 -0.60267615 -0.51910496 0.5339213 -0.80171907 -0.6573955 0.2399778 -1.4259393 -1.9238106 -1.6996517 -0.8110418 0.29041898 -0.50384873 -1.633393 -0.020759793 -0.0714382 1.1306386 0.35643423 -0.5509427 -0.8285067 0.25952393 -0.06372751 0.8928772 0.7493604 -0.6855947 -1.2246484 -0.29047 -0.018899387 1.1839697 1.448274 -0.6331643 -0.6488417 0.7393306 -1.3755211 1.9699371 -1.561627 0.40577784 -0.97555095 0.9199517 -1.131773 -0.98822534 0.8198681 1.2872839 -0.57327783 -0.2340495 -0.88599753 -0.19015789 0.53038716 -0.87318504 -1.0667652 0.36887947 -0.7936701 0.46806064 1.2968514 -0.5347931 0.20736417 0.57882917 -1.0041864 0.8219108 0.30765587 0.6739366 -1.3609514 -0.08797419 0.88977426 -0.28658846 0.3661139 1.6436716 0.34036407 -0.15272972 -0.94394094 -0.47555947 0.42697912 1.1983339 -1.681118 -1.036374 -1.4380783 -0.21818319 0.049557667 0.5550768 -0.09404141 -0.9460417 0.37245092 0.33830377 -1.4723788 -0.018694466 -0.75705963 -0.59391093 -0.3476387 -0.16888143 -1.8156935 -0.7740411
357 -0.5828107 -1.0100816 1.1037813 0.82571524 1.1664351 -0.035938498 0.43552777 0.722145 -1.1188821 1.1261969 -2.0325496 -1.1594012 -2.0773234 -0.7420541 -0.9073498 0.44869655 -0.6011879 -1.4924352 -0.89497197 0.994273 0.34030983 0.8725483 -0.65161854 -0.45697618 1.2287788 -1.02508 -0.6347991 1.206795 0.9703073 -0.5854372 -1.6114904 -0.5728919 -0.18343295 2.118235 0.52992463 -0.3991998 0.6251728 -1.2384678 -1.3631831 1.1331966 -0.62254477 -0.1319925 -1.5798953 -1.0875299 0.45385283 -0.37691632 2.26517 0.8702414 1.330912 0.0067826565 0.22804154 1.1819348 0.20258364 0.16920148 0.7956904 -0.5004077 1.0062428 0.88632303 1.2369876 -1.2979325 0.05451288 0.49567065 0.4531276 -0.03765093 -0.07640968 0.80520797 0.20578584 -1.7486091 -2.228575 -0.10919746 -0.060713373 -0.7963541 -0.05806739 -0.15856522 0.28175315 -1.8289489 -0.69702166 1.6187197 -0.34040993 0.6704142 0.60022056 -0.22749113 0.11057796 -0.9907015 -0.9602889 -0.99171776 0.06386251 0.78541225 -1.0861173 0.57745695 1.6046771 -0.120786555 0.21250933 0.32723448 -0.13262923 1.1188757 -0.44709206 -0.23849101 0.025630608 -0.0317209 -1.7399687 1.1384069 0.6710254 -0.49070165 -0.5163665 0.031669814 0.9743427 0.3646023 0.4177379 -1.0159638 -0.9809208 1.1598495 -1.5237622 -0.30831453 -2.2878747 1.2472438 -1.1389359 0.5574481 1.5138503 0.39290616 0.12060122 -0.87263227 0.54880023 0.3050324 -0.20727593 0.050628897 -0.29295826 0.05242613
524 -0.551762 -0.7632834 1.2962116 0.73273635 0.9963731 0.5667241 -0.060232233 0.38098207 -0.37217242 1.3100082 -2.0156128 -0.8133994 -2.0755308 -0.8083065 -0.33189803 0.40896767 -0.49907345 -0.24684252 -1.3874536 0.47649217 1.1707749 1.3776867 -0.5676462 -0.031772472 0.86117107 -1.158091 0.3799826 1.1479199 1.1754867 -0.10522175 -1.9555293 -0.90295583 -0.149135 1.2796777 0.97371244 -0.57188934 1.2105726 -1.7091604 -2.1200411 0.07287866 -0.9127313 -0.4786647 -1.169969 -1.2533493 0.8071384 0.039744142 2.0903785 1.7191961 1.554327 0.34075314 -0.66261196 1.3610291 0.4274975 -0.008675745 0.30970615 -0.35892922 0.6053292 0.65706366 1.0507672 -1.1904348 -0.34963223 0.42202798 0.16506812 -0.07662266 0.13359165 0.7303831 0.30298644 -1.7138463 -1.9851456 0.23995936 0.429011 -0.7861304 -0.54695606 0.066556 -0.31571954 -1.829379 -1.1488892 2.4797926 -1.0316408 1.2685513 0.5780794 0.6682101 0.033765595 -0.6529538 0.13009085 -1.590605 1.0093865 1.0035493 -1.200452 0.85765433 2.6149268 -0.38148543 -0.6174335 0.83883727 0.9431991 2.0511076 0.1396133 -0.6415136 0.1755955 -0.8812128 -1.5033678 0.97160524 0.9486816 -1.0852274 0.30297244 -0.18644944 0.8986306 0.49004215 0.20266107 -0.7260234 -0.8795941 0.71374923 -0.80847406 0.663713 -2.1074233 0.88752854 -0.58579296 0.84058964 1.7851337 0.40544334 0.12802753 -0.08972024 1.205489 -0.8356899 0.6000917 0.7450424 -1.3042195 -0.13697398
229 0.56734776 0.7410946 -0.21502154 -0.32802016 0.43513173 1.389046 0.886167 0.7226486 -0.7281252 -0.2743462 1.3903701 -0.12193538 0.17561369 0.6399346 0.307913 0.29964468 0.6218922 -0.4525504 0.41979116 -0.5119108 1.5666147 -1.3515244 0.3705855 0.09596662 -0.7471689 0.85153306 0.04028385 -1.1731808 -0.69686466 -0.5818569 0.66145456 0.61532444 -0.6776672 0.016613627 -0.9674638 -0.05549358 -1.9745573 0.6306005 -0.049598552 -0.3271893 0.87949604 -0.7252083 0.41623804 1.2259276 -1.1479727 -0.7138486 -1.7743242 -2.2847137 0.67316884 0.068234235 -0.33003324 -1.0548168 0.15146217 -0.021935463 -0.26681712 0.3352636 -0.086084396 -0.9759032 -0.5813009 0.6057664 0.9636947 -0.72792566 -0.604639 -0.022245659 -0.2509658 0.031451054 0.6391732 0.72197056 0.19430616 0.064580575 -0.679972 1.683835 -0.37674817 0.0027099564 -0.21066272 -0.1600338 0.19989818 -0.88956195 1.1578021 1.7355278 -0.58378565 0.6063297 -0.70144576 -0.7534948 -0.62083566 0.98677886 -1.3052231 1.5473038 -0.53049886 0.547522 -0.09491031 0.23329301 0.8616997 -0.27532464 -0.8649636 0.66405505 -0.33781993 0.66351527 -0.5940715 -0.64107317 0.49352685 -1.2426105 -1.7787316 2.3147628 -0.25583997 -0.95510966 -0.86166626 0.7208056 0.09466739 0.4870013 -0.46297944 -0.25955614 -0.7883838 -0.0009668298 1.3423448 -0.08046247 -1.1645608 -0.5377517 0.351116 -0.11414206 -1.0477113 0.3339201 -0.37886983 0.78376806 -0.39242423 -0.67902714 -1.0033396 -0.5396271
498 -1.9772158 1.4156336 0.4656404 0.88439065 -0.018820433 0.5841334 0.3026201 -0.3806398 0.2789674 0.54683334 1.6222578 2.2925136 1.4779456 -0.1555596 0.7475301 0.6222545 0.88094264 1.2382857 0.50505805 0.021923536 0.33729002 -1.0005031 1.543128 0.2234657 -0.121493734 0.88035417 -0.28030214 -0.27089536 -0.2012787 -0.41841665 0.5702481 -0.040319595 0.63667154 -0.11493728 -1.1623162 0.62507975 -1.868768 0.876236 -0.84475183 -0.4547024 0.4275851 -0.27590007 -0.780126 -0.0012777513 -0.3644599 -1.88058 -1.0716497 0.2979014 0.91509944 -0.34217662 -1.9793863 0.80764353 -1.0048329 0.6354034 0.7409431 0.37400708 0.23785993 0.06355476 -0.09618992 1.2508011 -0.022550102 -0.6851879 -0.870357 -0.40135008 -0.14408158 0.39469013 0.8639511 -1.8806671 0.44022912 0.23821509 -1.459486 2.6690035 -1.3994927 -1.299539 -2.185489 1.2893195 -0.8515086 -0.09671183 0.87406313 1.8012803 0.3516066 -0.409125 1.2746121 0.3029633 1.3964318 -0.6203811 -0.6794567 -0.6089902 -0.116321854 -0.4420274 -0.02536273 -2.0413175 0.3375507 0.5104906 0.9938723 0.4345931 1.5137937 -1.2078909 -1.766257 0.040698316 0.08623793 0.8253712 1.1373796 0.45060417 1.1032275 0.46147525 -0.6822678 -0.6961547 0.137735 0.90703064 -0.68250144 -1.5819405 -0.2831414 0.44656682 -0.48566675 1.0883017 0.6526287 -0.7025581 -0.60681176 1.0113407 -1.8832318 -0.0365261 -0.945522 -1.3526005 -0.24571198 0.24076292 -0.8753575 -0.17867108
182 0.07524537 0.15081598 0.43106806 -1.6112486 -0.50160044 0.7146629 0.3109201 2.3275812 0.6866682 0.49292943 0.5655465 -0.0093101915 -0.16975231 -0.21316843 0.40678388 0.66198146 0.12551126 0.7323679 -0.047385175 -0.6566135 1.777277 -0.5611784 1.020516 -0.0018225526 -0.9062285 1.2100143 0.13981837 0.7051799 -2.6444361 -0.28742135 -0.8151676 1.8868304 -0.28856778 -0.6156811 -1.4954506 -0.4698917 -0.7426611 0.09642714 0.5976457 -0.43253556 0.8930892 -0.56695026 1.2462789 1.9551426 0.17896639 0.071139395 -2.1206598 -0.47609288 0.40714234 -0.36248523 0.047892336 -0.46907493 -0.07084247 0.5959731 0.12689279 0.360358 0.5527318 -1.1764598 -0.049022976 0.49823081 -0.38867486 -0.38694644 -0.72725594 -0.39172918 -0.13557068 0.37674278 -0.6792822 1.6368451 -0.21107373 0.13406709 1.2171054 1.5923207 0.46604794 0.6193874 0.05638571 0.38598058 0.4536154 -1.2889796 0.47019714 1.1956097 0.7776315 -0.3294946 -1.4661108 -1.4938576 -0.27845487 0.72702503 -0.8618977 0.9602757 -0.2789715 -0.18055347 -0.43931454 -0.010313013 0.9855275 -0.14198108 -0.64414865 0.31922525 -1.075325 1.2131863 0.0418503 -0.2995255 0.13740803 -1.5201029 -1.9218427 1.4488295 0.41252694 -1.0256325 -1.6156425 1.0881829 0.31712115 1.7651302 -0.06703718 1.3147391 0.45147255 -0.15472968 0.79449594 -1.1541836 -1.1317056 0.42620656 0.676566 -0.05600558 -1.2361013 -0.098571494 0.1434192 -0.28584206 0.007010019 -0.13934968 0.3422142 -0.13421912
603 0.7438932 0.29136673 0.072770126 -0.7654803 1.0100235 0.7943119 1.5868278 0.65401626 -0.42863637 -0.6074903 0.64917254 -0.42273772 -0.04461934 -0.07870048 0.48964494 -0.39347795 0.23227604 0.75261825 1.4287039 -1.1803709 0.6964484 -1.0033683 -0.34847668 -0.18505813 -1.8767828 1.2441771 0.012134315 -1.1850181 -0.8523435 -0.046002302 0.46197456 0.8384912 0.326116 -0.019690579 -0.2563101 -0.53180367 -1.5066723 0.721066 -0.01842561 0.07772503 1.0497409 -1.0793056 0.8179547 0.41099286 -0.84620404 0.26794446 -0.9341752 -1.3767035 0.7768337 0.48770675 0.8713932 -0.7525142 -1.041601 -0.76934534 0.22893342 0.39671966 0.8037106 -1.1975935 0.21792738 0.18893857 0.46703798 -0.22544746 -0.566746 0.23069789 -0.17221268 0.5827242 -0.60321784 0.849909 0.8613735 0.22143337 -0.35069996 1.2108656 0.43648544 0.49542823 -0.14519404 -0.74241126 1.2051635 -0.95075756 0.78997636 0.86114043 0.7157357 -0.84828776 -0.14959759 -0.8151303 0.12811382 0.92968494 -1.1217928 2.0541027 -0.64511013 0.2908634 -0.54926425 0.007505814 1.6554772 -0.85137326 -0.1354806 -0.2274386 -1.397946 0.69310594 0.4264495 -0.38943076 0.8987419 -1.494864 -1.1342349 1.2063297 0.06172381 -0.81045586 -1.0441736 0.77511275 0.67416614 0.53211564 -0.337197 -0.7896992 -0.47419423 0.09403249 1.1136014 0.44986644 -0.71395427 0.36633205 -0.96910393 0.08107019 -1.4563851 0.3973353 0.12988311 0.596678 1.2122312 -1.0248873 0.4085064 0.106041074
317 -0.384352 0.26646638 -0.8744091 0.31837586 0.5575077 1.0785583 1.2591063 1.1560316 -0.13013127 -0.5004829 0.8475591 0.17871779 0.335149 -0.06543227 0.5339016 0.9626408 0.59177536 0.205327 0.40885693 -0.4869065 1.1789213 -1.2670838 -0.19058381 -0.43298736 -1.0693313 0.55632496 -0.39758024 -1.4831197 -0.8754398 -0.25536835 0.660578 1.310154 -0.28740746 -1.2889112 -1.1868005 -0.31832135 -1.0057493 0.5577172 -0.9695607 -0.6531412 0.57583344 -1.6671487 0.27750012 1.0861229 -1.8464992 0.1824912 -1.3398108 -1.0730149 1.3116338 -0.3064947 -0.7465583 -1.0114948 -0.4226801 -0.18832278 0.16992022 0.7519561 0.4085196 -1.0231911 0.38321546 0.8748576 0.24052754 -0.42189705 -0.20355974 0.088316776 0.05732298 1.0618298 0.44365373 0.33106643 0.3048971 0.943201 -0.5002807 2.328343 0.57891273 0.51314914 -0.27803683 -0.24984874 -0.557486 -0.7623571 1.1093075 0.7538264 0.5277731 -0.851692 -0.35713428 -0.37416637 -0.096617214 -0.50398284 -1.245192 0.9152405 -0.5952797 0.24019319 0.26323137 -0.13035013 0.96431386 -0.61526406 -0.29618177 -0.25244814 -0.8366404 -0.13704762 -0.13315926 -0.78888756 0.68702894 -0.79889965 -0.09909756 1.5860862 0.15147108 -0.42289177 -1.0586663 -0.07313295 1.0557567 0.8692543 -1.2861825 -1.615293 0.121225566 0.3515733 0.9910685 -0.41862163 -0.47992635 -0.015934883 -0.5742398 -0.10505523 -1.1448632 0.5258111 -0.10971453 -0.1509887 0.29449597 -1.1081842 0.095232196 -1.0103784
87 0.006762467 0.44439933 1.0577546 -0.9452636 0.67923474 0.891101 -0.21637268 0.9791299 0.49967435 0.6996069 1.3261286 0.51239556 0.5205577 0.58973736 -0.4158015 -0.49941507 0.20865369 0.041705076 -0.08857714 0.258351 2.0821302 -0.68232024 1.379006 -0.14191666 -0.43354312 1.0792407 -0.6316747 0.42266938 -1.1287844 -0.016194575 0.3380273 1.1249422 -0.1700955 -0.3342719 -0.7527274 -0.021205392 -0.5007089 0.5927198 0.7334774 -0.44802952 0.89854616 -0.22778068 0.052649885 1.172686 0.12236285 -0.3395529 -1.5196998 -1.7116148 0.2562851 0.33033717 -0.70639384 -0.41602117 -0.43655735 0.8347614 0.5033345 0.23169689 0.9123361 -1.3983394 -0.9776479 0.45989302 0.16201103 0.35943756 -0.09243478 -0.104601316 -0.9657959 -0.07919012 1.014536 0.6196625 -0.44075263 0.51043725 0.38104603 1.0059764 -0.5280613 -0.02117357 -0.0428191 0.26836413 0.398178 -0.82430863 1.2200692 0.7605051 0.7198059 0.96825707 -0.71975464 -1.5845958 0.15400828 0.45541158 -0.83164924 1.9402311 0.7012288 0.4739787 0.39397407 0.5436836 0.7412729 -1.1616675 -1.3036926 -0.51702994 -0.9130049 1.1577525 0.28626722 0.04302972 0.43885824 -1.0149759 -2.3176181 1.2906834 -0.75088 0.013724829 -1.651837 0.7420956 -1.2707686 0.38029101 -0.55601776 0.10181571 0.18821228 -0.6607894 0.41935554 -0.4756186 -0.3658544 0.44765154 0.27205157 -0.2000682 -1.3607314 -0.1262061 -0.044034597 -0.36373708 0.48803288 -0.068971686 -0.64225566 0.21864837
31 -0.5659334 0.3265244 0.44937196 0.88837516 1.0458243 0.9343057 0.9080467 0.6899792 -0.6030915 1.5059271 -1.3910466 -0.8576018 0.33986545 -0.38772407 -1.0287687 0.37064102 -0.07019829 -0.4771618 0.3312067 -0.088450655 0.34183106 1.8538959 -0.62504 1.024212 1.080461 -0.7196003 0.00060295814 0.0411063 0.39961255 0.3406206 -1.378573 -1.1153488 0.9244813 1.267747 0.6177468 -0.20199001 0.9579851 -0.5226207 -2.6637716 0.87146956 -0.56588703 -0.38729092 -1.8750833 -0.7261166 -0.7572806 -0.7959445 1.4407748 0.3504527 1.0062698 0.48397198 -1.0402386 0.7030177 0.7214344 0.9085896 2.133913 0.3100368 -0.10582731 0.010754984 1.2111837 -0.86466825 1.3451551 0.5075902 0.34471053 -0.20877826 0.15585217 0.2598494 -0.016370552 -1.6957301 -2.5264263 0.41259825 -1.0871915 0.7619044 -0.692505 0.41984424 0.27449706 0.41060054 -1.6378244 0.60268444 0.16773678 -0.07005251 0.43760008 0.31306234 -1.3181391 -0.7686868 -1.102976 -1.2294886 0.69397956 1.1207573 -1.3021476 1.2742058 1.7737414 0.44024348 -0.95224667 1.1354438 -0.2885004 1.7510122 0.002130608 0.29000354 -1.5852371 -0.094333395 -0.99873227 -0.53469855 1.2527707 0.6504741 -0.59778214 0.57074213 0.28356317 0.19036195 0.10893996 0.32989573 -0.50763226 0.60875195 -1.7889076 0.2575555 -1.4623464 0.9992041 -0.73674506 0.068850674 0.8605217 0.696842 0.6199834 -0.65935177 0.53536695 -0.07811006 1.3702747 0.3958711 -1.1522677 -0.4367748
389 -0.2080109 1.0607805 0.47039795 -1.8877083 -1.117971 1.1303188 -0.086064085 1.946801 0.9330919 -1.3498498 1.0536518 -0.16877255 -0.27128038 -0.09498713 0.5117943 1.1840415 0.22024626 0.71247596 -0.5029925 1.0438352 2.775808 -1.1091651 0.6737635 -0.7338775 -1.135545 1.7573414 0.38258818 -0.1543868 -1.2215853 0.0017465743 -0.32141694 1.7735612 -0.99841005 -1.1282516 -0.98891693 0.846323 -0.3128256 0.6763803 1.8661772 -0.060682844 0.122102365 -0.21187821 0.8984076 0.38930818 1.279026 -0.11341172 -2.461508 -0.5762504 0.7338309 0.16607197 -0.2811233 0.6214244 -1.3019165 0.8773207 -0.6852725 -0.7057381 0.26054212 -0.63065094 -0.5608937 -0.07058053 -0.48468113 -0.7798154 -0.16707142 -0.2597734 0.1084875 0.63257277 1.3196342 1.9933372 -0.884866 -0.07804336 0.9877843 0.82654697 0.44345084 -0.3590651 0.13623114 -0.40934643 0.7474711 -0.26413462 0.476665 2.4078512 0.061908092 0.91098684 -1.0808913 -1.7090058 0.7240421 0.16435538 -1.1246802 1.3537794 0.8869804 -0.028012378 -1.5225868 0.35993975 0.465034 -0.5222195 -1.2925712 1.2049545 -0.59080446 0.45010364 0.058941565 0.63668364 0.712867 -1.0331608 -1.8791592 0.2470113 1.5823052 -1.3647482 -1.8388633 1.3083801 0.33962393 1.4416672 0.091140755 0.07316265 0.6950778 -1.2211194 1.9751798 -0.32663384 -1.435033 0.28860375 1.5748919 -0.6297257 -1.889349 0.77667195 -0.5541782 -0.033166904 -1.7986941 -0.27271062 -1.3298696 -0.04256414
198 -0.27056155 0.38077852 0.11968829 -0.227669 1.1194366 0.31821343 0.86280674 0.6001909 -0.5533823 -0.23720196 0.7795803 0.35162774 0.6229402 0.2593772 -0.12124994 -0.19436331 0.082136095 0.1465714 0.57977027 -1.2534035 0.82387847 -1.5399528 0.12718548 -0.8577637 -0.96269786 0.7535311 -0.5690149 -1.1791005 -1.1617624 -0.3926262 -0.10421261 1.3169515 0.21503745 -0.07950652 -0.5301849 -0.040498085 -0.7131486 0.98734933 0.40126732 -0.3443814 0.97121537 -0.52320343 0.44659182 0.60325557 -0.90492666 -0.77528137 -1.6553088 -1.9591595 0.65581 -0.0040498017 0.2872364 -0.39303678 -0.5442117 0.17276236 0.19792542 0.31988317 0.91655976 -1.2687901 0.09491064 0.66284823 0.9564341 -0.074194215 -0.25586972 -0.09017846 -0.8435334 0.9509609 0.368747 0.26553896 -0.43392703 0.49658126 -0.45264798 1.2705216 -0.28602704 -0.2462478 -0.26167163 0.25977173 0.78644377 -1.5906541 1.4260547 0.60967666 0.70039904 -0.37385738 -0.9093585 -0.73622924 0.21186274 0.2966079 -1.5818422 1.5688989 -0.08536068 0.13788894 -0.57767797 0.6643072 1.6885434 -1.2156006 -1.2961801 -0.85417193 -1.3383079 1.3096312 0.28839105 -0.19313501 1.5479481 -1.0375189 -0.9609148 1.9173112 0.02633952 0.09352504 -1.0106816 0.73843944 -0.29922506 0.45139226 -0.5378539 -0.24707031 -0.9198409 0.011321462 0.601917 0.10733317 0.17674856 0.13321702 -0.26502606 0.13161299 -1.5065482 0.051600292 -0.9212434 0.4040888 0.36953476 -0.9840419 -0.29759258 -0.015212021
131 0.4386112 0.25510132 -0.15781085 -0.3447474 -0.10278839 1.5730008 1.538152 1.5946571 0.3297054 0.47174072 1.0228118 -0.2469109 0.47185865 0.35318738 0.52216953 -0.49519208 -0.22995484 -0.4010883 0.38494632 0.3291795 0.98673165 -0.62421864 1.2098051 0.68903154 -0.45161387 1.0419146 -0.7276153 0.14336327 -0.6047918 -0.5651821 0.007341777 0.9277963 -0.12544309 -0.7712681 -0.882958 -0.13637727 -0.6399708 1.1282204 0.655232 -0.06413512 0.25035968 -1.8198682 0.17568745 0.71549964 -0.4152754 -0.9246722 -1.154468 -0.86249816 0.33181468 -0.4199721 -0.9257333 0.3104381 -0.17103557 0.30317685 -0.6203853 -0.17814842 0.18576941 -0.39493212 -0.7681771 0.38455823 -0.407536 -0.85383457 -1.261445 -0.05178996 -0.10635777 0.56920266 0.45023426 -0.2400501 -0.33772463 0.8370364 0.21557206 1.7670732 0.29120293 0.6011776 0.030228602 0.5706606 -0.34974214 -1.4708729 0.4789063 1.0307665 0.39271164 -0.43246815 0.09020136 -1.1825893 -0.7712195 0.7632422 -0.9061013 0.9247281 -1.110582 0.6074785 -0.12972847 -0.35663074 0.59136796 -0.38880286 -1.1718875 0.372254 -0.9018627 0.97833943 -0.2819358 0.36175323 0.55404204 -0.7989215 -0.3756805 1.2118926 0.053164568 -0.95206225 -1.1534888 0.21202633 -0.10162186 0.8727198 -1.7726182 -0.5348162 -0.3236698 -0.48163924 1.1237153 -0.27497524 -0.052886244 -0.25300035 0.23617166 -1.0527804 -1.6531543 0.9772596 0.025207037 -0.49120352 0.27153116 0.28155825 -0.56828165 -0.9306331
164 -0.9666407 0.24345306 1.1640522 1.5428826 0.20922373 0.17981502 0.6789916 -0.51625425 -0.80441934 1.1391143 -1.4574442 0.45350546 -1.4316221 -0.5081058 -0.82362986 0.37739432 -0.40828407 -0.50755715 -0.51204985 0.62266976 0.015848361 1.1610669 -0.65454423 0.56208724 1.3830354 -0.54709154 0.59916097 0.9268618 1.139722 -0.13713959 -1.4723482 -0.5871775 0.47568372 1.2987213 0.72423184 -0.014642379 0.14802745 -1.0209938 -2.90319 0.825867 -0.7551334 -0.23065723 -1.9732847 -0.9779035 0.41892478 -0.73279935 2.4496963 1.7086749 1.3678577 -0.08243213 -0.5246074 1.765822 -0.26261005 0.28302354 0.97777313 0.15682985 0.4168684 1.4430621 1.2073506 -0.62636626 -0.06826718 -0.07832122 -0.008183576 0.41724983 0.21229382 1.2368044 -0.53657866 -1.712468 -1.4270359 -0.46351403 -0.7556639 -0.17953944 -0.02371606 -0.40092647 -0.62892205 -0.95835376 -1.1261706 1.1022426 -0.81886584 0.7222402 0.5736863 -0.45533967 0.8987224 -0.22428757 0.2617362 -0.7793009 0.38345623 -0.26266545 -0.80901724 0.66164565 1.4553295 -1.1463698 -0.32317054 0.12232265 1.3416022 1.4290045 0.814797 -0.704757 -1.0575792 -0.009737161 -1.7402258 1.520089 1.5382512 -0.6962578 0.27286264 0.54617804 0.35315853 0.11947268 0.39742127 -0.95809525 -0.8246292 -0.13867527 -1.0262815 0.05894567 -2.1249976 1.5647919 -0.1734318 -0.20055632 0.69228333 1.1713665 0.10171923 -1.0982388 0.812764 -0.77726734 0.31822923 1.3230599 -0.5708711 -0.00018778231
217 -0.061625388 -0.17723204 -0.015287753 0.57071817 0.30541915 1.199536 1.4624863 0.18528305 -0.5918546 -0.0055007674 -0.71405923 -0.20823207 0.2239474 -0.6038487 0.16601053 0.015170086 -0.65323985 -1.4794067 1.1123002 -0.67888266 2.2191093 -0.65867674 0.78209835 -0.33425358 -0.21103078 1.1674368 -1.8600377 0.40852883 0.045512572 -0.2849703 0.8606477 0.8186802 -0.26723623 0.46213832 -1.1100954 -1.1430205 -1.5303422 0.8965984 -0.2506039 -0.021157958 0.82806116 -0.9927807 -0.6299625 1.4139253 -1.2353371 -1.365637 -0.5085405 -1.3881421 0.8791518 -0.4177382 -0.2342133 -0.7136154 -0.16547103 -0.61966527 0.07408779 0.19843055 1.0104101 -1.0720153 -0.0074985377 0.47616962 0.13372613 -0.1869263 -0.35175398 -0.008244986 -1.1888914 1.1058855 0.6811798 0.2326809 -1.6321771 -0.031107489 -0.23174398 1.2860881 -0.36363688 -0.22531311 0.13173558 0.19156416 0.35953143 -0.77758265 0.98600966 -0.15561266 0.37306908 -0.2283925 -0.17134103 -0.81883776 -0.91906923 -0.3962514 -0.4742206 1.4803827 0.021461347 0.38092202 0.34009618 0.2434936 1.6075524 -0.8443866 -1.5512017 -0.06583686 -2.2573688 1.770677 0.037924156 -0.5111568 0.23472154 -0.12927774 -1.343364 1.8869067 0.13657127 -0.594169 -0.80532616 -0.71715844 -0.3030437 0.3326959 -1.109328 -0.38856748 -0.5801929 -1.0687677 0.8241542 -1.172102 -1.2928412 0.6356102 -0.46278435 -0.9953252 -0.6556075 0.7898722 -0.71920246 0.82526207 -0.9173139 -0.9212347 0.20560703 -0.5686916
9 -0.31881842 -0.025461864 -0.7018459 -0.49161553 0.53800225 1.8147271 0.4305792 1.2995483 0.2881024 0.25921497 1.6885471 0.7107546 1.0763031 0.4942568 0.32511204 -0.28180438 0.19029775 0.53387433 0.53196657 -0.23483883 0.77247304 -0.96858394 0.8276898 -0.004289187 -0.9727164 0.6709845 -0.009449553 -1.295808 -0.18053462 -1.1472621 0.38780406 0.752834 -0.39199284 -0.42659405 -1.5794379 -0.14672554 -1.0112801 0.40268216 -0.47116587 -0.7091077 0.6924127 -1.7978804 0.3995378 0.879099 -1.4069886 -0.24448007 -1.1161585 -0.6492173 0.7813956 0.024345681 -1.1152796 -0.57041496 0.23847747 -0.2530676 -0.41495475 0.41906622 0.019600032 0.35076898 -0.34147483 1.0038066 -0.22629651 -1.0420676 -1.099939 0.16196986 0.45824754 0.69557697 0.7891935 -0.3641563 1.1393089 0.82223177 -0.3016144 1.7518857 -0.10637635 0.87030476 -0.7389213 0.1688235 -1.3034278 -1.2274543 0.3684274 1.3992518 0.29485786 -0.5835032 0.025546435 -0.2284177 0.6445255 -0.5967054 -0.87763894 0.56386036 -0.66845965 0.5529274 0.5453704 -0.494312 0.18775421 0.577975 -0.4902392 0.19836415 -0.37386668 0.10818694 -0.53570896 -0.3992766 0.301007 0.020752452 0.14785035 1.3948913 -0.321217 -0.9326252 -1.0635821 -0.12502888 -0.18736233 1.5374743 -1.4524897 -1.1721289 0.19544712 0.3518072 0.6938449 0.138997 -0.074605726 -0.5199709 -0.46257305 -0.11611302 -1.0728185 1.0653344 0.7359709 -1.1766028 0.70270133 -0.14183742 -0.6546003 -0.6406722
289 0.24379475 0.16942427 0.008572705 -0.5225401 -0.24687916 1.8487635 1.6970407 1.2687134 -0.04598733 0.73553574 0.72860867 0.0021190392 0.33882505 0.30818084 -0.12975077 -0.6596852 -0.47596696 -0.6953456 0.91607547 0.25426987 1.3383633 -0.68534577 1.3022585 0.80456614 -0.36625776 1.3792619 -0.73596627 0.3067763 -0.60948 -0.4346326 0.06628771 0.84646386 -0.13092497 -0.54875326 -0.92427623 -0.17707208 -1.028053 1.0207305 -0.014858976 0.24459918 0.6327135 -2.0251033 -0.29598302 0.980803 -0.67343485 -0.89752775 -0.60936886 -1.0252285 0.6350832 -0.5950445 -0.9885059 0.32633632 -0.43704703 -0.091062516 -0.14086708 0.097829446 0.32133082 -0.44349843 -0.49911484 0.33832428 -0.5887985 -0.91191614 -1.5657414 0.042392544 -0.11615895 0.5688702 0.699174 -0.21757665 -0.23279174 0.5214052 -0.21098332 1.9173948 0.19846185 0.42360106 -0.3616127 0.2743375 -0.5556888 -1.4889451 0.49336526 0.99812216 0.68094516 -0.5689544 0.52521646 -1.3265809 -0.72478247 0.6260689 -0.967235 1.2098747 -0.9831285 0.9098194 0.48939025 -0.314361 0.8967267 -0.20085184 -0.98042214 0.33137873 -0.8497572 0.80888414 -0.52017426 -0.082275905 0.24815086 -0.53045017 -0.38731304 1.6732316 -0.4226259 -0.9820247 -1.5443798 0.061050564 0.14101066 0.8212194 -1.6814197 -1.0433451 -0.025179358 -0.65260184 0.5599454 -0.057022978 -0.40322882 -0.19219357 -0.5338832 -0.6506337 -1.8232931 0.8376758 0.20192523 -0.59667665 0.23778854 0.6961991 -0.5761433 -1.1468318
550 -1.0746425 0.33593053 -1.1161543 0.3466697 0.64472395 0.54334587 1.4194096 0.76060015 0.3117026 -0.16890708 1.0819234 1.1772252 0.37966746 0.31259933 0.54945153 0.81371915 0.32417154 1.113702 0.5652063 -0.50764024 0.16558143 -1.57472 -0.5087666 -0.011514053 -1.339426 0.20027353 -0.57480603 -2.0982115 -1.0866284 -0.34653306 -0.074746035 1.0288618 0.07438647 -1.9206272 -1.1649963 0.28015193 -0.71201813 0.88062006 -0.7738427 -1.1369629 0.5702281 -1.9025695 0.26781034 0.65781796 -1.6944997 -0.260806 -1.7307698 -0.614857 1.3962331 -0.326392 -1.2116913 -0.06700613 -0.48159257 0.5959177 0.4327837 0.8363929 0.41270292 -0.66520363 0.44012386 0.9141783 0.21346565 -0.7339933 -0.48759532 0.033930626 0.114644356 0.8682475 0.31478998 -0.55635935 0.8302403 1.2423958 -1.464131 2.79747 0.37702623 0.27458054 -1.1837316 0.23321973 -0.82246095 -0.84662795 1.1775057 0.7274171 0.7514883 -1.399983 0.32673135 -0.19829364 0.4213107 -0.48224556 -1.4778243 0.144658 -0.5555639 0.4031807 -0.08419885 -0.7318666 0.7107007 -0.8885721 0.5578971 -0.71088326 0.014486014 -0.97307247 -0.6295968 -0.49247482 0.92056364 -0.7586337 0.8112027 1.0733653 0.6727215 0.049455687 -0.5322683 0.29381102 1.2444667 1.0580276 -1.3970653 -1.9985348 0.08879285 0.7698007 0.3935153 0.44664955 0.66098344 -0.6859714 -0.76862115 0.5466248 -1.5290134 0.11302613 -0.45387498 -0.81501764 0.737143 -0.49085978 0.03362316 -0.8356993
343 -0.4240065 0.7598208 -0.58980536 -1.0407082 0.4747883 2.1539326 0.24596086 1.3656688 0.49549627 -0.7214232 2.0169232 -0.06214904 0.9215074 -0.009273129 0.3251066 -0.66411567 0.93508035 0.45757878 0.9022434 0.13585545 0.62945044 -0.8547379 0.2984295 0.6235102 -1.1779613 0.4839941 0.008625718 -1.3886396 -0.04978778 -0.37549296 0.6047943 2.074546 -0.2898564 -1.615362 -0.3746169 -0.29055795 -0.16038103 0.47321174 -1.153027 0.08431616 0.29677686 -1.155527 0.32051978 0.6677095 -1.4432912 0.63134557 -1.096931 -1.0095626 0.23553187 -0.11336482 -0.44128686 -0.49896207 -0.23601423 -0.28159335 -0.5775592 1.4664617 -0.66565335 -0.55014855 1.0205985 0.9143796 0.26150653 -0.97952145 -0.9629036 0.3902438 0.12361221 0.06691738 0.75954974 -0.23631841 0.38541526 1.3049351 0.59381855 0.79169273 0.4332692 0.86627233 -0.17995772 0.3697593 -1.228667 -1.5371089 -0.1854762 -0.28994083 0.43710795 -0.57337415 -0.1281788 -0.44823444 -0.2403327 -0.5909962 -0.9067521 0.37834734 -0.28361338 0.9367138 0.3614011 0.59635377 -0.52785873 0.94548845 -1.0332447 0.070233196 -0.17468661 -0.18310764 0.029917255 -0.53338116 0.2786436 -0.6550214 0.75905025 1.1908631 -0.2950676 -0.554998 -1.4093252 -0.28936064 0.3480846 0.96703225 -0.68395466 -1.3997146 0.545304 0.6098653 2.0319912 -1.58669 0.05884282 -0.15516561 -0.7447108 -0.104524724 -1.2045555 1.0548658 0.4424609 -1.0069327 0.806794 0.040999275 0.284549 -0.18902518
151 0.12227145 1.2515036 0.20490326 -1.1882749 0.3008804 0.94615495 0.4192079 1.6655862 0.038602937 -0.279509 0.90282726 -0.051433463 0.42792708 0.3580107 -0.22191836 -0.71464497 0.8481918 0.03485631 0.39899045 -0.3145455 0.9575709 -0.94561136 1.3684388 -0.01587591 -0.42150804 1.5395373 -0.34608448 0.2460053 -1.8630342 0.63355935 -0.6597353 1.2975142 0.32625473 0.029129019 0.24407321 0.9645193 -0.11413332 0.14706671 0.6928553 0.31106475 0.65843487 -0.59445226 0.03460012 0.573016 0.3608129 -0.23047374 -1.669577 -1.0410458 -0.15831365 -0.20007516 0.09110226 -0.36581245 -0.78507274 0.36241502 0.19878356 -0.1536642 0.6022804 -0.72337556 -0.47423986 0.5981446 0.65470266 0.11773346 -0.34331742 -0.05115584 -0.13625537 0.19559029 0.88426435 0.57667947 -0.25476608 0.109558515 0.43888244 1.2431667 -0.18581273 0.11660919 -0.08722909 0.49892983 0.7195781 -1.5277803 0.88210493 0.9398285 0.40901172 0.29218224 -1.1419195 -1.4976716 0.05282602 0.9696321 -1.1067691 1.3460561 -0.45254332 0.79520965 -0.3981937 0.47633535 0.6660079 -0.4718064 -1.563108 0.056325924 -0.7394964 1.4480019 0.3000693 -0.31297606 0.7233126 -1.1303375 -0.9691459 1.0843989 -0.44403625 -0.6654275 -1.1301029 0.756354 -0.7207422 0.7071244 -0.5356427 -0.27847952 -0.104127504 -0.7900013 0.9509854 -0.33839613 -0.25604364 0.20143437 0.2828237 -0.012639315 -1.7119721 0.56887466 0.19642311 0.123263896 0.19979753 0.5003743 -0.9442786 0.019548565
116 0.73300993 0.38623753 -0.7826475 -1.2882712 0.62835306 0.88302535 0.2199562 0.5908019 0.09829685 -0.8873247 1.8706472 -0.75866747 2.6258342 0.512525 -0.2969906 -1.3749975 1.0594759 0.69800824 0.3948427 -1.5518608 -0.32234412 -1.0309978 0.020675201 -0.7442659 -0.54598457 0.12490928 0.013538681 -2.7338755 -0.5492805 0.77693313 -0.56145656 1.1262125 1.3161459 -0.94109905 0.71255845 0.7157297 0.5885806 0.61701626 0.2252891 -0.24321675 0.32786438 -0.35971296 0.72131115 0.049427524 -0.56135845 0.30772373 -1.7774628 -1.4624144 0.36155534 0.15050724 0.11217153 0.263499 -1.0156373 -0.61235726 -0.86243576 0.35847858 0.13871205 -1.0243641 0.5517254 1.1715097 1.1847141 -0.5698901 -0.36730567 -0.73158807 -0.24990489 0.7241854 0.9431836 -0.5182881 0.4413167 0.4137404 0.080835484 1.3058339 0.2719907 -0.3350177 0.23542485 0.6412279 0.47501865 -2.128866 0.6329105 0.17508811 1.1593109 -1.0399318 -0.6647645 -0.12628545 0.71129936 -0.037758265 -0.8227639 2.0159974 -0.46029937 0.31637347 -1.191644 1.416482 -0.04919633 0.20211041 -1.6386719 -0.71171397 -0.6120356 0.8403412 1.3163999 -0.38668564 2.3567321 -1.435678 0.48648512 0.8878131 -0.6861229 -0.13573052 -0.40849137 0.8400991 -0.64529806 1.1505984 0.6106605 -0.42943174 0.2391742 1.6874799 1.3635614 -0.77518755 0.42702758 0.59817845 -0.8487017 0.42688078 -1.2361565 1.2479262 -1.2160634 -0.19686772 0.58910596 0.058699157 -1.386548 -0.8205337
597 1.7540468 1.2503725 0.024418319 -0.38233536 0.13772568 1.716956 0.32746214 0.9907322 0.32281196 -0.534662 1.764829 -1.2097032 1.175912 0.6904122 0.571717 -0.79269016 0.81901103 -1.0633261 0.23676637 -0.30813316 0.8770106 -0.36930972 1.3360116 0.62452585 -0.21981972 1.1275449 -0.23090233 -0.2567808 -0.7319286 0.52521336 -0.2735866 0.8076904 -0.26951948 -0.5511184 0.5883473 0.025967749 0.239461 0.6322336 0.039423488 -0.0953579 0.47735336 -0.454805 -0.17681295 0.24535282 -0.094203435 -0.148669 -0.8071474 -1.402708 0.12857984 0.032413308 -1.0653367 -0.7171052 -0.54341114 -0.5665435 -0.8538506 0.47486332 0.5507981 -1.4509847 -0.6420769 1.2301143 0.3394687 -0.154309 -0.30252483 -0.07565656 -0.12505119 -0.148987 1.3675587 0.10525109 0.5432033 0.83320224 0.66892034 1.0572505 0.46081161 0.13029456 0.3975965 0.26637727 0.09756596 -1.0155687 0.42777237 0.15733959 1.0514625 0.13472255 -0.33561477 -1.0230973 -0.5178289 0.97176915 -0.68257403 2.1202319 -0.64761215 0.7944822 -0.2827897 -0.13241577 0.25644544 -0.42971024 -1.7240415 -0.48608577 -0.5521154 1.2305583 0.40617558 -0.5046899 0.8356164 -1.1058993 -0.89880323 0.66990113 -0.36558172 -1.0147314 -0.6347727 -0.023771131 -0.6290986 0.19479162 -0.43316457 -0.4050381 0.49461144 -0.27252278 1.090977 -1.3314357 0.11943845 0.5029103 0.063366495 -0.009849572 -1.1472203 1.1610235 1.23638 0.1611165 0.7666686 0.25958598 -0.5751365 -0.6451971
35 0.42294917 1.212946 -0.15630823 -0.4476416 0.65768623 1.3056294 -0.268284 1.1790217 1.6494461 -0.68969214 1.8131111 -0.29638204 1.6140933 0.06261255 1.1935067 -0.22858633 1.4126325 0.83752173 -0.5540109 -0.41901046 0.9211506 -0.64458126 1.2456453 0.0346611 -0.43796688 1.0446544 -0.062100485 0.120748505 -0.4594916 0.68887913 -0.16800047 1.4801561 -0.11844916 -0.59712404 0.5238164 -0.017351115 1.2238756 0.7017542 0.39274952 -1.0743932 -0.15076424 0.6144953 0.16445398 -0.28278702 0.537696 -0.9711228 -1.9268634 -0.17259142 -0.108395614 -0.12959316 -0.99774885 -0.60811174 -1.0059781 1.0556711 -0.52351207 0.10008933 0.46361357 -1.3276385 0.17761578 0.912298 0.29408458 0.608087 0.7186051 -0.7149463 -0.22102515 0.9249303 1.3813294 -0.24548385 -0.73940057 0.9876506 0.98787725 1.4297127 0.024266243 -0.042835258 0.73830473 1.0529107 0.69448346 -0.9123335 0.37241098 0.4837923 0.46687815 0.22499944 -1.4796596 -0.9429529 0.66910726 0.11535063 -0.49674043 1.3092425 -0.41111654 0.03913424 -0.4096171 -0.13108632 0.07798994 -0.11747812 -1.4972216 -0.5417379 -0.89297193 1.2418948 0.91713756 0.12615302 0.7951238 -0.9162508 -0.3486649 -0.41340485 0.91778207 -0.36193678 -1.4282293 -0.7717863 -0.69442993 0.67098665 -0.9013377 0.45066065 -0.12754068 -0.24838693 1.3945379 -1.2767459 0.5673493 1.2996478 0.66810507 -0.55860335 -1.751171 0.32978153 -0.0832173 -0.7065852 0.06860046 0.2628166 -0.79953533 -0.2770403
434 0.49652115 0.38300398 -0.63862705 -0.3829982 0.25059894 0.92832994 0.22229874 0.44710234 0.6322326 0.31050718 1.5317388 0.16960272 1.9257262 0.71638286 -0.4909497 -0.24301277 0.66435856 0.41333777 0.52970034 -0.32062998 0.5322816 -0.5709581 0.28415766 0.19819658 -0.8812685 0.32231104 0.28354892 -1.4426513 0.28457138 0.5281306 0.12883525 -0.19750439 -0.087782264 -1.4301817 -0.35631284 0.09218464 -0.29114482 0.6491857 -0.748407 -0.7725864 0.81131166 -0.6830966 -0.030198792 0.82527953 -0.83402914 0.5217423 -0.3952064 -0.94328934 1.3573352 0.32586178 -1.6132845 -0.1980474 -0.5360165 0.051221803 0.3189863 0.72063714 -0.09099223 -0.22612345 -0.22285762 1.182646 -0.11740391 -0.34353456 -0.2373633 -0.24952668 1.1948608 0.4769981 1.7635131 -0.8241037 1.326617 0.24480177 -0.74696654 1.9427671 0.39351046 0.2520865 -0.27321568 0.010193153 -1.056083 -0.7629359 0.092455596 -0.084125124 1.0093122 -0.5440601 0.43781406 -0.8310641 0.42641982 -0.31907147 -0.5624103 1.2723184 -0.25622338 1.0752482 0.078348346 0.0315278 -0.8901584 -0.052557994 -0.48737416 -0.58225703 0.62610096 -0.67239565 -0.3893109 -0.7506604 0.32172927 -0.5548356 0.4430803 0.57295096 -0.48551857 -0.184615 -0.6698036 -0.357435 0.50472575 1.0227314 -0.07218849 -0.90087473 1.1569388 0.50095266 0.29427645 -0.039629284 -0.15037094 -0.6191932 -1.0551847 1.0329002 -0.744163 0.19527073 0.87737066 -1.2127534 0.72050357 0.8326365 -0.99151087 -1.2449851
248 -0.9324191 0.4819742 -0.35204458 -0.7696547 0.29121873 1.250849 0.36960006 0.796495 -0.037880383 0.5050491 1.1230123 1.0346965 1.0227778 0.46137705 -0.24843176 -0.7722592 0.103649095 0.47266316 0.8050636 0.07787756 -0.06761401 -0.74179345 0.81878775 0.91176647 -0.2509044 0.22854388 -1.1050128 -1.2538072 -0.3982519 -0.296632 0.025661038 0.55419475 0.6597193 -0.82870823 -0.40173763 0.46835232 -0.86699337 0.6345036 -0.40168297 -0.28855953 0.16453561 -1.5546713 -0.28599417 0.24499841 -1.2219453 -0.80735606 -1.019222 -0.46640745 -0.42032632 -0.3870445 -1.0406379 0.7583702 -0.2497279 0.6503796 0.24916855 0.3984597 -0.13123775 -0.033997897 0.22644596 0.8527791 -0.19534302 -1.1442962 -1.5369055 0.43614542 -1.1749009 -0.13669933 0.104233496 -0.80605495 0.46800366 0.42516097 -0.83220047 0.8652507 -0.84548306 -0.03233323 -1.5635188 1.4204235 -1.0551118 -1.2033668 0.09583535 0.53177476 0.85920864 -0.19721012 0.44123295 0.03192063 0.24959001 -0.44483653 -0.33308998 0.6663199 -0.35699332 0.63415045 0.8346694 -0.25199017 -0.039267674 1.021951 -0.19100888 0.36522537 0.4781207 0.008738563 -1.1982274 -0.6931174 0.50063944 -0.40970346 0.78625333 1.1045605 -0.45531663 0.10739525 -0.3062051 0.10108901 -0.46113065 1.64999 -1.0100105 -1.7299151 -0.54967606 0.8999698 0.15122405 -0.23045483 0.47935694 -0.7121022 -0.5079603 0.44517827 -1.3091533 0.7879131 -0.5543833 -1.0968993 0.4997721 0.6503265 -1.0302631 0.23551682
545 0.037162803 -0.34579688 -0.49385458 0.09696654 -0.8710853 -2.6259847 -1.8951144 -2.373908 0.6575694 0.41068292 0.55027115 -0.39850917 -0.26088238 -0.92226934 0.5221652 -0.37970686 0.62345725 0.059167776 -0.1442278 0.39595 -3.1232517 -0.3485713 0.0492811 0.82609296 0.5736434 -0.7463618 0.006774176 0.7582985 0.58652735 -0.1528963 -0.872918 -1.7179581 -0.11501957 -0.37150636 1.5620522 0.19498695 0.86889136 -0.9705344 0.56138927 -0.5876244 -0.6920281 1.7432213 -0.27496076 0.48130053 1.4831877 0.3450741 0.22311422 0.5591315 -0.59161866 0.5624853 1.0939468 1.297974 -0.10054505 -0.85713065 -0.056592796 -1.0117348 -0.19825284 -0.12187145 -0.6176174 -0.8735368 -0.46500024 0.13110091 0.116137 -0.7436125 -0.27510208 -1.6655533 -0.57973343 -0.2304703 1.2341992 -0.6363172 0.82385737 -1.6475586 0.30006567 -0.30241507 -0.54870963 -0.26450738 1.0823781 0.9785184 -2.0940607 -2.414204 -0.8234519 -0.57008654 1.6800404 0.9146127 -1.2970241 1.4234633 0.12226492 -1.7890215 -0.39517993 0.5169694 -1.075231 -0.27407727 -1.5055237 -0.2631504 0.84488255 -1.5146291 1.4642029 -0.038985252 1.3527348 0.30330697 -0.54900855 -0.11204062 0.5920306 -1.4138979 -0.2013725 0.25199088 2.661246 0.65058917 -0.986807 -0.4641869 1.4704303 1.6915356 1.4885814 -0.54520035 0.1868932 -0.5154627 1.4585501 -0.79460704 -0.76097155 -0.308074 1.7762663 -1.0974411 0.6464917 0.6555627 -1.1787436 1.0015234 1.0196004 0.95476705
601 0.41201714 0.5969923 0.1606858 -0.6474034 0.8860656 1.4243575 0.6452957 0.4672671 -0.25483087 0.0067502987 1.0610929 0.024191301 0.53879756 0.222492 0.30230933 -1.5607605 0.25033262 -0.40040702 1.0689143 -0.648025 1.0441774 -1.315601 1.4358747 0.090573385 -0.66340506 1.4797487 -0.8306434 0.40229604 -0.7404909 0.0615167 0.4634154 0.8974178 0.29037532 0.42029274 0.2184497 0.05074696 -0.5428928 0.38531786 0.45396727 0.13939905 1.0314832 -1.1630285 -0.10783167 0.6100831 -0.3490605 -0.16242819 -1.0633061 -1.4861288 0.15124668 0.106292464 0.20073391 -0.4511811 -0.7304802 -0.71815366 -0.53384924 -0.3320734 0.8950587 -0.7576411 -0.7484741 0.41491872 0.3251726 -0.022235863 -0.74889696 0.09939075 -0.23022953 0.043402046 0.758929 0.19581863 0.2638298 0.34091434 0.30422646 0.78817093 -0.5519264 0.3157371 -0.21465307 -0.037202034 0.5314515 -1.7746482 0.5056614 0.4112342 -0.029160822 -0.0726777 -0.22257012 -0.8229769 -0.06338894 0.88287306 -0.7405367 1.2704393 -0.50965476 0.82682157 0.19943103 0.24631372 1.053132 -1.0477074 -1.6748002 -0.4160957 -1.640228 1.7489623 0.81227106 -0.4184179 0.8040683 -0.94480973 -1.0327406 1.2346877 -0.88044846 -0.93485224 -1.0960702 0.1457198 -1.2827715 0.025276177 -1.2514737 -1.0807294 -0.1358348 -0.6781849 1.1002046 -0.30263418 -0.027079852 0.5298038 -0.7530885 -0.34402493 -1.4339951 1.1812354 0.60540956 0.21846373 1.0460358 -0.013782745 -0.3907159 0.15871136
374 -0.15669087 -0.2736122 -0.439617 0.05116295 -0.77454144 -2.4861526 -1.794102 -2.148914 0.6767253 0.44428375 0.7233444 -0.2929783 0.092564054 -0.84380263 0.47948897 -0.28372043 0.6824447 0.17245445 -0.004964338 0.331993 -2.9740462 -0.5099994 0.15015139 0.79759717 0.39079452 -0.65035343 -0.18239221 0.5925476 0.32494465 -0.21462998 -0.7123973 -1.5716496 -0.13946688 -0.4545585 1.2857249 0.15462792 0.6971339 -0.7701079 0.6280036 -0.61752915 -0.4649664 1.6672889 -0.13785498 0.555461 1.2425096 0.20889568 -0.11003727 0.22333977 -0.642854 0.60550267 0.9078682 1.1355058 -0.031112656 -0.6429175 0.11803076 -0.9645541 -0.30542222 -0.37882212 -0.707445 -0.73162025 -0.33828306 0.12774214 0.096789844 -0.79960185 -0.35972524 -1.6678694 -0.4918763 -0.2358196 1.1613262 -0.5268254 0.5627601 -1.3446902 0.09967423 -0.1570659 -0.60850346 -0.07005848 0.9520443 0.8943254 -1.7632555 -2.3901374 -0.8204263 -0.5087773 1.4232585 0.7826225 -1.3402766 1.2926406 0.03565864 -1.6275249 -0.42996496 0.50289464 -1.0310553 -0.28364357 -1.4981517 -0.2046564 0.70569986 -1.5147674 1.4113643 -0.02093064 1.1237544 0.25666186 -0.4396235 -0.2964191 0.5848168 -1.1647744 -0.17675611 0.34202155 2.4357505 0.5590632 -0.93903303 -0.19040579 1.4202656 1.6338639 1.3001763 -0.5215683 0.25972304 -0.45702657 1.3471524 -0.9905345 -0.83185565 -0.28868243 1.510555 -1.0651479 0.481222 0.69144 -1.105594 0.6954911 0.9212543 0.91981125
491 -0.7850978 -0.4947468 0.6297904 0.5273544 1.2196642 0.54497916 0.5281421 0.9534946 -0.6557066 0.54981595 -1.5245267 -0.9821536 -1.4260652 -0.96246606 -0.61282927 0.1546404 0.15601893 -0.6125153 -0.69604135 1.0642227 -0.116344504 1.3087896 -0.67492616 0.27405608 1.2801036 -0.78671336 0.5612541 1.2626776 0.9793948 -0.45845377 -1.7276657 -0.31924865 0.10864649 2.0030675 0.8593146 0.23740618 1.3768163 -1.5508715 -1.6175663 1.0029001 -0.9573731 -0.18633401 -1.8362204 -1.5671463 0.32266656 -0.59110045 1.8910007 1.6697756 0.8998224 0.0657626 0.27862406 1.2009164 0.40389603 0.4898384 0.6460624 -0.41244894 0.49565732 1.1235023 1.7630905 -1.4450793 0.4964068 0.2529432 0.73043746 -0.0044521657 0.55233365 0.91021967 -0.23560554 -1.3823211 -2.2584352 0.021464363 0.39643604 -0.6826659 -0.060772993 0.4242282 0.7406303 -1.2049005 -0.6951611 1.3010254 -0.70150363 0.746961 -0.07234474 -0.089384004 -0.8182647 -0.648142 -0.42228043 -0.96179676 0.47467253 -0.08968132 -0.97969157 0.5714228 1.5771902 0.10690327 -0.59828883 0.6418509 0.18018198 1.7361844 -0.2785536 0.10761002 -0.22494178 0.4485729 -1.7485588 0.38546562 1.3751183 -0.66006345 -0.7432883 -0.049524713 0.34237176 0.6943836 -0.0999159 -0.89645225 -0.7953727 0.6112773 -1.6119787 -0.13924225 -1.6692477 1.4601501 -0.6834132 0.72632235 1.3980803 0.008717601 0.4056799 -0.71225756 0.8254361 -0.08203764 0.6050151 0.25034845 -0.41245165 0.029812383
555 1.1195986 -0.6957644 0.03663631 0.35023308 0.9712908 -0.56646913 0.09073077 -1.4011047 0.089513004 -0.26545697 0.906775 -1.5124198 -0.27920714 -0.53600824 1.4431887 -0.21195424 0.4015238 -0.09604477 0.15982774 -0.5166676 -1.6803914 -0.044058412 -0.86919785 0.116492495 -0.31857964 0.7776521 0.8448821 -0.18326621 0.9534074 -0.47935385 0.07764107 -0.75403947 -0.051260896 0.94706994 0.94543415 -0.48004743 0.00764796 0.5376446 -0.80605304 -0.21911101 0.7236151 0.569654 0.9877032 -1.3762646 0.5275564 0.31054235 0.603192 0.05868975 0.7987488 0.06482913 1.2636403 -0.058933485 -1.0553421 -1.8807936 0.041133534 -0.6612714 0.26287147 -0.3290277 -0.06990165 -0.66723824 -0.63224936 0.95167154 0.45934206 0.13191867 -0.33224502 1.187053 -0.6591678 0.5381681 0.9826886 -0.26634973 0.05446964 -1.367907 1.1114997 1.1376293 0.50939745 -1.7995151 1.5382131 0.60902375 -1.0375165 -0.67196274 0.67595315 -1.2889285 0.96873057 0.1723323 -0.1331831 1.2173462 -0.5253062 0.9004282 -0.7925565 -0.095811844 -1.184539 -1.6918066 0.8877406 -0.84639513 0.46742034 -1.7446839 -0.61776304 0.42859274 1.4015672 0.5823359 -0.15683128 0.5596606 -0.49646044 -0.0009536529 0.71338767 -0.12400798 1.3638235 -0.3239319 -0.048541516 -0.45390147 0.17999884 1.3156731 0.096035786 -0.4577459 0.80877066 0.82899415 0.4762426 -0.10932414 -0.44954133 0.106665306 0.42019075 -0.38104698 0.6233631 0.30786753 0.31404138 -1.6233307 1.595715 0.9455747
446 0.42290482 0.2756309 -0.5792166 -1.4459229 0.014225237 1.7604995 0.47790965 0.2784393 -0.41748834 -1.6766406 0.6868924 -0.31480014 0.739161 -0.36418235 0.38957986 -0.0736146 0.12601124 0.41736364 0.5150513 -0.5382343 1.9314454 -1.0053067 -0.42370194 -0.81819934 -1.3493814 0.8890508 0.64357334 -1.8415761 0.32507536 -0.19145617 0.61446744 0.85079867 0.2532287 -0.27600628 -0.6444269 0.4506645 -1.4758127 0.22933371 0.27240047 -0.33204716 0.15880013 -1.2881705 0.69720924 0.064371884 -0.8180437 0.41870427 -1.7253921 -0.60096204 1.1199919 0.21183771 -0.2484275 0.23931964 -0.9054802 -0.77958465 -1.1760349 -0.5043185 -0.35933018 -0.030089403 0.051749285 0.20231058 0.0034827888 -1.2352369 -0.5653902 -0.10238763 0.5935649 0.86581767 0.8046852 0.98003215 0.7255265 -0.42429465 -0.37256664 1.2314745 -0.45193213 -0.2816324 -0.7073842 -0.9001209 -0.052239396 -0.42985326 0.09608501 1.7756171 -0.5155792 -0.17344515 -0.34841758 -0.07288812 1.2585928 -0.62563974 -0.34160864 1.2520348 0.6265944 0.20480007 -0.25567934 0.30489078 0.18559632 0.2986427 -0.5044671 1.4692026 -0.5048914 0.1737275 -0.010611157 -0.42916825 1.1279986 -0.9290498 -0.6402619 0.7468698 0.5119779 -1.7032251 -0.9928746 0.8100392 0.43477786 1.4648322 -0.052557897 -1.8159097 0.27346575 0.30582532 1.6887492 0.22288376 -1.530505 0.20627572 -0.30719215 -0.086065635 -0.80826944 1.9459124 -0.31598663 0.13948904 -0.3754226 -1.0237035 -1.4127189 -0.29941282
230 1.2569675 0.2179735 -1.482607 -1.0209491 -0.583559 0.7371853 0.54812723 -0.7572478 0.24013631 0.4488275 -0.57958 -1.0811247 -1.4170645 -1.2141175 1.551293 -1.6528821 -0.9519861 -1.665453 0.63438714 0.13207456 -1.0040833 -0.3976093 1.3228073 1.7066642 1.245061 0.5716492 1.6651723 1.8395683 0.124805324 0.24686803 -0.85143775 0.7939834 -0.9845349 0.0698722 1.9752194 -0.483719 0.2976917 -0.43556732 -0.5166439 -0.68109584 -0.65982926 -1.5643839 -0.8658239 -0.10241817 0.078360945 0.3397361 0.2903501 1.9207132 -0.15345562 -0.6032992 0.08353808 0.908825 -0.9200923 -1.8104525 -1.0859764 -0.82031274 -0.05318354 -0.04167936 0.8630403 -0.8285057 -0.92742854 -0.57130444 -1.8577727 0.04664408 1.038249 -0.46664256 -0.5310571 0.39474854 0.44058043 0.12689736 1.6173316 0.20098269 0.6155841 0.15045917 -0.49342793 -1.431749 1.3374884 -0.030075816 -2.6450686 -0.8762642 -0.9552415 -1.882779 1.5280789 -0.37974444 -0.974923 1.7239993 0.4134472 -1.5047339 -0.70875233 1.1247718 0.63888204 -1.128442 -0.10273276 0.8217999 0.6918161 0.85736734 -0.44217739 0.03372564 1.617415 -0.6697321 -0.88288724 0.20711294 0.3552043 -0.2322144 0.07075487 -1.960416 1.0312313 0.04966382 0.42847684 -1.2129043 -0.8004308 0.774904 2.0799587 -1.2583466 1.7720608 -1.4826492 0.24499118 0.87741774 -0.28811085 -0.7789089 -0.38196468 0.4755419 0.87730616 -0.30102304 -1.048089 1.6971827 1.3897457 0.4175473
576 0.060348693 0.6401026 -0.35942754 0.04984588 1.622902 1.403334 1.1824416 0.3846652 -0.7056308 -1.161821 1.1999308 -0.54729 -0.25516078 -0.21099907 0.715764 0.08666808 1.5056032 0.50544566 1.2364821 -0.36689088 1.3617601 -0.85112303 -0.4596516 0.16221435 -1.8001426 0.7615305 0.32494542 -1.1532595 0.20657441 0.15233365 1.8091679 0.7573789 0.099790044 0.2196326 -0.43606016 -0.69016093 -2.1440346 0.102648646 -1.0905166 -0.29712418 0.61446214 -0.920833 0.081781775 1.1539202 -1.7398777 0.015139427 -1.4902797 -1.1895131 0.3193884 0.47790062 0.5774627 -1.778238 -0.5414455 -0.8426083 0.18865323 0.6068117 -0.12744282 -1.0430521 0.089304395 0.23887573 1.1046299 -0.20613351 -0.18329161 -0.04112545 -0.4077609 0.09857487 -0.56868947 0.55849105 0.954657 -0.12997118 -0.06693877 1.5800023 0.2665023 0.54809123 0.068456165 -0.41689274 0.8339882 -0.43145192 1.0411798 1.1708112 -0.917922 0.101400055 -0.026759814 -0.20972899 -0.11447958 0.5736548 -0.6248908 1.4278948 -0.8074047 0.17012084 0.37634587 0.3032081 0.6970237 0.20595066 0.4032955 0.6712445 -0.42347744 -0.09971269 0.20559356 -0.8990418 0.011653894 -1.3942729 -1.270806 1.9763488 -0.31939375 -0.69078636 -1.1836945 -0.05727417 0.5277268 0.0264137 -0.48079595 -1.272218 -0.8121098 0.8458646 2.2079794 -0.26234508 -1.7988529 -0.074401215 -0.75276893 -0.7355532 -0.94722366 0.2636269 -0.45253342 0.65476507 0.29350767 -1.2658898 0.27721512 0.06859105
350 1.6718328 -0.32141414 0.47420266 -1.9024694 -0.9001198 1.695434 0.35254478 1.1957089 0.90600353 -0.3415534 -0.08797652 -0.4832903 0.082296625 -1.2582548 1.3841726 0.4765025 -1.0409925 0.17295426 0.49685356 -0.67837596 2.5391805 0.2600985 0.8286538 -0.13311091 -0.82480633 1.4475532 0.3748158 0.2987931 -1.313185 -0.08197222 -0.08107796 1.5173373 -0.5067324 -0.151518 -1.0982871 -0.860034 -0.4749475 0.61162406 0.7236026 -0.42284694 -0.07988028 -0.7310752 0.55010545 0.71577954 0.3780545 -0.06118107 -1.2930547 0.11302378 0.30003327 0.5915127 -0.73375964 0.1390802 -1.289757 -0.3294313 -0.8389077 -0.4231234 0.98054457 -1.7878845 -0.012849726 -0.20455907 -0.81108415 -0.7821834 -0.4957795 -0.488122 -0.07593906 0.42666873 -0.031141765 2.6247725 -0.4496203 0.49161193 1.37529 1.0071341 0.23985893 0.28042257 0.281763 -0.69401354 0.79810345 0.14143945 -0.05418972 1.100578 0.91843355 -0.6254973 -0.7779805 -1.098173 0.88316566 -0.27517506 -0.18770528 2.2614784 0.7988014 -0.5095878 0.00217192 -0.08702838 1.4679776 0.043122236 -0.45509592 0.95807827 -2.2433827 1.317792 0.76060593 0.089990154 0.48097825 -1.5574229 -2.2606876 -0.15536414 1.1132085 -1.4922909 -1.9079546 0.76404184 0.24859354 1.6058648 -0.07712644 0.5182837 0.797074 -1.2855765 0.88293576 -0.9445678 -1.0324471 1.95515 0.28820777 -0.67910326 -0.8910517 1.0062461 0.51132774 -0.25084004 -0.058681913 -0.26509747 0.12739158 -0.6899248
526 -0.7406369 0.6090816 1.137635 -0.8679106 0.8253987 -0.15448189 -1.959487 -0.3221707 0.8028113 1.431128 2.5813293 0.6118607 2.6529036 0.652368 -0.1389752 -0.11884064 0.836179 1.4694879 -0.42612854 -0.1374479 1.2087153 -0.91644436 0.95372677 0.212391 -1.1804732 0.89220893 0.0986589 -0.6396663 -0.383287 0.075148925 1.464654 0.039114866 -0.49727377 -0.8583083 -0.6100503 -0.016852943 -1.4456432 1.3439257 0.6100574 -1.1295127 0.99839467 0.3114305 1.022733 1.0493205 0.8679231 0.8961637 -2.287458 -0.7530968 -0.6594309 0.33315575 -1.076697 0.60357296 -1.1925452 0.20277914 1.4550383 -0.83395946 -0.22887175 -1.147034 -1.0321465 1.0610168 -1.151105 0.35075882 -0.90164226 -0.73096365 -1.6528183 -0.90473115 -0.1713572 -0.4417801 1.7091926 -1.1574166 -0.30672878 0.17926712 -1.1439694 -0.44544336 -1.3592896 1.0453335 0.022947544 -0.69401306 -0.09540179 0.5962357 1.2276146 0.5564305 1.0799626 0.09777392 0.4251992 0.22219115 -0.08374022 1.978297 0.41704845 -0.35107943 0.0102227265 -0.7954744 0.1188551 0.3807471 1.0320586 -1.3314527 0.68376917 0.10101759 0.3300273 -0.22656605 1.8049908 -1.0449282 -1.4237205 1.0280746 -0.60826075 0.93810385 -0.87857926 -0.35543346 -1.6439557 1.9045068 1.4446503 -0.1706945 1.142006 1.3179333 0.5375606 -0.48320872 -0.6960673 -0.70492804 -0.5640253 1.2203202 -1.9271275 -1.1058242 -1.5599334 -0.6456461 -0.2002903 -0.5164406 -1.8987634 1.0112859
494 0.98283046 -0.7204365 0.24336538 0.017313708 1.0343494 -0.49925536 -0.007333135 -1.2468616 -0.0774781 -0.22972739 0.8781366 -1.2291102 -0.78313005 -0.6845609 1.4938307 -0.12158607 0.16586703 0.17825057 -0.031016339 -0.28868186 -1.8155396 0.19727091 -0.81124693 0.15226877 -0.51856804 0.3707921 0.8815751 -0.040251367 0.5161411 -0.6445367 0.03422044 -0.7872228 -0.1905985 0.7468579 1.2445518 -0.6953722 -0.007497092 0.35685736 -0.8979411 -0.48983416 0.38410783 0.7791027 1.0083052 -1.7337677 0.74215263 0.5345735 0.8511608 0.5705556 1.0576057 -0.04163392 1.0753146 0.34943384 -0.9228227 -1.9318684 0.33356392 -0.43696028 0.4423204 -0.24171153 0.71287334 -0.6426735 -0.7705532 0.8351192 0.21891424 -0.18401033 -0.6198707 1.4361928 -0.666622 0.4732175 0.49715745 -0.4121599 0.14345744 -1.6270074 0.67852765 0.6370582 0.6741091 -1.9322673 1.359082 0.7976592 -1.1686739 -0.89677775 0.57944435 -0.78922683 0.8948306 0.08992029 -0.21128443 1.0698956 -0.46931022 0.87256074 -0.45339832 0.00053989934 -1.4117837 -1.3867149 1.0671437 -0.9938036 0.42916563 -1.2394916 0.010618731 0.20369902 1.129362 0.8213616 -0.16082284 0.69278395 -0.5701257 -0.42814305 0.6481343 -0.15571089 0.9868826 -0.061436605 -0.22380577 -0.617772 0.29993093 1.2120265 0.12363068 -0.81015515 0.45783105 0.837106 0.18102051 0.14083377 -0.17940411 -0.16803673 0.19960317 -0.29366094 0.32006505 0.38881978 0.46952224 -1.7459326 1.367471 1.225722
616 0.09851819 -0.12977032 0.36548993 -1.3915066 1.282365 0.8085595 0.4596616 -0.13425618 0.4184977 -0.32126874 1.5785027 0.3038906 1.4893119 0.47965083 -0.7008167 -1.1564617 0.61478484 0.97922003 1.4498525 -0.96781355 0.532921 -0.9457104 -0.5301628 -0.29537728 -1.3565645 0.67417777 -0.57962143 -1.7468628 0.034547236 0.4638898 0.44280383 0.733821 0.9238236 -0.48509002 0.08846143 -0.41983917 -0.32011962 1.1011606 -0.0050153793 -0.3058053 1.1683067 -0.06440829 0.7438249 0.25914332 -0.8921961 0.018622564 -1.1558472 -1.9536109 0.28157607 1.2726696 0.49036834 -0.29122132 -0.96842676 0.2297848 0.38758844 0.6349431 0.43704265 -0.8100674 -0.09695641 0.21715082 0.80174047 -0.063550636 -0.22208223 -0.042233158 -0.21251999 0.09880768 0.30850664 -0.09182007 0.4671194 0.55234647 -0.5892268 0.568202 -0.06718825 -0.11364043 0.19910729 -0.007265194 0.67554694 -1.5189074 0.78114635 -0.26992342 0.65594137 -0.5140901 0.29245332 -1.0622805 0.8401034 0.4192291 -0.72402894 2.124118 0.06403844 0.5492144 -0.27112907 1.362288 0.3720207 -0.57417256 -1.1992944 -1.4616061 -1.1190764 0.4575376 0.6681994 -0.0615708 0.90273124 -1.7124501 -0.70157826 1.1265439 -0.89001924 0.3163141 -1.0581961 0.6437051 -0.6753304 0.49152124 0.23273289 -0.6946457 -0.66759384 0.572174 1.1372043 0.34139282 -0.034352954 0.20062712 -1.4656832 0.41858014 -0.81265914 0.0072411494 -0.6224117 -0.8503495 1.5832124 -0.0194482 -0.11729302 0.10861704
253 -1.6661235 1.1014453 0.1049613 1.570234 0.106936105 0.4136603 -0.54394954 -1.5998993 -0.9673324 -0.048244014 1.2121502 2.1885223 1.266279 -0.22314835 0.20625322 0.78624326 -0.11575175 0.62202877 0.47096074 -1.2834005 0.5196556 -0.94561243 0.76807874 0.6661001 0.20014922 0.5492328 0.0156453 -0.7434753 0.28827298 -0.9702494 0.89378446 -0.61330336 -1.1811128 0.44060707 -1.3479282 1.6922752 -2.521734 1.1653863 -0.16550747 -0.57324904 0.17928661 0.77611506 -1.2157782 1.0052712 -0.32673013 -2.2313352 -1.3246158 -0.9264546 0.46270117 -0.1945979 -1.5038586 0.0048623383 -0.810197 1.1051064 1.0990795 -0.6301277 -0.6350422 0.8677578 -0.4866432 1.2872808 0.6072509 -0.43423164 -1.0517764 0.08581729 -0.11643325 0.8015558 2.0608149 -0.40990254 -0.14718194 -0.1442733 -2.067572 1.0269324 -2.5859854 -0.5869389 -1.7599151 0.741102 -1.175845 0.36374223 0.40689665 0.862865 -0.9812373 0.21124494 0.29899377 1.1384673 0.48676315 -0.6969623 -2.473769 -0.8225887 0.4010289 0.49381265 0.27833232 -1.0827872 0.06708622 -0.027826345 -0.4031581 1.0822687 2.029632 0.8683655 -2.1314034 0.014000799 1.5890912 0.36404923 0.39846587 1.1310428 1.8730497 0.7573638 -0.14537528 -0.7634888 0.7930478 1.2466663 -0.8657591 -1.0633996 -0.61449647 -1.9887583 -0.316855 1.099142 0.20084865 -1.691152 0.11590162 1.0633688 0.16550806 -0.74626446 -0.40503034 0.6527824 -1.6245522 -0.46466595 -2.1156924 -0.14009733
432 -1.0280948 0.09879404 0.024961576 -0.8378266 1.8254609 0.67509323 -0.7907506 0.8339393 -0.27919033 -0.9643195 -0.004955508 1.5450244 0.24244277 -0.3368236 -0.552247 -0.5114797 -0.6962742 1.8579559 -0.35612652 -0.8594824 2.227509 -0.031364884 0.55188286 -1.4772593 -1.3655549 0.22017112 -0.5914437 -1.5284388 -0.46759072 -1.297152 -0.5704827 1.0771087 0.13037935 0.58689386 -1.5669881 0.380279 0.27935907 -0.4845268 -0.027136374 -0.7626466 0.29223317 -0.11373054 0.11708506 -0.027414609 -0.620079 -0.55884963 -0.95698303 -0.9825868 0.94757295 1.3092135 0.022622624 -1.2252249 1.0223448 0.56491 0.8800549 1.9930464 1.4138875 -0.3668171 0.5161327 0.8858131 0.96002865 0.3738135 0.54113144 0.6308502 -0.9623282 0.99814796 1.3118511 0.22325951 -0.425662 0.91031605 0.41857642 -0.5002598 -1.0825636 0.21957791 -1.165933 0.5184107 -0.86797005 -0.97075254 1.4402667 1.4214649 1.1728699 1.7411323 -1.9598978 -0.27441522 1.4222555 -1.7102062 -0.962944 1.4715028 2.3022506 -0.2663563 -0.817758 1.4979538 0.94455516 -1.2377973 -1.1364778 0.22149141 -1.3010583 1.3397636 -0.46580538 0.5155404 1.2235516 0.015654437 -1.0060068 1.3557968 1.2834474 -0.66054714 -1.2354984 1.4527079 -1.9872656 1.1783407 -0.41957477 -0.23210824 -0.042598967 0.2654297 -0.039422784 0.3956992 0.6395761 1.2092843 0.4336316 -0.5208182 -0.13797684 1.084579 1.1161338 -0.39709285 2.3307009 -2.1457999 -0.84380263 1.5101902
128 0.27583966 -0.020701114 -0.39049393 -0.569538 0.6911371 2.4813643 0.51851374 0.9996904 0.2271702 -1.0181167 1.1720709 -0.50121194 0.89982146 -0.36804128 1.1974765 -0.10355136 0.55928403 -0.22883968 0.64912367 0.121985964 1.6475594 -0.4825462 0.20045185 -0.13731624 -0.7849052 0.8092215 0.15518826 -0.945199 0.4789922 -0.5612813 1.2360928 1.2358173 0.04295518 0.15156274 -0.9269918 -0.3970723 -0.9263809 0.35895345 -0.38210344 -0.35040912 -0.057497624 -1.6892043 0.2417374 0.38552746 -1.3488111 0.12143775 -1.3152509 -0.29075852 0.21960728 0.26856324 -0.6864715 -0.40592793 -0.32821336 -0.67430633 -1.1860491 -0.469085 -0.39688033 0.30204466 -0.50939775 0.066787235 0.01756382 -0.91127557 -0.4353377 0.012504428 0.4164326 0.7323067 0.38601232 0.6120694 -0.0018009705 0.7544896 0.51480407 1.3512096 -0.1461391 0.8290703 0.4134155 -0.40439516 -0.5098829 -0.34986192 0.327484 1.1665162 -0.8500397 -0.29197913 -0.4004378 -0.13171275 0.8119101 -0.8318199 0.11770365 0.79074067 -0.30195826 0.12444847 0.8704668 -0.10223763 -0.004481266 0.7633206 -0.84833384 1.2848293 -1.2850746 0.6641318 0.39295304 -0.24120145 0.31959406 -0.5442771 -0.44912142 0.5650344 -0.25540176 -1.0371403 -1.0688412 -0.30472514 -0.3535476 0.925891 -1.2349192 -1.4490829 -0.37731776 -0.08989885 2.078551 -0.45070428 -1.0645118 0.24671602 0.04682058 -1.1731446 -0.30914745 1.8467536 0.22316395 -0.4270918 0.026260491 -0.8288092 -0.37505534 -0.66520476
181 -0.3208518 0.074597605 0.2858013 -1.3491583 0.82117975 0.4760294 -1.3337194 0.24145666 0.2508826 2.1453862 0.98784316 0.49146718 2.6702387 0.845292 -0.7711291 -0.6993875 -0.18654527 0.49699354 0.5094016 -0.2684567 0.92809635 0.03324008 0.64578336 1.2252774 -0.5323 0.07463486 -0.23615237 -1.4980336 -0.23772055 0.033621576 0.5936244 -0.48233184 0.12457679 -0.9104758 -0.58564985 -0.12270862 -1.1411154 0.9636356 -0.18051662 -0.3789548 0.8159196 -1.1604985 0.609616 1.0120192 -0.65155584 1.0096952 -1.1905427 -0.95532584 -0.89577895 0.8980126 -1.2733033 0.98403436 0.22878733 0.44133398 1.9775357 -0.3326574 -0.58976984 -0.7323113 -0.7139639 0.46611804 -0.43700743 -0.5029203 -1.3475969 -0.14762874 -1.4429952 -1.6340997 -0.87412345 -0.27056563 0.69420004 -0.76786166 -0.75409174 -0.16482113 -1.6624783 0.26523095 -1.3868752 1.8432922 -1.0161432 -0.7265163 -0.30749133 -0.46184015 1.1084157 0.92993546 0.26918948 -0.17591304 -0.46694165 -0.17964199 0.8342945 2.404616 0.34517214 1.0877169 1.0477843 0.57697916 -0.93412906 1.5012493 0.53770494 -0.031439297 0.28160322 0.4679806 -0.90560466 -0.7010046 1.1679374 -1.9397455 -1.2204908 1.9024553 -1.7776779 0.81813544 0.14701116 0.6278569 -2.1900826 2.5536377 1.3620989 -0.4711789 0.4009831 1.3816001 0.54903555 -0.7151405 -0.7373145 -1.1193992 -0.17080623 1.0241414 -0.12144319 -0.5257438 -0.95905477 -0.6375753 0.8646356 0.045324754 -2.1672282 0.89851254
147 1.1563972 0.14598972 -1.0477527 -0.600469 -0.4939301 0.33227015 -0.009626219 -0.81218874 0.27457124 0.50663376 -0.5726824 -1.1441234 -0.988144 -0.9628424 1.189289 -1.4328204 -0.73977643 -1.4122186 0.09699095 0.204893 -1.1472526 -0.16931696 0.9172904 1.271765 1.14989 0.21926033 1.4602826 1.6045307 0.3596933 0.28755397 -0.9230845 0.33800715 -0.8726812 0.3271319 2.004408 -0.47154936 0.6949662 -0.5635371 -0.6674647 -0.62811935 -0.7474296 -0.8485601 -0.74626684 -0.33860356 0.34943715 0.45623654 0.7292834 1.8778116 -0.24574348 -0.41677964 -0.019029604 0.927609 -0.6938278 -1.3847637 -0.878736 -0.754021 -0.074959636 0.26650217 0.6899278 -0.73851293 -0.88695794 -0.18899444 -1.1822218 0.012632962 0.99529594 -0.22221583 -0.33572927 -0.046154536 0.36221322 -0.048173156 1.3613108 -0.21675895 0.61017853 0.11197288 -0.316917 -1.3330083 0.9317958 0.25357214 -2.5705287 -1.1352932 -0.7555321 -1.4932253 1.2160845 -0.2996038 -0.6208005 1.2815474 0.4264628 -1.2185274 -0.66185033 0.9428001 0.6126058 -1.0026534 -0.51035106 0.6990702 0.5831457 0.56415343 -0.24873325 0.055859584 1.5655535 -0.6033598 -0.88880587 0.40276036 0.6824012 -0.72376424 0.18058418 -1.3913391 1.1246699 -0.30555913 0.18048869 -1.1138375 -0.51652783 0.9681763 1.7710015 -1.0466088 1.1253079 -1.1775389 0.34092996 0.66804314 -0.12815934 -0.39642584 -0.05704363 0.19698396 0.944743 -0.35731795 -0.8898682 1.4782134 1.029695 0.4681224
195 1.033383 0.859004 1.1088257 -0.9604722 -0.1293859 0.8756496 -0.4975711 1.2037363 0.86275923 0.4970408 1.7337517 -0.66213304 0.9683086 0.6926006 0.5057861 0.21754356 0.60548633 -0.031917997 -0.43473276 0.7146749 1.5019511 -0.43441832 0.9104927 0.04619295 -0.5623891 1.2998073 -0.0070925453 -0.32921526 -1.162401 0.35847512 0.2387573 0.8626633 -0.46172634 -0.8492326 -0.19748256 -0.0077590053 -0.17508985 1.1499649 0.76601905 -0.27813098 0.3039938 -0.21807589 0.72204065 0.39355558 0.95845884 0.41534224 -1.2354953 -1.2367901 -0.14615169 0.5194918 -1.1537603 0.38704333 -1.2143465 0.24646632 -0.019501239 -0.30140138 0.78770685 -1.7622385 -1.1789705 0.4340991 -0.39760473 -0.15773988 0.009603927 -0.47320944 -0.96944594 -0.50840163 0.20215598 0.88637483 0.33738238 0.1825851 0.78221196 0.76032186 0.44867587 -0.23408517 0.18165593 0.048206687 0.62306285 -0.118581675 0.73286736 1.0196352 1.4239309 0.5103157 0.025339218 -1.4210542 0.36065012 0.73222685 -0.6648866 2.7438736 0.07009012 0.087636456 -0.3232411 -0.28200144 0.47323278 -0.27550045 -0.20857383 -0.36848032 -0.5150822 0.49947453 0.5816748 -0.05152642 0.96896833 -1.4960767 -1.962261 0.34890598 -0.3514315 0.23871459 -1.2881954 0.6401095 -0.87891597 0.86178887 0.4499992 0.22619751 0.7069108 -0.23875959 0.554008 -0.44796255 -0.4061787 0.26000887 0.6200742 0.30293754 -1.6008557 -0.072677776 -0.10633354 -0.19619665 0.006003915 0.07782447 -0.9459251 -0.1569611
584 -0.79921746 1.0151553 -0.1971612 -0.69364554 0.31553867 0.27645984 -0.25386035 0.18471596 -0.22827713 -1.0640786 1.9232751 0.22412106 0.77521807 0.027016513 -0.02842336 0.87624365 1.2699534 1.866678 0.30013078 -0.98328424 1.46052 -0.8637916 -0.09138812 -0.34501708 -1.9622592 0.7243726 0.78067756 -0.98633295 -0.4755938 0.39777714 1.0229859 0.75208586 -0.36479586 -1.0064505 -0.9152364 0.4497017 -2.125284 -0.06376815 -0.15120868 -0.3695069 1.0061613 0.305026 0.47660697 1.7265185 -0.2003259 1.0607541 -2.0980172 -0.77282614 1.4630603 -0.24652709 0.23885208 -1.1034675 -1.4543546 -0.43715325 0.6742241 0.599169 -0.2443915 -0.45857945 0.3793065 1.326296 -0.25392395 0.23755881 -0.592742 0.1901613 0.5301056 0.48685127 0.93547064 0.5109803 1.7988853 -0.60239214 -0.6694004 1.633942 0.25634155 -0.1592517 -0.79909945 -0.4650559 -0.07965404 -0.3693383 0.13117099 1.3510634 0.24963242 -0.3553201 -0.37512735 0.26993126 0.35721374 -0.22902262 -1.5113114 0.45020446 0.17740011 -0.11568897 -0.62721336 -0.51409847 0.35298416 -0.0657489 -0.20116912 0.49020967 1.3061475 -0.124390334 -0.4425387 -0.9416935 1.1593401 -0.32419693 -0.5658853 0.92517 0.4148936 -1.1534755 -1.0103943 -0.08483531 1.7742959 1.5596931 0.42502412 -1.1218047 1.0153863 0.69921476 1.1121788 -0.4317222 -1.8761125 -0.3394251 -0.872225 1.0842973 -1.3204865 0.0044342964 0.31318748 0.5978806 -0.6175113 -0.9536187 -0.52038157 0.28416368
215 0.50678694 -0.38289344 -0.9580987 -0.15539967 -0.75097924 -1.251296 0.08325791 -1.4451813 -0.18461086 -0.79560816 -0.69802725 -0.5546658 -2.6364975 -1.5176748 1.4719808 -0.43481985 -0.08007506 -0.85244054 -0.09975911 0.31526002 -1.7999808 -0.20268336 0.33571076 0.59829736 0.6307327 -0.17160448 1.041688 1.6652061 1.0757177 -0.2913191 -1.1073517 -0.38467848 -0.30998293 0.2119434 1.4869279 0.14711262 0.320015 -1.6290833 0.0783948 0.08775711 -0.80845875 0.19411258 -0.8411462 -0.15744999 1.3829811 -0.02189672 0.84371614 1.781079 0.8269347 -0.48730797 1.7148906 1.0579157 -0.80461806 -1.7751774 -1.3270893 -0.6648396 0.45465082 0.96267855 0.68786556 -0.85514116 -0.55472624 -0.39739585 -0.47149187 -0.00617516 0.9455979 0.05771338 -0.43311977 0.57921755 0.655085 -0.38646254 1.8914677 -1.0701982 1.0423789 -0.20519409 0.036822133 -1.8075191 1.8139465 1.0452487 -2.049141 -0.5548037 -0.92596793 -1.3108139 1.7792382 0.6152745 -0.73836887 1.6989838 -0.31897902 -2.4318202 -0.54289186 0.58591205 -1.055664 -0.7361472 0.011558943 -0.5062728 0.75778115 0.20564723 0.51623917 -0.37199408 1.7468727 0.29528698 -1.3247017 0.9613618 0.056231115 -1.1853586 0.29575944 -1.779326 1.8864725 0.8609786 0.55556256 -1.560084 -0.10412389 0.61968374 1.4370375 -1.4609116 0.75230706 -0.6263834 0.58642673 0.6375818 0.030915884 -1.0624998 1.0037378 0.09375112 1.1945004 0.7394432 -1.5152253 1.1588626 1.8405638 0.10994319
522 0.89752275 -0.5021547 0.45045048 -0.0512823 0.9658655 -0.50190914 -0.19101526 -1.1668742 -0.09759554 -0.48388824 0.56702864 -0.9919211 -0.7575138 -0.5299921 1.3983452 0.026111677 0.10220799 0.11474311 -0.12757276 -0.19379944 -1.6720958 0.2468367 -0.6994037 0.11220262 -0.54043204 0.3290495 0.9372534 -0.2507121 0.36903548 -0.73727846 -0.030513676 -0.95875305 -0.21589582 0.5132517 1.4038507 -0.4009895 -0.30910346 0.41193163 -0.9172556 -0.30792165 0.19194144 0.66772544 0.78985775 -1.5600551 0.8870461 0.5003054 0.7537951 0.55574465 0.9520057 0.20643209 0.98583907 0.41357476 -1.0100545 -1.8997486 0.48472673 -0.49105343 0.2456788 0.047909226 0.59307325 -0.56986016 -0.689321 0.8178941 0.32029578 -0.21413422 -0.4294369 1.3057344 -0.7038166 0.643328 0.41085315 -0.33716586 0.2015482 -1.6320806 0.4713395 0.49908558 0.589822 -1.4950264 1.1921207 1.001101 -0.9068282 -1.1745342 0.42671022 -0.6112273 0.42337054 0.29522395 -0.23191665 1.0374503 -0.4527912 0.5439093 -0.059873037 -0.17588812 -1.1882201 -1.1568948 0.8796577 -0.90249604 0.31681904 -1.0986665 0.052577622 0.248524 0.92533463 0.8711794 -0.24302156 0.6181478 -0.75560564 -0.3898397 0.7062325 -0.2829441 1.1584713 -0.003327065 -0.07944594 -0.35197702 0.46463826 1.086271 0.0034788412 -0.7992178 0.46149397 0.6686783 0.082530916 0.19512132 0.03400199 -0.18885174 0.4807704 -0.14589225 0.30859983 0.7181566 0.3220675 -1.964764 1.1362158 1.1770561
276 1.0637589 -0.4072744 0.35455498 -0.29543117 1.0923187 -0.1294263 0.33863443 -0.75773615 -0.065398045 -0.42737636 0.8012153 -1.1957822 -0.6215444 -0.45425752 1.2811127 -0.14353609 0.17998298 0.11355569 0.20767647 -0.41668215 -1.3202996 0.04160408 -0.8524413 0.14419621 -0.8483406 0.5874754 0.7889808 -0.47654808 0.20262147 -0.5940501 -0.037504766 -0.49373573 -0.08799061 0.3560928 1.1641926 -0.63218004 -0.30062577 0.6002482 -0.96931636 -0.30451387 0.50216097 0.29320857 0.9994093 -1.4085915 0.4198433 0.67818147 0.5742195 0.094327234 1.0436863 0.07688006 0.9636735 0.19637942 -1.0169609 -1.8261582 0.41718847 -0.22123338 0.35081303 -0.46704364 0.6908275 -0.44315612 -0.5805552 0.6255704 0.16358374 -0.04823595 -0.49214262 1.3089956 -0.649548 0.6360982 0.55391574 -0.10885817 0.09682255 -1.1074381 0.7451279 0.7050312 0.5621632 -1.6576055 1.2281806 0.5590844 -0.76942253 -0.88405675 0.7291453 -0.88053507 0.43017218 -0.12763542 -0.28681925 1.0661131 -0.5108817 1.1394193 -0.3948461 0.1040063 -1.0396429 -1.0781738 1.1087893 -0.88840425 0.2438131 -1.1522605 -0.33832505 0.33634654 0.99627244 0.5963922 -0.06982366 0.23938307 -0.7232319 -0.047780346 0.48924112 -0.43705958 0.70026064 0.08372131 0.122524515 -0.2145165 0.28153312 0.78245544 0.01976987 -0.6060503 0.7070176 0.59877026 -0.07549259 0.2455194 -0.21404892 -0.103643976 -0.04615755 -0.03416808 0.3471871 0.51298875 0.6859767 -1.8085687 1.1975982 0.9922773
254 -1.2358286 -0.82274765 -0.44304296 0.00800257 1.3285848 2.2571208 0.29698607 1.4810123 0.022224953 -0.8303143 1.718933 0.45178273 1.0842651 -0.07775491 0.8529653 0.12098335 1.3241854 0.88070285 0.66282535 0.5482159 0.4512835 -0.6973473 0.2383336 -0.522117 -0.5733672 -0.13760746 0.4283265 -1.0390772 0.3202423 -1.3184552 1.1868154 1.019407 0.012101073 0.58953285 -1.4046197 -0.056879412 -0.27700698 -0.26229537 -0.9603156 -0.21773204 0.27039585 -1.23601 0.018290449 0.5208946 -1.8066255 -0.5690842 -1.2236706 0.008616569 0.22404656 0.4359444 -0.3686854 -0.6159815 0.013738447 -0.39708483 -0.95676374 -0.31214428 -0.5821904 1.3870884 -0.40637973 0.039542694 0.5444902 -0.83482873 -0.21083212 -0.22740081 0.64326614 0.9881023 0.34936717 -0.14260526 -0.06264494 0.94148326 0.7144666 1.1265626 -0.14443606 1.6187694 0.9316126 0.2752888 -1.1552358 -0.9547001 0.74620646 1.1874468 -1.4392077 -0.44560856 -0.48115832 0.3547106 1.3477106 -1.1170723 -0.47543368 -0.09703495 -1.1443064 -0.6732475 0.9433752 0.18843807 -0.40651688 1.0735736 -0.79795676 1.1789027 -0.7617193 -0.11425841 0.37545073 0.2425318 -0.11252957 0.0576846 0.56877637 1.3062341 -0.6192732 0.040108766 -1.3338724 -0.5042115 -0.65394187 0.47706512 -1.7308047 -1.0431026 -1.4933561 0.7806088 1.379662 0.5405943 -0.44077095 -0.5588739 0.26891586 -1.3523499 -0.1598222 1.0242472 0.0425826 -1.3917972 0.65504783 -0.6028724 0.0005994281 -0.9431063
372 -0.21426873 0.42432743 -0.39042002 -0.04691378 0.6076883 0.2667477 1.2714883 0.5744648 0.22811301 -0.5352066 0.9492126 -0.122655 1.153252 0.22758135 -0.025687283 0.08278558 0.7831621 0.1421838 0.78202367 -0.9242709 -0.2671768 -1.0046343 -0.63534814 -0.28480187 -0.57462597 0.37402982 -0.7834641 -2.1667244 -1.0470996 0.51990235 -0.65059674 1.1827475 0.9343689 -1.4349725 0.17057799 0.00811028 0.0053184195 1.0271653 -0.9069351 -0.35862705 0.6077595 -0.82199454 0.41532835 -0.11543519 -1.406854 -0.3616176 -0.85720384 -1.5261859 0.85498387 -0.028630456 -0.1279055 -0.091718934 -0.694181 0.2647154 0.6293404 1.2050742 0.9329046 -1.3039107 0.4922855 0.84024644 0.8476525 -0.3453593 0.06309509 -0.025246788 -0.3058869 1.0702677 0.06468068 0.041674584 -0.034018267 1.2505648 -0.71281564 1.8000847 0.5713618 0.07992753 -0.12077977 0.42169684 0.3114666 -0.99520326 1.3704256 -0.29181498 1.5841868 -1.2854712 -0.32856414 -0.8018776 0.5085517 -0.05943393 -1.0915055 1.7986844 -0.6862403 0.4536669 -0.56874925 0.42893904 0.82993144 -0.99717426 -0.9014609 -1.2596313 -0.6351008 0.15372016 0.25624844 -0.49148995 1.2973175 -1.5238507 0.2236198 1.0791343 -0.16219164 0.35557768 -0.12439474 0.59273845 0.7230219 0.56457764 -0.214775 -1.3808486 -0.18836582 0.8328437 0.499473 -0.067235425 0.5398327 0.2200987 -1.0836568 0.7409392 -0.8901364 0.08022565 -0.76138383 -0.20392047 1.1106458 -0.53241205 0.26767156 -0.7847282
465 -0.24381343 0.20186652 -0.6921126 -0.08922693 0.8009672 1.8367028 -0.021291673 1.3281441 -0.12382441 0.27763972 1.5176476 -0.13020301 1.7700646 0.33899242 0.15447684 0.09845975 0.7808963 -0.029398054 0.48682076 0.18604007 0.42696518 -0.45616466 0.31755805 0.074245825 -0.17983729 0.08479316 0.28811598 -1.5654687 0.14118938 -0.7860951 0.64729065 0.46127194 -0.15804252 -0.14573033 -0.94804406 0.1084594 -0.24689965 0.42014435 -0.8664857 -0.17722581 0.12624326 -1.3349755 -0.27605575 0.43041462 -1.689288 -0.14078549 -1.0119644 -1.0214487 0.5415577 0.3325909 -1.1881683 -0.4213654 0.14566928 -0.029833093 -0.32934046 -0.08712574 -0.6150845 0.32016197 -0.2369449 0.384824 0.54307306 -0.7158237 -0.48851246 0.054784082 0.54056746 0.26151347 0.84830695 -0.37009865 -0.14866681 0.8610268 -0.04849771 1.052415 -0.48271483 0.79931766 0.2806794 0.37745512 -1.5600679 -1.027025 0.21921752 0.5724135 -0.13678603 -0.09308587 -0.74521255 -0.021718211 0.11883073 -0.8666659 -0.6175659 0.69010454 -0.8332667 0.5382109 0.93855464 0.32180348 -0.68464476 1.3548654 -1.0505792 1.0028821 -0.17229694 0.308839 -0.82739884 -0.334534 0.33566675 -0.33148667 0.83358186 1.4015871 -0.96054935 0.19997966 -0.84281695 -0.25883368 -0.4615893 1.0255717 -1.1838706 -0.72187 -0.9058256 0.20673884 0.93300635 -0.038385365 -0.2724299 -0.85256094 0.15776516 -0.07828807 -0.15820505 0.8759351 0.41948086 -1.031614 0.4629231 -0.107680835 -0.98759395 -0.75821775
245 -0.70637524 0.024358904 0.8552323 -0.60589087 0.31195438 0.18576673 1.1754347 0.12661326 -0.53363174 -0.5882518 0.6710669 0.518596 0.9108868 -0.24432224 -1.5226351 -0.47481278 -0.09784284 -1.0820146 2.794825 -0.72401446 0.466807 -0.9454306 -0.57429785 -0.0020918015 -1.0945978 0.2861077 -0.80592644 -0.97571707 -0.444746 -0.36869222 -0.31148398 1.4763564 1.2233675 -0.458217 -0.89386874 -0.74390227 -1.3566108 1.7542797 -0.5436067 -0.4808668 1.9161141 0.12864482 -0.27082178 1.1788778 -2.2008862 -1.8082356 -1.2823678 -1.241736 0.32365748 0.8511877 0.6367928 -0.21525148 -0.606505 0.5598868 1.0824639 1.1200999 -0.120271094 -0.67829084 0.002231293 0.36787122 1.822269 -0.51733744 -1.0421028 -0.3675475 -0.9114771 0.89435154 -0.33345854 -0.36652392 -1.3819534 0.58168983 -0.45351422 1.3453804 0.4919006 -0.6723692 0.55357677 1.2922006 1.1472672 -1.6929994 1.8456043 -1.154032 0.3947009 -0.7555755 0.55130124 -1.9838561 -0.4474481 0.61211747 -0.9842086 0.8755328 0.27754545 0.48126596 -0.8832148 2.023774 0.5210523 -0.6902804 -2.4609528 -1.5506872 -0.68253684 0.3288382 -0.6834819 0.3625323 0.23881756 -1.1850195 -0.8595119 3.18677 0.026202314 1.1884604 -0.5721399 0.37777486 0.57610315 0.00858382 0.35643858 0.45216766 -1.772161 -0.2079267 1.3393816 -0.339128 -0.43614933 -0.8436083 -0.58968925 -0.4232338 0.060678147 -1.2812504 -2.0908713 -0.5634362 -0.5807598 -0.7892758 1.6729721 -0.0043121385
352 -0.88058734 -1.1624057 0.44274268 -0.6997476 0.97949564 -0.34930092 -1.3424214 -0.4652514 0.8933271 0.7056531 1.9129359 1.2275484 2.5271614 1.1745907 -1.1094465 -0.24988718 0.8015071 2.146004 0.8698533 -0.34719718 0.41879532 -0.2523867 -0.5053485 -0.4116833 -2.2446666 -0.1805693 -1.2370481 -2.3600657 0.81486136 -0.52317137 1.019571 -1.0252045 0.06831253 -0.908007 -1.0774708 -0.19397743 -0.5547309 0.8976508 0.30859327 -0.67658937 1.1483133 0.36849716 1.3984789 0.9698065 -0.029039606 0.8420768 -0.8435775 -1.0585241 -0.014587852 2.0023432 -0.47752795 -0.010170906 -0.030519964 0.7811941 1.8166518 0.23511223 0.05574635 0.8215437 -1.5813296 0.5842888 -0.33584478 0.19223468 -0.44017032 0.012709477 -0.61923337 -0.20764698 0.21613467 -0.5474154 1.5225111 -0.49968117 -1.0958489 -0.4378102 -0.2773337 0.5714527 -0.15750027 1.1231849 -1.0531749 -0.67750895 0.47937605 -0.2950374 0.9551141 0.53756654 1.036093 -0.2887357 1.2006798 -0.577594 -0.22818972 2.470262 0.65840083 0.33517346 -0.8092736 0.88705677 -0.7887019 -0.76128244 -0.4325015 -2.0722828 -0.10486038 -0.23015562 -0.09299109 0.6206803 1.0063393 -1.3742101 -1.2742993 0.77086514 -0.7654065 1.4732772 0.2919283 0.39092606 -1.7956467 1.9768225 1.1795789 -0.46492144 0.30028397 1.3264208 0.3873572 0.8358459 -0.3774869 -1.2762386 -1.1784489 0.74902356 0.5267885 -0.8981784 -0.47480652 -1.4165903 1.4613916 -0.8079863 -1.2314723 0.6452505
404 0.6227232 -0.5234585 -0.0819835 -1.2598962 -0.38757855 2.1146526 0.71448886 0.5256223 -0.13616663 -1.6252369 -1.1650628 -0.1930918 0.14622268 -1.5743892 0.8291119 0.6713298 -1.2693264 -0.60850966 0.35621423 -0.04302149 3.3877337 0.17184478 -0.07692628 -0.82509047 -0.52626395 0.76174897 -0.20341636 -0.8313188 0.0661595 -0.5589016 0.29062173 1.2784945 -0.018851457 -0.42146954 -1.4773252 -0.3355115 -0.90849024 0.13548395 0.19863315 -0.27525198 -0.3320318 -1.6230369 -0.096526854 0.39966035 -1.2200007 -0.086889945 -1.023274 -0.06474914 1.0961739 0.72830087 -0.9455936 0.7007157 -0.33966944 -0.32496467 -1.0010959 -0.12284433 0.3871887 -0.44434944 -0.015072128 -0.45820233 -0.14283444 -1.5350943 -0.0498816 0.03223567 0.050326794 1.0084176 0.72277725 2.0092094 -1.4954668 0.54619807 0.8993738 0.81254476 -0.6234578 -0.19938724 -0.13962321 -0.80244344 -0.3091528 0.8308176 0.5316942 1.1327208 -0.22512183 0.2954864 -1.0192538 -0.5795963 1.0905591 -1.643141 0.49654874 1.3744372 2.1254094 -0.1295822 0.3626775 0.9379935 0.3240424 -0.17943689 -0.9365553 2.1263025 -2.086624 0.9590464 -0.07616784 0.01378459 0.39931044 -1.2542715 -1.4817177 0.19760467 1.3113248 -1.4998773 -1.084204 1.3124958 -0.11166184 1.3974895 -0.42573723 -1.3660487 0.38706812 -0.87804055 1.602532 -0.7112317 -1.3747908 1.5341482 0.5688011 -1.5560759 0.69374764 2.5271096 0.025560731 0.051139224 -0.4244214 -1.6314981 -0.44051328 -0.737487
179 0.043809436 -0.27358997 -0.3225958 0.1418041 0.21357599 0.7439082 0.6950433 0.6979339 -0.45146188 0.5176596 -1.8976804 -1.4405959 -1.8070238 -0.8952178 0.05791007 -0.2547805 -0.303375 -1.3609968 -0.24104865 0.85537493 -0.65111244 1.1793551 0.06493942 0.54193354 1.929713 -0.5867004 0.36967534 1.7707788 0.08291527 0.2782959 -1.5304891 -0.07614038 0.09435959 1.3137068 1.4098966 -0.2962416 1.3655695 -1.4582527 -1.476842 0.9138798 -0.96829903 -0.6509073 -1.6005355 -1.0012633 -0.22954248 0.06934211 1.5880345 1.7309692 0.7436285 0.021623667 0.107675746 0.74021244 0.3238392 -0.541654 0.031782802 -0.38173994 0.26182413 0.2782299 1.41246 -1.5546347 0.4526851 0.075983815 -0.23838039 -0.061690614 1.0916475 -0.14579095 0.039164167 -1.1577058 -1.7185858 0.3762092 0.78606564 -0.10543865 0.1216531 0.28523445 0.25147337 -1.4371768 -0.35381562 0.94449335 -1.1334699 0.02628609 -0.57557756 -0.46118805 -0.29665685 -0.61658174 -1.0306951 -0.1496213 0.62890035 -0.77082664 -1.4033926 0.827198 1.435495 0.04374325 -0.6827126 1.1686515 -0.17124492 1.7909186 -0.2965828 -0.6332106 0.2618669 -0.44802767 -1.8318431 0.53973067 1.4102706 -0.52897996 -0.06665492 -0.72415954 0.74749655 0.32738027 0.5882667 -1.246573 -0.82803106 0.97506386 -0.30922285 -0.28280774 -0.5608502 0.26007575 -0.5915261 1.2411754 0.7750822 -0.12265135 0.28532657 0.3679916 0.9906337 -0.3468377 -0.05136271 0.86076546 0.55878764 0.03542087
78 0.42540792 -0.39926827 -0.6893459 0.247858 -0.15269093 -1.0916871 -0.43929547 -0.6208327 -1.2044331 -0.90060955 0.2709435 -0.06991299 -1.3630126 0.19987087 1.1923794 -0.003719635 0.71326894 -0.42272988 -1.0477628 0.29898128 -1.3387879 0.3728846 -0.5448621 -1.1957624 0.35626873 -1.65166 -0.994225 -1.3508099 0.794969 -0.053905997 -0.58211917 -0.086067334 0.66693145 0.3942112 0.940957 0.54071355 0.05724489 -0.92177474 0.38721046 0.2520662 -1.5612824 0.49818262 -0.51212966 0.49475357 0.516211 0.93799627 -0.19996923 0.33452034 1.0029567 -0.17908946 1.011249 0.7826005 -0.27181837 -1.1815989 -1.3297887 -0.37233874 1.2025889 1.2159631 0.016729057 0.5820842 0.58801097 -0.44014898 0.22620055 0.46333733 -0.61665803 0.5074785 0.043102056 -0.1029157 0.31408134 -0.39581344 1.1828285 -0.3388944 1.5386306 -1.3859093 0.7372135 -0.5591686 0.6183609 -0.13077976 -0.09718206 0.5216314 0.918665 -0.9477277 0.8256866 1.0237343 0.54620254 0.6609824 -1.373114 -0.26757857 0.18732543 -0.1419382 -1.3083546 0.49580187 -0.009401885 -0.536399 -0.08936958 -0.11777857 -0.16892496 -0.56919855 1.6536914 0.053872116 -0.0696459 0.80162525 -1.0600119 -0.0976444 -0.6817054 -0.29058525 1.8932981 1.4634876 -0.9472775 -0.37050655 0.16732405 0.2275392 0.21244462 -0.030131001 0.34978697 -1.2389487 0.5970383 0.7787867 1.170613 -0.29839906 1.3024476 0.5910033 -0.4921607 0.71705085 -1.5737057 0.46797723 0.83455974 -0.03553521
299 -1.6799089 -0.62777084 1.1890763 1.0000197 0.29044536 -0.8750771 -1.4575722 0.011648109 -0.51786196 -0.4208595 1.630347 0.19257203 0.02006338 0.92141974 0.09399288 2.646968 2.2262168 1.1143149 -1.362009 1.0422684 0.19849822 -0.5931603 -1.03207 -1.9720322 -0.04853367 -0.49411842 -1.1122403 -1.348918 -0.52007496 -1.1414015 0.26798835 -0.42091802 -0.12411083 -0.011112305 -1.291943 0.659624 -0.36229756 0.011328449 0.35067433 0.089082874 0.6018675 1.56163 0.5744047 0.5555684 0.3729656 -0.9861046 -1.2272426 -1.9204792 1.5104486 1.0058426 0.43696815 0.045387648 -0.5035092 0.9207558 0.6097834 0.028927332 1.3021039 -0.027221702 -1.3268749 -0.27037418 0.5518925 0.66002727 1.8893844 0.11006823 -1.296966 0.87228066 0.26904142 0.5052696 -0.88624156 -0.3994104 -0.37843207 -1.0587096 0.26646322 -0.4890863 0.9975506 0.094789214 -0.4261836 0.89520854 1.560217 0.8418037 0.71317106 0.84738314 -0.8127228 0.26210946 0.7820353 -0.30402973 -2.088307 1.4039205 0.16893493 -1.2563158 -1.7879496 -0.008493961 0.41719642 -1.853799 -1.4328649 -0.4534743 0.4663681 0.109369665 -0.73315156 0.58135897 0.37926775 -0.026606223 -1.2244235 0.640936 0.49511436 2.0848489 0.5467714 1.5844033 -0.8891167 0.49369863 0.22887751 0.6663356 -1.7235119 0.1614644 -0.8736715 1.2564046 -0.30370852 -1.2607716 1.1729496 0.486343 0.87306124 -0.174 -0.5466566 0.29543188 -0.3899492 -1.9467703 -0.4311119 0.37654698
570 -0.81339526 -0.6060792 -0.5545786 -0.0155619 1.1525277 1.9849943 0.20019989 1.1693853 0.41149613 -0.39580432 1.9074578 -0.0152942175 1.4679686 -0.07009662 0.6236106 -0.2057307 0.8709978 0.59854615 0.43529508 0.4556968 0.3767275 -0.5782309 0.38478985 -0.029647961 -0.5406889 -0.11644592 0.32735938 -0.8761002 0.7629408 -1.2570062 1.0725771 0.8349492 -0.22503485 0.34721464 -1.2957923 -0.26498708 -0.36373627 0.57793176 -0.6053134 -0.46431702 0.035287242 -1.0757492 -0.09550172 0.20662193 -1.3939059 -1.0794387 -1.1810448 -0.2548801 0.135705 0.17251179 -0.56623304 -0.56063086 -0.0023857022 -0.13211946 -0.86432445 -0.11320027 -0.9301358 0.70969015 -0.16243139 0.05312563 0.08367841 -0.50748616 -0.78681374 -0.266798 0.26748708 1.0252035 0.7244444 -0.5939939 -0.26738966 0.9074001 0.311217 1.0200781 -0.13085417 1.2295787 0.6322467 0.5615515 -1.0563458 -1.1872524 0.3359267 0.99879795 -0.78334355 -0.41315615 -0.387799 0.24096109 0.62778443 -1.0929517 -0.42446896 0.24187656 -1.1269177 -0.40100628 0.7729577 -0.036717545 -0.18389718 1.234793 -0.8267785 0.8416292 -0.44204226 0.31316006 0.01602119 0.3753828 0.26522893 0.39248145 0.86182404 0.97761697 -0.43244135 0.09462795 -1.2680577 -0.9196808 -0.47712228 0.6510756 -1.7294309 -0.33337158 -1.3436592 0.7665212 1.2818896 0.19368154 -0.31257954 -0.6096892 0.08429811 -1.3127606 -0.7119902 0.7822079 -0.29823777 -1.4867635 0.19703907 -0.3977717 -0.49178356 -0.7630551
387 -0.6160836 -0.64701545 0.9224285 0.70165044 0.82263434 -0.8102954 -1.7616882 -1.525638 -0.16413009 1.39088 -0.2125021 -0.3864249 0.7405556 -0.66625667 0.12228931 0.097384386 -0.29954016 0.17742275 -0.66340566 0.27117833 -0.033998463 0.85007524 0.005128614 0.20413294 0.3740788 -1.0557934 -0.29358217 0.0011006253 1.4891768 -0.16284175 -0.37234548 -1.6891229 -0.23348828 1.0454894 0.7220388 0.31208524 0.38783464 -0.6479679 -0.86474967 0.27813447 -0.42187193 0.9716271 -0.94834095 -0.06575146 1.4493741 0.1490252 0.6015194 0.36506486 0.82073057 1.0312314 -0.75115424 1.4313701 -0.44328234 0.2763445 1.067845 -0.5929931 -0.07014757 0.732208 -0.29972664 -0.7987629 -0.354097 1.0206808 0.13361563 -0.18027857 -0.5660692 -0.44396743 0.48671305 -1.2713445 -0.8038291 -0.78365034 -0.5210596 -1.0913093 -1.1150157 -0.4972054 -0.33288607 -0.6031943 -0.3595252 2.0647833 -0.74328554 -0.9160535 -0.030957425 0.16703826 1.189538 0.34506863 -0.16548926 -0.8488443 -0.00950333 0.48862708 0.39023468 0.685228 0.044122476 -0.4145604 -1.0946622 0.12468023 0.70349747 0.47755283 0.47896492 -0.08426539 0.30193338 0.19664283 -0.17387454 0.5643857 0.33363497 -0.9166261 0.0018148727 0.99263847 1.6568444 -0.14978927 -1.3519416 0.07136348 0.70975876 1.0438768 -0.12889807 0.0026809415 -0.7863783 0.30427107 -0.30184522 -0.7585119 0.57896155 1.034581 1.2805877 -0.8824489 0.22485058 0.6051226 -0.5890091 -0.33749974 -0.9191223 0.45119002
516 -0.66692144 -0.2275834 -1.0579512 0.21896891 -0.5508345 -2.3544903 -1.4213647 -1.3648424 0.16875634 -0.16235842 0.3220879 0.1276937 -0.3161079 -0.84944797 0.6326548 0.22751014 0.83711237 0.057800833 -0.040224522 0.21356511 -2.7983112 -0.5432364 0.38569945 0.20956355 0.64204973 -0.6444894 -0.23088057 0.6756544 0.27712578 -0.55206513 -0.23957445 -1.4246367 -0.4471921 0.06487657 0.89166725 0.6164748 0.5058672 -0.7465518 0.9899511 -0.5375886 -0.34208402 1.4966424 -0.41271356 -0.13297391 0.9328513 -0.13977416 -0.45514482 0.82360727 -0.062691934 0.2817597 0.72546303 0.70732677 -0.1587857 -0.13507645 0.3391811 -1.227651 -0.11383808 0.20183459 -0.16107689 -0.3970647 -0.086252324 0.17776313 0.014524068 -0.6977263 0.34739652 -1.2433512 -0.09022755 -0.4617302 1.0311245 -0.4588315 0.4196288 -0.93192405 -0.19081096 -0.26130196 -0.45750454 -0.14193027 0.81538117 1.0955462 -1.0416719 -1.3390108 -0.82093656 -0.4447509 1.2849798 1.0271931 -1.1355766 0.96938217 -0.30184844 -2.1879544 -0.40125713 0.2249588 -1.3474171 -0.6900259 -1.0359899 -0.082380384 0.4353098 -0.8313679 1.3587774 -0.65920603 0.6777661 0.24711198 -0.3093933 0.11833654 0.6878008 -0.9163958 0.14109789 -0.050628543 2.4850585 0.35247338 -0.20346381 -0.26446792 0.6435328 0.97182995 0.98206097 -0.95359486 -0.09755223 0.04891646 1.3789098 -0.81481016 -0.2896887 0.003658743 0.878751 -0.8580894 0.2772141 0.65651405 -1.5083697 0.14733799 0.9662357 0.6619462
227 1.6154859 0.35541114 1.7170237 0.40363276 0.06508835 1.561703 -0.69630176 0.8073504 -0.27743587 0.37122193 1.9144167 -1.73728 0.82558393 1.8771871 0.64010483 1.4097838 1.3184454 -2.4558108 -1.5325648 1.9724818 2.0627127 0.67122126 0.09264283 -0.74953574 1.4259094 0.04109898 -0.63615423 -1.4283932 -0.67797774 0.16310817 0.43388885 0.5885041 -0.34505406 -0.95552546 0.040817045 -0.012106407 -0.03136466 1.1094798 0.13207428 -0.21527185 -0.091637604 -0.09595211 -0.10254061 0.7136767 -0.38167015 0.48067388 -0.421875 -2.8087184 0.839638 0.37074623 -2.3213017 0.63904965 -0.66189706 -0.46613765 -0.81889105 -0.06660212 1.6291637 -1.8498193 -1.9139515 0.28303784 0.17931534 -0.30032393 1.7647376 0.08736076 -2.1137762 -0.38224474 0.72233444 1.2016299 -1.2464651 0.7037465 0.7802735 0.48406094 0.908034 -1.2042279 1.8772045 -0.26480693 -0.43637535 1.2995896 1.7326273 0.6560854 2.101042 1.0763226 -0.88501257 -0.9577074 0.44229612 -0.19219744 -0.2485921 3.6619866 0.93566436 -0.3183457 0.54604155 -0.13234392 0.21055973 -0.8380677 -1.4256476 0.43373206 -0.3018257 0.55074126 0.24945126 -0.45918104 0.5884182 -1.0089079 -2.8394933 0.24356294 -1.9716669 1.5542985 0.041459683 1.6014031 -1.69531 -0.100674756 0.53638506 0.121618316 -0.01254777 -0.14124443 -0.13387698 -0.98067945 -0.69215626 0.1397741 1.873942 0.16877298 0.8572139 1.1186969 0.03272777 0.54680926 -0.30206525 -0.550459 -0.40531412 -0.8506771
224 -0.54320693 -0.27487385 0.48358136 -1.0793796 1.0519857 -0.5035009 -2.4837646 -1.189736 0.5284438 1.8759528 1.8525606 0.6253516 2.2274938 0.54934835 0.0012848069 -0.74489355 -0.012332245 1.0657886 -0.80465037 -0.44231442 0.50445986 -0.40885037 0.72379166 1.0513264 -0.71868587 -0.20319654 -0.16607414 -0.7392018 0.19910824 -0.24059145 0.7471435 -0.4743965 -0.29476684 -0.70440716 -0.10180485 -0.05728585 -0.682006 0.82565886 0.50800633 -1.6364057 0.52322036 0.0057068854 0.8252902 1.0649822 0.7657324 0.97098434 -1.9694531 -0.14572224 -0.7823934 0.23725447 -0.482115 1.0646605 -0.49033913 0.0748435 1.3279595 -0.78040045 -0.33134848 -0.49327874 -0.96528035 0.6579657 -1.5517626 0.48747438 -1.4917829 -0.29786965 -2.2261214 -1.1244712 -0.7257576 -0.20016626 1.6249775 -1.2393347 -0.2166135 -0.8364832 -1.0406765 -0.3396171 -1.5484264 1.3735335 -0.09579981 -0.5020626 -0.7649164 -0.24594814 0.91347307 0.48298496 1.4686702 1.0397944 0.2783651 0.35954317 0.48458734 1.5152144 0.4954673 -0.15168242 0.23228468 -0.2871759 -0.08892033 0.40697497 1.1758858 -1.4716252 0.69592565 0.76792645 0.66431206 -0.37360445 1.7740169 -0.97407454 -1.6571823 1.011219 -1.3254534 1.0809759 0.53490233 0.0016473662 -2.7326133 1.9478912 1.413129 0.061940677 1.1943254 1.5804938 0.3675787 -0.8394737 0.042070266 -0.62958115 -0.43514633 0.7320415 -0.31051835 -1.0618306 -1.2571092 -0.47327766 -0.11519027 -0.3197431 -1.5364643 1.4085951
