620 128
265 -0.07254058 -1.7830067 0.22903337 0.4833318 -0.15833227 -1.1495486 0.5807747 -0.77529806 -0.9683793 -1.0090173 -1.1216563 -0.08732192 -0.4362581 1.3817487 -0.1771306 -0.090873666 -0.9254495 -1.1321496 -1.0561656 -0.33475962 -0.8010222 -1.9492494 -0.43542063 -1.4636812 -0.7781826 -1.6735228 0.8601643 -0.23960887 0.002688112 2.2220504 -0.6309948 0.13043037 0.26073146 -0.51320004 -1.4025929 0.9262714 -0.42398837 0.6459695 -0.5419858 -0.25933346 -0.66518104 1.1667758 1.9331839 1.1197375 -0.5251997 0.21497954 -0.28382736 0.17377706 0.057671256 -1.3271248 -1.6428704 -0.66469806 1.2986941 0.4017482 -0.8016526 0.08540254 0.80847895 0.45994374 -1.0986321 -0.3805014 -0.25962102 -0.50981236 1.7932411 0.46568322 0.25762457 1.784815 0.87179685 0.23015042 0.7396884 -0.5133103 0.386483 -0.1570841 0.7170847 -1.8248693 -0.08420175 1.2967322 -0.1717375 0.4210474 0.51070213 -0.5853802 0.4354153 -0.28930137 0.019811751 -0.669442 -0.7497345 -0.8197047 0.4618521 -0.8682181 -0.010288548 -0.42243367 -1.0520799 0.77554077 0.29339507 0.873133 0.7569312 0.19682059 0.13314767 -0.5349547 0.08763034 0.43773067 -0.5706519 0.49817532 -1.4552792 1.5103104 0.26935717 0.8471852 -1.8663868 0.9566846 0.7511483 -1.5540936 0.80072236 0.71685636 1.1789448 1.3270653 -2.148925 -0.7552849 0.69614255 2.2205172 -0.3679404 0.96814036 0.47377175 0.002047664 0.7393787 -0.053281195 -0.09503612 0.9258207 0.5443219 1.1659257
518 0.62271947 2.4047408 -1.069202 1.2134627 1.0276816 1.0123707 -1.2768378 1.1734339 1.7777212 0.46567768 0.35351893 1.000971 -0.5911525 -1.984109 0.5569392 1.818227 1.6957858 0.3424171 -0.31565687 0.35501286 0.19193777 0.20497774 0.44331276 1.3980461 -0.5703622 3.1621518 -2.5508592 -0.58575547 0.10066018 -1.6354955 0.13691668 0.44449657 0.31331104 1.0803696 0.12676862 0.61021227 -0.66256243 1.0871629 -0.5063332 0.74642706 0.25300252 0.814898 -1.2241288 -0.044627503 2.081777 0.104164034 1.0050421 0.42529964 0.42868933 0.28162953 -0.5544694 0.4929429 -1.2913235 0.57017374 0.62585807 -0.8599686 -0.38097113 -1.2298093 -0.11595064 0.57798415 0.96136665 -0.9172982 -1.2926131 -0.523583 -1.1174643 0.17337021 -0.22521365 -1.1050595 -1.5082287 1.5000674 0.06564955 1.1503279 -0.14479668 1.1466919 -0.8152534 -1.7596318 0.43655983 0.4922707 1.0926449 0.2280021 0.84619987 0.4481741 -0.3993963 0.6262542 0.33625144 0.74926543 -2.4892669 -0.31234673 0.15054667 0.21610163 2.0684695 -1.3966162 -0.5369608 0.5080269 -1.2884941 0.2259805 -0.22111925 -0.049178794 0.78641427 2.327488 -0.5689436 0.062014475 1.0544116 -0.29563466 0.7630465 -0.2345042 -0.44778037 0.18785907 -0.116761215 0.40701795 -1.5673245 -0.20162657 -0.039763797 0.2568884 0.62364364 -0.80475247 -1.034909 -0.24065329 1.4464272 0.78394604 0.36305958 -0.08456455 -0.5518858 1.5224749 0.18991941 -0.8292288 0.44246235 -1.1405811
67 0.1295254 -1.273455 0.1094143 -0.6506306 -1.4827664 -0.939086 -0.6362315 -1.7598273 -0.76194406 -0.6374997 0.18542263 -0.69428647 -0.52735245 0.47438654 0.9450977 -0.42012304 -0.45306882 -0.3864116 -0.5116379 -0.30019072 -0.6393175 -0.984721 0.85161316 -1.428355 1.4741999 -1.1228093 0.6320886 0.20927131 0.27745453 0.5772925 -1.1743377 -1.263772 0.87986785 -1.4430472 -0.9361289 -0.87993973 -0.09966619 0.012764147 0.35582882 -0.3652748 0.72741735 -0.1645949 2.1302886 0.3597021 -0.2538456 -0.03298506 -1.05037 -0.49942043 0.28545797 -0.15419304 0.5184128 0.08054057 -0.16131671 -0.57812816 -0.6089248 0.08181288 0.12657346 -0.5009748 -0.62415826 -0.11119741 -0.2085438 -0.70865965 0.55846775 0.92861843 0.79451245 1.2725978 0.49165016 0.2740799 1.4807279 -0.7300511 -0.08563061 -0.61655086 0.7410041 -1.0465167 0.25115508 0.7689046 0.13029109 -0.1273709 -0.2853138 -1.3839835 0.36473107 0.14241724 0.8574687 -0.29327205 0.39666978 -1.3847106 1.1357994 -0.9467814 0.6943494 0.364496 0.3308618 0.8125406 0.8049165 -1.0036196 1.4272076 -0.13354422 -0.29538932 0.15523858 0.4717473 0.22383685 0.62378156 0.7032786 -0.5304004 0.696514 -0.12617283 -0.37316748 0.317814 1.0997443 1.2656671 -1.5874114 -0.39646024 1.2636675 0.22775538 0.06763857 -1.4165157 -0.96773314 -0.10547955 0.7154601 -0.566538 0.55107456 0.4739166 0.05610737 -0.9767526 -0.28595847 0.6396418 -0.32061368 0.57052153 0.6945892
340 -0.30609286 -1.4445562 0.3494042 -0.4102384 -1.0485783 -0.3713479 -0.1858871 -1.5795751 -0.038298264 -0.62111026 0.34629056 -0.9339043 -0.9042635 0.9547004 0.31927854 0.06968076 -0.7718407 -0.14663441 -0.09070896 -0.5876086 -1.1198885 -0.83296597 1.0752993 -1.7093197 0.94623977 -1.537895 0.72522044 -0.14365238 0.2507389 0.74044585 -0.9307301 -0.90547353 0.5115811 -1.6591896 -0.7649337 -0.06814468 -0.73242134 0.5073221 0.50362307 -0.8700939 -0.100489564 -0.40209666 2.0182881 0.47167653 -0.2662765 -0.6379884 -1.381205 -0.2703628 0.36509845 0.007722634 0.72456896 0.25755844 -0.33149412 -0.2314578 -0.9612732 0.43397072 -0.3340918 -0.39763716 -0.80484957 -0.3826492 -0.44995156 -0.8061165 0.6161466 0.65858686 0.8208815 0.7651967 0.806734 0.5694215 0.8866075 -0.63334495 -0.4860149 -0.77054936 0.88459295 -0.8737042 0.4543737 0.77238256 0.3650264 -0.2380245 -0.0545392 -1.0982513 0.2946311 0.086403385 1.0915717 0.18381931 -0.32824183 -1.025649 1.3832712 -1.0778044 0.36306995 -0.635173 0.35731536 0.7599916 0.8883303 -1.0138301 1.0427458 -0.26554206 -0.6756008 0.23363869 0.21085958 -0.23797485 0.21930316 0.6224798 -0.46708804 0.8764436 -0.4549142 0.40344477 -0.4380904 0.7450323 0.7539413 -0.63855034 0.08870824 1.0437014 0.26005453 0.1075023 -1.2977952 -0.89776427 -0.5818119 1.2622077 -0.60461813 0.5949229 0.18866435 -0.87182856 -0.44093353 -0.52321714 0.16266173 -0.18582097 -0.0028680007 0.6330681
611 -0.56056994 -0.8643693 -0.019344773 0.38606492 -0.1045326 -0.61009175 0.2935582 -0.7690521 0.3141974 -0.98377 -0.7924814 -0.26842135 -1.8540406 1.3449584 0.20744687 0.31258604 -0.1566301 -0.60633796 -1.0653273 -0.9580311 -0.889917 -2.2401772 0.015582182 -0.9981039 0.27974057 -0.38513106 -0.21242727 -0.15206766 -0.40670818 1.262782 -0.59227574 -0.17479876 -0.5597811 -0.72284627 -1.0532113 0.67063755 -1.356477 0.7642283 0.19394246 -0.8701129 -0.35338494 0.3554155 2.234855 0.83293325 0.2699654 -0.6857589 -0.5889189 0.33085322 0.7980971 -0.47793046 -0.61881083 -0.34573817 0.17937446 0.12977506 -0.6622565 0.3212904 0.13115188 -0.9139382 -0.6309851 -0.52428687 -0.11325992 -0.8142503 0.73415107 -0.59117115 0.054868918 1.4017335 0.75036496 0.37242442 0.41207126 -1.0656734 0.8329524 0.103143446 1.5160016 -1.0148598 -0.41006786 0.50431615 -0.20425159 0.3841061 -0.10422966 -0.9409653 -0.014067427 -0.38352284 0.5508801 -1.0634155 -0.5253858 -1.072471 0.641625 -0.83063376 -0.91941816 -0.8865891 -0.6057272 1.214219 0.30484506 0.71032983 1.1689332 0.094793595 0.46401912 -0.13856599 -0.086603634 0.7051699 -0.9669084 0.7352537 -1.0168855 1.0229131 0.67877173 0.16427538 -2.3305771 0.41463357 0.4973345 -0.39787847 0.6950487 1.2704604 0.060378503 0.61366296 -1.4979831 -1.3048532 0.5899741 2.4869452 -0.61919725 0.73993564 -0.22161001 -0.34887227 0.13273376 -0.4127077 0.35688975 0.6970042 0.31076592 0.7604042
70 -0.3069966 -1.4027153 1.0512134 -0.58709884 -1.9295036 -0.8691137 -0.4635065 -2.2873528 -0.5072223 -1.125646 0.49517575 -1.1905408 -0.9891679 1.4926851 0.7521934 -0.2281771 -0.35224432 -0.2543523 -0.22186902 -0.9898252 -0.51253575 -0.6273463 -0.14094472 -1.4086033 1.0470587 -1.2006416 1.5707808 0.8642735 0.5952229 0.92968976 -0.002976118 -0.65305513 0.6815941 -0.60040826 -0.8350313 -0.04706837 -0.30030173 -0.016736582 -0.6524708 -0.41297108 0.043839302 -0.32707664 1.949329 -0.15878493 0.0047154734 -0.55036294 -1.0253489 -0.7051484 0.12915644 0.5790885 0.031018566 0.67434806 0.24113892 -0.69282925 -0.60281205 0.009122534 0.42605266 -0.4420044 0.3259598 -0.003910999 -0.4115294 -0.9480554 0.5243319 0.74684244 0.874362 1.0881606 0.82728225 0.7880884 1.0488482 0.016052611 0.11349022 -0.5058205 1.0011657 -0.80103385 0.8009021 0.9563774 -1.05422 -0.6652914 -1.0678875 -0.74973136 0.2942215 0.19889772 0.6495372 -0.9990637 -0.35461664 -0.95390904 1.1430933 -0.23415673 -0.2530608 -0.12323964 -0.49648836 1.0633253 0.16573006 -0.53084844 0.3289141 -0.92777747 1.3899193 0.33509746 1.3536773 -0.564685 0.5507691 1.4587262 -0.9845241 0.61576843 0.028576592 -0.7255061 0.5005472 0.41032395 1.0036206 -0.7610881 0.16354452 1.0454946 0.28208467 -1.0121436 -0.88790315 -1.0407064 0.102319375 0.93801975 -0.2586718 0.88114566 -0.11572812 -0.29893696 -0.80923146 -0.8183859 0.60328984 0.41813785 1.1263347 1.2042127
90 -1.0850127 -1.008202 -0.19455677 0.010249762 -0.66689664 0.5801898 0.43899485 -1.1308328 -0.51977444 -0.3740917 -0.015248829 0.076471716 -1.8171482 1.2390289 -0.7991759 0.3025752 0.3930907 -0.5020502 -0.21712531 -0.7756652 -0.99792176 -0.91972685 0.12655918 -0.90110767 0.76620454 -1.3494796 0.721049 0.2586251 0.046015874 0.92014813 -0.30116302 -0.71412593 0.52279305 -0.56756574 -0.40283892 -0.15919004 -0.72865796 0.22082467 -0.08944255 -0.5229043 -0.4526728 -0.22161752 1.9166759 0.37279117 -0.45124552 -0.5622106 -0.7195336 0.29564863 0.017415445 -0.14505182 0.14581701 0.12196404 0.06816556 -0.14261197 -0.6413144 0.14474687 0.07002858 -0.2963338 0.0057282066 -0.9775749 -0.56153893 -0.74797094 1.1571549 0.41556045 -0.06946814 0.9382562 1.950821 0.65730774 0.3755575 0.39268234 -0.4735842 -0.043880135 1.5414494 -0.67530596 0.32566664 1.4009207 -0.20422599 0.029537473 0.05333599 -0.851853 -0.34209627 -0.20347148 0.4580598 0.18539914 0.31226915 -0.9417414 0.6234977 -1.0755426 0.1693721 -1.0973699 -0.035479672 0.60379684 0.9272126 -0.4784203 0.5226746 0.04541641 -0.18800469 -0.23243172 0.30401155 -0.6733495 0.0016863346 0.73504746 -0.26815996 0.9345065 -0.4265682 -0.17453921 -0.76979554 0.21095829 0.16026802 -0.2847447 0.3886971 0.7566619 0.46938324 1.125179 -0.74453926 -0.6147319 -0.55523735 1.1249964 -0.3161604 0.96625996 -0.23939775 0.30133867 -0.027128544 -0.1707537 -0.31079718 -0.14901663 -0.11996275 0.6581731
56 -0.38376835 -1.5137408 0.075408734 -0.288262 -0.8465369 -0.58059746 -0.15489797 -1.1270175 -1.5056396 -1.4103618 0.2444464 0.07890946 -1.184337 1.5984346 -0.60410976 0.40019163 -0.08734941 -0.34604064 -0.33236814 -0.0471568 -0.4580238 -0.9706063 -0.5989096 -0.8748265 1.1302885 -1.6109297 1.862096 0.62177646 -0.2383687 1.2934374 -0.29628882 -0.93687046 1.0060732 -0.4108143 -0.19473162 -0.02856415 -0.6513634 -0.32767642 0.13757883 -0.7934161 0.1483911 -0.3405899 2.0066438 0.35284275 -0.7002877 -0.48743418 -1.0305978 0.45300782 0.3786242 0.13761826 -0.4667449 0.42493764 0.14422509 -0.08957173 -1.2225456 0.014700046 1.0584977 -0.5822541 0.31577048 -1.1471689 -0.7820261 -0.9524838 0.77394843 1.1133587 0.5549227 0.8829616 1.1873839 -0.115150966 1.3012391 0.63519794 -0.31044576 -0.18313138 1.3288814 -0.87215245 0.22967689 1.8771503 -0.4992009 0.0102214785 0.07170068 -1.1682911 -0.06198058 0.62264216 0.4999564 -0.31353092 -0.2395734 -0.47988132 0.77611357 -0.91260344 0.00020250921 -0.86014843 -0.6944664 0.74602216 1.0380744 -0.15930632 0.26145363 -0.06335267 0.0051225657 0.41477257 0.6005295 -0.509978 -0.0049726986 1.7042624 -0.6831974 0.44911975 -0.18467332 -0.78779286 0.43155974 0.08857783 0.57498753 -1.1413065 0.38523844 0.83073974 0.85584784 -0.061958097 -0.84018874 -0.5252088 -0.3050711 1.145366 0.13253814 0.7451788 0.14861716 0.9476344 0.40736702 0.26320687 0.05698341 0.11849524 0.0020037135 1.008769
89 -0.7911221 -1.3089979 0.315045 -0.037849773 -0.95045537 -0.25607756 0.6207958 -1.9219725 -0.1893544 -0.26472718 0.01692963 -0.8935639 -1.015276 1.5724936 0.015868217 -0.43359178 -0.55385584 -0.48273128 -0.289045 -0.97066176 -1.371981 -1.0812649 -0.36480656 -1.8339878 0.21952045 -1.7634811 0.89743435 -0.44074473 0.46899685 1.5786803 -0.19923943 -0.75683707 0.47836655 -0.38873768 -0.23578328 0.9606053 -0.9332929 0.16799505 -0.11374603 -0.34561923 -0.15487106 0.24637334 0.9778633 0.8486844 -0.60947937 -0.8916919 -0.8069955 -0.5442959 -0.28837624 -0.5172094 -0.16639143 -0.57609665 0.64859515 0.116615795 -0.62908435 0.29038158 0.11395601 0.08378749 -0.52804184 -0.63614416 0.26417634 0.19218291 0.88256943 1.0432806 0.49882025 0.6194909 1.3710307 0.61894107 0.08931797 0.22313139 -0.66328907 -0.053154845 1.0916592 -1.4575039 0.028685808 0.7769114 0.28068328 0.13532065 -0.31525308 -0.05349623 0.50359 0.049432144 -0.06326376 -0.02189485 -0.4749535 -0.7513416 0.5676891 -1.0280542 0.26375777 -1.0829432 -0.79839385 1.0297602 0.60479736 0.24890569 0.65302163 -0.10833857 -0.00076254277 -0.37789372 1.1914424 -0.13792062 -0.080507345 0.44971657 -1.1038673 1.503918 -0.46749115 0.29766217 -1.1265944 0.073354565 0.09096563 -0.85024536 0.18437476 1.0083573 0.9943889 0.6910626 -1.297828 -0.5787711 -0.24645753 1.3336357 0.008140242 0.94252443 -0.14333138 -0.8361799 -0.25911862 -0.39621288 0.39282334 0.08023524 -0.696187 1.1266491
524 0.65116364 2.6302803 -1.2126437 -0.21665663 1.175832 0.69265807 -0.7805395 1.2277046 1.9079196 0.20826735 0.63877344 0.42702317 -2.165684 -2.2267785 0.48898154 1.2151979 2.1674461 0.3530813 0.25434172 0.21712887 0.47375497 0.78750944 -0.17814194 1.4668726 0.13273072 2.973243 -1.5297998 1.1817602 0.12104442 -1.2395409 1.3091449 1.1831979 1.3866392 1.498668 0.758184 0.8767186 0.24716005 0.24655473 -0.56120354 0.44594312 0.86630505 1.4789553 -1.4467725 -0.13289663 2.1405258 -1.3652818 1.4829427 0.4284976 0.97697675 0.84365255 -1.4010699 -0.6796096 -0.3702487 0.7911978 0.7249002 -0.8895848 -0.04388695 -1.6326823 0.6055689 0.14449133 0.9814037 -1.2960006 -0.2563823 0.55796397 -1.8300962 0.41461632 -0.21855673 -1.149408 -0.97814244 1.459944 1.0951225 1.193004 0.29780397 0.9810036 -0.058088366 -1.457414 -0.23022094 1.2091352 0.42443687 -0.2860407 0.7802375 -0.39079207 0.12047717 0.43994686 0.8868706 1.5136933 -1.9017999 0.30300996 0.70019597 0.13242649 2.0829346 -1.4164972 -0.66840786 0.77381575 -1.6526679 0.08267765 0.22960664 -0.14460605 1.3061054 1.8159661 -0.20572394 0.80044484 0.50941205 -1.1077507 1.2715595 -0.8417699 0.117404036 -0.39696208 -0.18901797 0.634154 -0.41899225 -0.57950056 -0.38661158 -0.7431107 0.56168085 0.50228155 -1.3465463 -1.1821848 0.77658874 0.32587138 -0.089961536 -0.1528898 -0.32155764 1.0958163 -0.035321195 -0.5383021 0.70273453 -0.19735855
288 -0.39580822 -1.2279109 0.40400696 -0.39848733 -1.5410181 -0.14693499 -0.21623737 -1.5433091 0.38068536 -0.051925674 0.46566683 -1.1761672 -1.3504515 0.8865347 0.986855 -0.74907553 -0.84321547 0.10397005 -0.25487676 -0.5153417 -1.7747973 -1.0604042 0.42874858 -1.6925857 0.99465597 -1.1605664 0.04696067 -0.6009226 0.79145795 0.9212732 -1.0333523 -1.524263 0.09178555 -0.5119487 -0.39923388 0.21103948 -0.84873015 0.1456728 0.3019055 -0.6714393 0.18824962 -0.60018945 1.2205632 0.85335064 -0.18586175 -1.1110511 -1.5584117 -0.8429743 0.13989928 0.027633961 1.2421901 0.09487946 -0.40348786 -0.28467464 -0.95344526 0.6154224 -0.44144297 -0.63121784 -1.0641221 -0.3671205 0.02155928 -0.08216936 0.26964554 1.2780287 0.43595105 0.46198818 0.46250895 0.4092396 0.34873927 0.27226454 -1.036652 -0.08577402 1.1202135 -1.2946829 0.24109441 0.124416016 0.755813 -0.22600436 -0.150492 -0.30025685 0.6172533 0.7182971 0.5205077 0.46300218 -0.426941 -1.0127672 0.9703518 -1.5145013 0.10982029 -0.45280686 0.3310968 1.0119562 0.8150141 -0.7000446 0.6644359 -0.38719538 -0.9068811 -0.39436784 1.1459624 -0.13297714 0.1742561 0.36008194 -0.794811 1.699691 -0.14303856 0.016515734 -0.7251072 0.5229631 0.82571083 -0.7160859 -0.35800016 1.3407419 0.49815974 0.087053575 -1.4849397 -0.755148 -0.48190543 1.0173165 0.1912545 0.76593024 -0.066533156 -0.87504476 -1.1397135 -0.5069464 1.1144457 -0.7357398 -0.4322247 0.57073647
505 -0.29847446 -2.029882 0.34884053 -0.028105637 -0.9215829 -0.6678111 -1.2408329 -1.2851493 -1.0946467 -1.0170512 -0.1991385 -0.67748415 -0.80990297 -0.15349807 0.66831374 -0.18818253 -0.42583814 0.17322916 -0.9104294 -0.42824197 -0.84875643 -0.5532353 0.12292882 -1.6337216 0.33317298 -1.5310888 1.786337 0.27980974 -0.47332487 1.0013753 -1.5295336 -1.3589247 0.49557498 -1.4876635 -0.7625511 -0.004509973 0.45624277 -0.049266063 -0.29268765 -0.32903826 0.60763896 0.16475052 2.3481953 -0.012639412 0.09595905 -0.61958355 -1.4683923 -0.5734959 0.1372745 0.25772652 0.18262693 0.30845192 -0.07482896 -0.6849437 -0.41351667 0.32054943 0.53459585 -0.44724664 -0.37609679 -0.22658674 -0.6712423 -0.95646787 1.29668 0.97171646 0.7515154 1.7388663 0.67943615 0.4674143 1.1490585 -0.95896447 -0.06469981 -0.39606562 0.84669745 -1.1710783 -0.1392213 1.2276269 -1.0235204 -0.4738083 -0.6147992 -1.5412196 0.5266489 -0.05658737 1.2739362 -0.64462364 0.20838729 -0.43306628 1.0962852 -0.4496417 0.28501618 0.94304824 0.5197213 0.545529 0.48913014 -0.86939806 0.7137086 -0.9036558 0.73538697 -0.15854008 0.5922345 0.063063174 -0.1751193 0.7298697 -1.3595577 1.027127 -0.8487068 -0.08608132 0.09464469 0.3134972 0.97480476 -1.1812781 -0.61612785 0.71762997 -0.07077186 0.31991094 -1.9442501 -1.0043935 0.15286785 0.750988 -0.84158796 1.1665335 0.7129244 -0.5321152 -0.3296657 -1.0979017 0.56340677 -0.18859826 0.9966854 0.92126495
87 -1.3491066 -1.1882465 -0.32272428 -0.32423374 0.17662518 0.20516382 0.75409806 -0.9915294 -0.74235934 -0.2725746 0.0410192 -0.28208223 -1.5539693 1.2276561 -1.0298928 0.36809066 -0.60475934 -0.48660374 -0.26949394 -0.069943294 -0.307539 -1.3249047 -0.4236795 -1.0129911 0.9898394 -1.5214345 1.297516 0.37335956 -0.8339205 1.1273284 -0.10190462 -0.6412807 0.57059103 -0.09755442 -0.19841218 0.5144457 -1.1508456 -0.049805496 0.291068 -0.19131413 -0.7083017 -0.50916463 1.6099651 0.26254535 -0.3171513 0.37003854 -1.3881767 0.8095041 0.4493842 -0.6514042 -0.3587989 -0.5746546 -0.377559 0.2786572 -0.70554394 -0.49278647 0.9176289 0.022166701 0.3198288 -1.33038 -0.28476825 -0.51541775 1.3125557 0.5619178 -0.12895077 0.8186735 1.9303033 0.42209736 0.26058403 0.088642746 -0.06259825 -0.1294406 0.9943985 -0.6906297 0.0503981 1.3457276 0.34637198 0.29922086 0.30869862 -0.7669605 -0.48613423 0.09713765 0.3549625 -0.116119325 -0.5507787 -1.244592 0.34655783 -0.6488622 0.15347496 -0.6759709 -0.9565464 1.0994794 0.9231168 -0.19541536 0.7602806 -0.21343164 -0.3790274 0.33128086 0.07825301 -0.46286777 -0.36403003 0.75147337 -0.31377283 0.736882 -0.05928171 -0.11506988 -0.10248126 0.31890157 -0.14127354 -1.2468264 -0.09915561 0.32266527 0.92634624 1.4330784 -0.36220628 -0.6161098 -0.97068214 1.555073 -0.35362422 0.97999114 -0.22643286 0.6917683 0.28823486 -0.0183438 -0.6413521 -0.030557668 -0.23385815 1.4102376
217 -1.0907906 -0.5220607 -0.29861686 -0.05995284 0.29818723 1.2286022 -0.88900656 -1.0090413 -1.4206756 0.07748884 0.45778453 0.35880414 -1.4528716 0.2293935 -1.4818763 1.1334451 0.7654216 -0.14558028 -0.8827269 -0.26577142 -0.17708735 -1.3974088 -0.0010313671 -0.06610827 1.5967101 -1.1393868 0.5473806 -0.013254402 -0.9778619 0.3856406 -0.77515084 -1.0841959 1.0200797 -0.8904105 0.11541743 -0.30594915 -0.47487396 0.026579833 0.16352129 -0.5109785 -0.0007826593 -0.737494 0.98099965 -0.010241325 0.013602184 0.009362799 -0.9111216 0.819162 0.39330715 0.18515104 0.55379945 -0.24630913 -1.6554545 -0.7984933 -0.5936783 -0.7248422 0.68436605 -0.24465697 0.058447596 -1.6511749 -0.048555616 -1.0623447 1.0340658 0.37981674 -0.53267974 1.0458028 1.197514 0.5799017 0.7144262 0.74211335 -0.74127185 0.51225215 1.8812822 -0.55303866 -0.11095194 0.7589312 -0.011117268 0.5312825 0.4492318 -1.9237705 -0.84967697 0.5568356 0.7850001 0.24414396 0.28038967 -0.6101242 -0.21035422 -1.2405522 0.7745841 -0.49709994 0.3397448 0.43901485 1.0722102 -0.8227354 -0.25671294 0.10369382 -0.30430394 0.57050264 0.5487331 0.37098926 0.3425799 0.8481952 0.6031765 0.5925498 -1.2245909 -0.050360978 0.26945406 -0.23348133 -0.101741366 -1.0031097 -1.230178 0.47482476 0.54474473 1.097723 -0.48003593 -0.30510914 -1.4124576 1.2162554 -0.053086102 1.6561401 0.1445977 1.2161516 -0.36874422 -0.000751897 -0.23292957 -1.0144451 0.19172822 -0.337228
389 -0.5860178 -0.5021425 -0.40272692 0.05275964 0.091454 -0.07910838 0.24746828 -0.38506308 -1.2566891 -1.2986883 0.13049762 0.946302 -0.26550227 1.8880181 -1.6610354 0.7722587 0.578652 -0.98073655 0.6582905 0.59728074 0.18586288 -1.8030692 0.09548166 -0.28960374 0.38756296 -1.1400503 1.3117036 0.38861167 -0.3041965 0.044808466 -0.92273366 -1.0140039 0.08443132 -1.1567736 -0.8437555 -0.3417979 -1.1500617 -0.07514713 0.6117779 -1.020618 0.36918414 0.062457077 1.3569957 0.7519499 -1.9358958 -0.1638921 0.29248908 0.20816982 0.42450684 -0.12535588 -0.66157216 -1.1705064 0.4724603 -0.19545783 -0.783963 0.33711478 0.85276914 -0.7610563 -1.3579661 -1.457629 -0.9293315 -1.1325042 0.43726242 0.49056807 0.15219691 0.2830527 1.8971529 -1.4829078 2.2105813 -1.3469417 0.27878729 -0.43763068 0.50364536 -0.8959954 -0.3966714 2.567485 0.20160428 0.54461473 1.2782147 -1.1097325 -0.5057089 0.22476757 0.29125398 -0.13452242 0.48807317 0.06475387 1.4599804 -1.2363727 -0.71752596 -1.6011381 -0.28944203 -0.22235528 2.0488324 0.6931238 0.76747704 1.6657852 -2.1205745 0.6086383 0.43988937 -0.13601658 0.055257086 1.0400685 0.1891085 -0.1508217 0.3593548 -0.41145903 -0.6815623 -0.30736506 0.44393125 -0.8610472 1.7539685 1.0910572 0.44156748 1.0197809 -1.4974712 -0.84512216 -0.69423413 0.9641502 -0.39601687 0.16846244 0.20422795 1.2733432 1.5759045 1.1477011 -0.87620074 1.1455896 -0.4807886 -0.8498526
317 -0.09808306 -1.2084686 0.13484417 0.37190527 -0.5408965 -0.20809901 -0.13853443 -1.4449288 -0.6061505 -0.75933695 0.017889783 -0.38557562 -1.7978022 0.97338325 -0.31832206 0.085438915 0.023095781 -0.21203558 -0.945699 -0.3314098 -1.2491083 -1.2745667 0.75694287 -1.3312889 1.3716471 -0.48544317 0.033653636 -0.15215425 0.009303733 0.77033865 -0.54349655 -1.1325849 -0.07248953 -0.8130384 -0.2853631 -0.60195655 -0.4975036 0.1665493 0.68844306 -0.9875728 0.34943742 -0.1205042 1.1555877 0.28571692 -0.61754006 -0.2669762 -1.023502 0.39596263 0.012655788 0.25492123 0.43913636 -0.1081617 -0.15781909 -0.43814883 -0.59998155 0.26829636 -0.7586098 -0.48655796 -0.56538814 -0.4499338 0.5350598 -0.5662586 0.47776872 0.35730234 0.36634645 0.18625152 0.60018486 0.4349423 0.5138779 0.0777149 -0.6216856 0.1423216 1.2816932 -1.1595377 0.40025282 0.9681456 -0.34504977 0.7326719 -0.51305217 -0.57495755 -0.24841745 0.18384992 0.46426487 -0.0828839 -0.034901485 -1.3611206 1.3447138 -0.79232323 -0.067955345 -0.78114474 0.0707887 0.9154048 0.7539029 -0.23876259 1.1148342 0.2362201 -0.22639243 -0.15668923 0.049123347 -0.5387366 0.16297112 0.7963059 -0.18273881 0.5284008 -0.5062862 0.029620856 -0.2146402 0.2865667 0.72445565 -0.31201917 0.18510751 1.1516656 0.8652398 -0.20182227 -0.5393319 -0.67695975 -0.048779372 1.3262515 -0.18216476 0.6264288 -0.2738266 0.5697454 -1.2889657 -0.25919193 0.3750388 -0.64266205 -0.39401954 0.30862418
229 -0.3447864 -1.2630365 -0.3175904 -0.50350165 -0.083309494 -0.19018458 0.21722975 -1.6714462 -0.40518788 -0.07708345 0.5316652 -0.501345 -1.1534837 1.0183998 -0.8491247 0.7229392 -0.7683061 -0.21332495 0.022699697 -0.06676528 -0.017968794 -1.4996696 0.505948 -0.9126554 1.5725877 -1.2928195 0.48531267 0.07348367 -0.63765013 1.0313468 -0.82420415 -0.71674615 0.5495066 -1.3882143 -0.67351663 -0.3477133 -0.72432685 0.5562685 1.3120835 -0.77174115 0.29997718 0.10775662 1.6080619 0.5094934 -0.40833655 -0.107715115 -1.0553789 0.60411674 0.42797616 -0.46401662 0.34822515 -1.2519805 -1.055287 -0.40430516 -0.27899328 -0.72078705 -0.5791934 0.09213312 -0.88570356 -0.60367924 -0.54187196 -1.1966393 1.2893176 0.18694215 0.15959933 0.60741264 1.9329337 0.16843939 1.1936733 -2.1199565 0.5855592 -0.9407102 0.6277663 -0.6749113 0.14821535 1.7058778 0.4229272 0.6292691 0.20505263 -1.9936152 -0.02737374 -0.39522508 0.8208924 0.31153274 0.11969808 -0.9448908 1.2290064 -1.4221511 0.5959438 -0.5965599 0.29656634 0.7655762 1.3534895 -1.395667 1.8047634 0.015721047 -1.345633 0.5583474 -0.08205645 -0.26479924 0.6745684 0.3415569 0.37081754 -0.1383614 -0.47119305 0.34796473 -0.22307113 0.012786473 0.65905976 -0.54488057 0.45462614 0.69282174 0.36771247 0.95601135 -0.83424664 -0.9748529 -0.9893586 1.3973664 -0.93936056 0.89989793 -0.39594287 0.273804 -0.31166136 0.0057156947 -0.81491613 0.30415168 0.52786136 0.12626106
31 0.33143052 0.581225 -0.60476565 1.535161 0.14037248 -0.40653223 -1.0548452 0.30604732 0.9981823 -0.4652179 -0.9519354 0.581116 -1.871171 -1.2784197 1.0119234 0.6918071 1.0286932 -0.072034836 -1.7932284 -0.24753185 0.081058696 -0.52313995 -0.10729452 0.6298642 -0.64620465 2.3092663 -1.2525663 0.33101416 -0.049728077 0.3468414 0.21546261 0.86091965 0.38443932 0.6517462 -1.2522513 1.1611766 0.092680424 1.0355905 -0.59868854 0.38365385 0.6058293 1.947546 0.064863116 0.29009372 1.7530756 -0.36940658 0.6739281 0.783724 0.9874215 0.15326296 -1.7978705 0.18551722 -0.050114457 0.27622214 0.30430454 -0.09701817 0.742028 -1.2839162 0.2472787 -0.83799654 1.135456 -0.6612193 0.44009385 0.19951715 -1.2352331 1.5151877 -0.15316819 -0.9448637 -0.51135486 1.2647599 1.3202187 1.1348758 0.6224692 -0.15571262 -0.6304009 -1.387956 -0.65737784 0.7212481 0.55581325 0.0054602823 0.9347969 -0.29900235 -0.107577205 -0.86103976 0.18352452 -0.066610605 -1.4273837 0.32627323 0.11298253 0.6329758 0.60803866 -0.46268186 -1.0715352 1.7240834 -1.2441878 -0.012075154 1.1411474 -0.636045 1.470016 2.7107782 -1.1490604 0.6502344 -0.67466724 0.3976994 1.078379 -0.27942106 -1.3479185 0.5140549 0.79545265 -0.78654134 -0.66353196 0.0013164461 0.40181556 -0.1971902 -1.5931197 -0.9503107 0.11759562 1.4124366 0.5663321 1.1903282 0.5035673 0.073609106 -0.28238222 0.1617411 0.6762787 -0.071026556 0.96314955 -0.0029497936
357 0.7640522 2.0810432 -0.54446876 0.19495529 0.7738936 0.46336982 -0.9933005 1.1453301 1.9962051 0.0588582 0.3367283 0.2672109 -1.0194407 -2.0762959 0.80298 0.9377163 1.1027977 0.26713392 -0.0046501257 -0.14584127 -0.14097479 0.109781966 0.264075 0.8966158 -0.39589244 2.6537387 -1.8743557 0.17895047 0.29401362 -1.0926234 0.594192 1.084944 0.40546033 1.0496259 0.44080636 0.7507791 -0.0010723908 0.45338562 -0.66051525 0.21402104 0.6486942 1.2739213 -1.3052882 0.3368691 1.5786853 -0.7549343 1.3526883 -0.28269956 0.5986256 0.41353324 -0.53865695 -0.46280128 -0.38560313 0.63305014 0.76987904 -0.13978326 -0.4618202 -1.4743786 -0.3284632 0.76068974 0.61607474 -0.54192525 -0.44014862 0.12028801 -1.323634 0.07699813 -0.752903 -1.1530672 -0.84882617 0.59485036 0.78390783 1.6022196 0.12445517 0.7254482 -0.36947298 -1.7056621 0.35981044 0.8697413 0.5024927 0.006352503 1.2776359 -0.20748898 0.014311447 0.36418104 0.35077715 1.2547746 -1.460381 0.16527961 0.2591763 0.48876452 1.6942879 -1.0152353 -0.8027116 0.5122719 -1.3608155 0.21034761 -0.25029206 -0.23793215 0.64670706 1.9570762 -0.18135335 0.32436338 0.47089028 -0.49582535 1.2637464 -0.3646949 -0.8697811 0.07361116 -0.26183662 0.406529 -0.6985426 -0.1883418 -0.6796861 -0.21931337 -0.07893392 -0.088072725 -0.6200914 -0.81054276 0.51593167 -0.084740974 0.044012293 -0.49733034 -0.8016392 0.7857512 0.5566767 0.12623335 0.55319154 -0.64170575
498 -0.61809754 -1.1253711 3.1886296 -0.80880004 -1.7088288 -1.5579854 -0.62982094 -1.3435339 -1.7023355 -0.31207994 0.6473385 -0.85063756 -0.19337063 -0.5160144 1.2647555 -1.67352 0.30148265 0.13038059 -1.3995115 0.31955424 0.106768616 -0.6284251 0.37193102 -2.3067098 -0.4599423 -2.6615539 2.598488 1.3993089 -0.24987195 -0.8316465 -1.9776747 -0.7520381 -0.23747633 -1.769092 -1.2096314 -0.7389112 2.063454 -1.1542357 -1.2093525 0.3650421 -0.83284885 -1.5315496 0.8784727 -1.3778217 -0.98382515 0.8817302 -0.30752248 -1.6251769 -0.82842916 -0.21635973 -0.57331246 -0.50170267 0.6786413 -0.60772896 -0.16574539 -0.6968014 1.0817431 0.837292 -0.3525926 0.8339228 0.42352387 -0.43815938 0.1938297 1.973253 1.2780075 2.44108 -1.0888627 1.8005552 0.00654361 -1.0862191 -1.0781431 -0.83678913 -0.9256009 -0.9406958 1.2675525 -0.18373832 -0.9425668 -1.1048001 -1.5192432 -1.1427275 -1.078736 0.24515204 1.4974059 -0.36918837 -1.2739333 -0.17723563 1.6401172 0.79791486 0.78497404 1.391038 -0.48673996 0.15457962 0.72280735 -0.5806979 -0.195189 -0.82893485 1.212105 0.8977004 -0.32396004 -0.8206992 1.0536231 0.08916043 -0.9445193 0.18312612 0.02536864 -0.31887424 1.3271201 1.8705188 0.9732705 -2.3154101 -0.7753261 0.41008705 -0.85132897 -0.15138358 0.046398047 -0.23215823 0.9117003 -1.2915848 -0.7254148 1.1501653 0.37051523 -1.1354722 -1.6392593 -1.3503242 0.15973851 -1.2072849 1.6119637 1.3384707
182 -0.22978207 -0.6639918 0.46311617 -0.4152001 0.13464366 0.82809395 1.3363951 -0.8336361 -0.9462899 -1.3656983 0.46618927 0.25700083 -1.1056794 1.6434819 -1.702117 0.97059244 0.17813712 -1.4906636 -0.2026632 -0.6449827 -0.29751945 -1.5136516 -0.16851795 -1.8537511 0.43366358 -1.1354196 0.78631395 -0.16969962 0.41582978 -0.26058426 0.3592416 -0.24042132 1.1977489 -1.4827074 -0.71853286 -0.0139574 -1.4266573 0.6785251 -1.3035014 -0.116948135 -1.0224102 -0.7900512 2.1014261 0.97296304 -0.14131318 0.3443873 0.36039045 -0.23956574 -0.10460224 -0.8129551 -0.06646639 0.2695169 1.1250504 -0.7515221 -0.87264556 -0.17354867 -0.1358037 -0.28107068 -0.79817617 0.073766895 -0.45867485 -1.2833141 0.15087897 -0.29764345 0.79767495 1.2340001 1.9863921 0.73004705 0.75956935 -0.21340103 -0.8000889 -0.7651849 2.190895 -0.6143036 1.0790834 1.9450998 0.33303058 1.1042273 0.26401463 -0.8314682 -0.118439354 -0.4731383 -0.4598467 0.18823037 0.44984972 -0.23161194 0.27284837 -0.6269994 0.25241733 -1.8148743 0.2636631 0.5427658 0.85745287 -0.18458284 1.0507998 1.0328575 0.09779829 0.21102078 -0.64309543 -0.7837338 0.53512627 0.8810932 0.28378472 0.2547363 0.7074486 0.52988744 -0.55496454 -0.043217283 0.52875483 -0.62567574 0.8240011 0.8573593 -0.14260808 1.9640307 0.06356902 -1.022692 -0.8444349 1.5259001 -0.13719423 -0.20621437 -0.2288723 0.5691567 0.7541264 1.174605 -0.98550516 0.7749317 0.16027667 0.7410658
9 -0.35936943 -1.5358772 0.4669341 -0.3211275 -1.4762522 -0.13709883 -0.49234995 -1.6393114 -0.016652431 -0.16907367 0.0063707447 -0.8862475 -0.9323563 0.4418935 0.63229746 -0.6621734 -0.06950195 -0.22926146 -0.14790899 -0.799547 -1.3682936 -0.5809597 0.79670507 -1.6337795 0.34553996 -1.4997823 0.70972496 0.17558362 0.6305227 0.5617293 -0.8008218 -1.1716405 0.5962294 -1.4748129 -1.0008239 -0.4013179 0.028041672 0.10576107 -0.5160365 -0.25565094 -0.05662581 0.14560722 1.701742 0.03941236 -0.4445454 -0.5381641 -0.815196 -0.82384115 -0.27895692 0.042617403 0.4624923 0.019992022 0.23500994 -0.5188524 -0.21167944 0.49299902 -0.30815867 -0.026984742 -0.79400086 -0.48335025 -0.14779711 -0.38700438 1.2418586 1.0670775 0.27209678 1.0545924 0.9024104 0.40398663 0.8355725 -0.27980185 -0.75582474 -0.36415952 0.87435085 -1.1970009 0.6062996 0.5050962 -0.06942971 -0.416686 -0.24428675 -0.6070192 0.21679294 -0.23926462 0.8724343 0.19385408 0.19763176 -0.9361738 1.1449093 -0.74305046 0.48233643 0.053483948 0.45483914 0.3857963 0.73654515 -0.88216573 0.49617013 -0.10735458 -0.04000992 -0.6077045 1.1174762 -0.29075617 0.70800203 0.21538077 -0.570356 1.3402078 -0.45034602 0.22856103 -0.54076153 0.92879206 1.0766424 -0.9507066 -0.17820868 1.0235146 0.43341035 0.6984758 -1.759674 -0.5782528 -0.33083266 0.52131253 -0.56258196 0.89575493 0.27983454 -0.7814483 -1.1195028 -0.76879543 0.3913136 -0.2916796 0.29405245 0.57215524
198 -1.1390945 -0.8108613 -0.06678651 -0.04616354 -0.17850585 0.12897699 -0.34414792 -0.84995896 -1.1739827 -0.7472166 0.2523869 0.3057897 -0.8016485 1.0380377 -1.1214257 0.73457277 0.37229466 -0.4479959 -0.29045123 -0.42853126 -0.50999945 -0.9670381 0.24457026 -0.8437022 1.0842389 -1.4497722 0.42510176 0.3333656 -0.8330667 0.7472685 -1.0384914 -0.73040724 0.58234227 -1.1191767 0.29493305 0.002597429 -0.6064132 -0.37346804 0.77533996 -1.2238648 -0.08279407 -0.6208489 2.1232743 -0.044219606 -0.45361412 -0.45666537 -1.1751224 0.22296467 0.4515773 0.632865 0.059126377 0.3432518 -0.36840057 -0.033177543 -1.0295753 -0.080346756 0.54842603 -0.5560532 0.5404894 -1.1569709 -0.36281076 -0.7625813 0.21598524 0.26913297 0.17433974 0.9546422 0.87508553 0.4471296 1.2006433 0.19343488 -0.49838805 -0.26418808 1.1924688 -0.47791666 -0.060950715 0.7516226 -0.6060691 0.3876792 -0.108828925 -1.390969 -0.7885101 0.30796862 0.82857263 -0.5616449 0.05875466 -1.0254378 0.7335258 -0.77556294 -0.16296348 -1.3592441 -0.37782237 0.76316154 1.1806767 -0.42796862 0.80441624 -0.031346012 0.2224871 0.4538858 -0.19566658 0.016898666 -0.17121926 0.87248045 -0.13633823 0.834898 -1.0182114 -0.4272062 -0.559905 0.04865418 -0.0569098 -0.34646627 -0.077383794 1.1561193 0.28920853 0.28376722 -0.18405391 0.006175098 -0.32444847 1.4006323 -0.5073231 0.4853506 0.3889357 0.9227032 0.20788586 -0.45133525 -0.29776093 -0.6459937 -0.53318065 0.65808773
289 0.058590297 -0.667987 -0.73972994 -0.1735416 -1.0551339 0.5826774 -0.12221042 -0.75412107 0.1081469 -0.3394851 -0.09838447 0.21005356 -2.2297015 -0.061820175 0.24338995 0.45044136 -0.5159013 -0.038729742 -0.7005257 -0.08689071 -0.8600131 -0.8911022 0.47348753 -0.8135844 1.5707335 -0.4835637 -0.20488654 -0.3944731 0.64653474 0.8001081 -0.7329859 -1.4904717 0.81511813 -0.5807395 -0.40935844 -0.21792391 -0.6860634 0.322056 0.29363364 -0.30287796 -0.164034 -0.24234453 2.0961528 0.4283699 0.5818454 -1.0390506 -1.5664407 -0.09969617 0.9188619 -0.88289344 0.15398276 0.12640691 -0.56148744 -0.13337767 -0.28079036 0.14206202 0.02758279 -0.91851157 -0.32896522 -0.46125045 -0.90376395 -1.1857117 0.9498715 0.26269773 0.028630493 0.8222543 1.6946743 0.18254188 0.20464799 0.44881988 -0.23525694 0.062389545 1.4829895 -0.56564665 -0.14464642 1.6715641 0.40805486 0.14631477 0.50667065 -1.1081593 -0.21572547 0.1325754 0.7172736 0.35215172 0.6219313 -0.62742984 0.016911188 -1.1757082 -0.08759374 -0.54217863 1.0453762 0.5634503 0.8317625 -1.2721184 0.5951588 -0.7221545 -1.5407552 -0.6534115 0.008262248 -0.0049728863 -0.33039698 0.6814163 -0.1641588 1.1018519 0.2859582 -0.058140855 -0.199276 0.6670309 0.36387688 -1.1168482 -0.27226865 0.35097018 0.33171332 0.9847509 -1.0115182 -1.1167521 -0.744614 0.76672584 0.19903742 0.8596611 0.25124046 0.18535872 -0.54381114 0.05341168 0.29622346 -0.885261 0.84077024 0.6001295
131 -0.0340259 -0.6088386 -0.9230516 -0.41785413 -0.48110852 0.50994086 -0.18747465 -0.08406402 -0.26933804 -0.83006567 -0.084748924 0.51134896 -1.943554 0.18636452 0.1365324 0.608976 -0.19730267 -0.35403833 -0.42660722 0.2770215 -0.6307358 -0.89079565 0.010205886 -0.65527624 1.0895697 -0.77911174 0.1865786 -0.21400253 0.3297844 0.5484661 -0.7218266 -1.2309841 0.8953905 -0.78523153 -0.30013627 -0.31377342 -0.7390029 0.029706728 -0.044732023 -0.22323355 -0.19509825 -0.279639 2.8088202 0.48678052 0.75855213 -0.6624859 -1.4890251 -0.045640633 1.0219333 -1.1297429 0.14844166 0.695258 -0.3014864 -0.054966114 -0.2820182 0.1256636 0.2227655 -0.67101544 -0.10526506 -0.66835827 -1.449152 -1.2391338 0.9446586 -0.016033778 -0.08489806 1.2306194 1.7111176 0.088640265 0.48699585 0.22762005 -0.3034195 0.083072625 1.5609282 -0.37831438 -0.2822409 2.027151 0.4733351 -0.23030761 0.67711186 -1.3676101 -0.14445718 0.086298056 0.77531123 0.054653816 0.7156438 -0.41447413 -0.08967355 -1.3961601 -0.14150494 -0.601708 0.8182994 0.6829864 0.9796218 -1.397061 0.83071095 -0.7258469 -1.2970997 -0.4014717 -0.51443785 0.1173029 -0.34391505 0.77977496 -0.2964482 1.00037 0.45878732 -0.33973104 -0.25768617 0.5167134 0.44876385 -0.805555 0.08269145 0.20597975 0.15597016 1.7185324 -1.0986022 -1.1130108 -0.7047712 0.6376485 0.11248721 0.9977872 0.32792082 0.3620154 0.0814166 0.2982504 0.05066097 -0.52138174 0.70507103 0.8102866
164 0.7273676 1.9253378 -0.7913856 1.7631876 0.72753674 0.030561969 -0.66753906 0.63000387 1.1094841 -0.060030013 -0.31523603 0.73443305 -1.0658251 -1.1457586 0.6568126 0.9658887 1.9783279 0.24691093 -0.7966985 0.37726817 0.6943274 0.53836477 -0.26108217 1.0360616 -0.9392561 3.2293966 -1.6659348 -0.17732303 0.4002257 -0.9203785 0.8965419 0.45277146 0.47341627 0.8675273 -0.6757094 0.9178931 -0.5590354 0.9937877 -0.6461042 0.7406295 0.5450041 1.3129318 -1.2299657 -0.10070371 1.8373783 -0.0432276 1.2781103 0.761043 0.57362676 0.4116646 -1.6102656 0.45714387 -0.2907538 0.23668334 0.6058343 -0.79303974 0.13507554 -0.8708484 0.12229632 -0.21441366 1.2941172 -0.9084478 -1.1284816 -0.10402421 -1.0848403 0.42840356 -0.22233559 -1.4397576 -1.0452207 1.9749408 0.28304535 0.6917067 0.09790334 0.75018126 -0.6566993 -1.293753 -0.28294793 0.63025177 0.6462788 0.49268255 0.6069044 0.2828474 -0.44323623 0.1010312 0.15387218 0.71263677 -2.06398 0.3615416 0.08468143 0.2127208 1.2158605 -1.3201158 -0.9132852 1.558619 -1.4671754 0.229161 0.59177935 -0.31455517 1.7209433 2.4857056 -0.8152142 0.38478604 0.13751192 -0.51185733 1.0143175 -0.3945611 -0.28801063 0.07474434 0.599036 -0.16867875 -0.7762777 -0.36735377 0.42575127 -0.5862326 -0.36657432 -0.62416035 -0.9185842 0.1657627 1.486175 0.96382034 0.29884216 -0.4060079 -0.19879018 1.2779638 0.60166436 -0.6674643 0.41360018 -0.67168343
616 -0.8738992 -0.47906727 0.16682516 0.2948186 -0.29792866 -0.3541965 0.39603952 -2.0071635 -0.19555347 -0.35787615 -0.020651095 -0.30870083 -1.0917575 1.6863649 -0.06716374 0.94021374 -0.40610257 -0.5326046 -0.65977687 -0.91477674 -1.2103448 -0.80196846 1.5871445 -1.6330702 0.75314164 -0.92954725 0.033491746 -0.059352797 0.16103163 0.82992613 -0.7091509 -0.1582915 0.43587387 -0.64909136 -0.4647345 0.3945718 -0.55074984 0.6341176 1.3234491 -1.0985563 -0.49091706 -0.038431585 1.4427313 0.19927736 -0.010235941 -0.35963798 -1.47497 0.5737185 0.5263691 -0.32290262 -0.4460346 0.2672845 0.015530031 0.8037947 -0.9760898 0.19011793 -0.15917668 -0.02415333 0.38861763 -0.6333031 0.8015441 -0.54899454 0.45164815 0.2040967 0.5242308 0.3170623 1.100827 1.2167317 0.061755486 0.61798537 -0.111478955 -0.42878237 0.39415744 -0.52846324 0.5179911 0.12686789 -0.10237476 -0.017467663 -0.22153036 0.07369641 -0.48079357 0.08076866 0.5381823 -0.35640892 -0.39934137 -1.9337385 1.2780254 -0.30930164 0.050246593 -1.9207052 -0.58557045 0.8653105 0.32369238 0.15210956 1.018064 -0.039545257 -0.0355291 0.2040209 -0.3808125 0.31989914 -0.56480396 0.8226505 0.11557979 1.0711372 -0.6710671 0.11433405 -0.73416173 0.9694152 0.06050567 -0.43715745 0.122115105 1.1340714 0.96385616 -0.7033309 0.12629259 -0.7973236 -0.20173253 2.0904338 -0.60402334 0.6723136 0.32513765 -0.4157769 -0.6895695 -0.68916416 -0.39096513 -0.64897245 -0.8684815 0.65246177
35 -1.1657305 -1.2044562 -0.59784645 -0.5222533 -0.28256872 0.09364943 0.63811964 0.22379361 -0.099989496 -0.48956743 0.28997195 -0.33871135 -1.7622217 1.3975548 0.0015636531 0.06642567 -0.5051385 -0.45385683 0.5853702 0.51075464 -0.9238054 -1.3582269 -1.2763908 -0.5693736 -0.17211461 -1.9098024 1.4219576 0.8176593 -0.51686746 1.1736734 -0.40504 -0.11937993 0.22372665 1.2061583 0.68302566 0.7997262 -1.3084403 -0.7292438 -0.047258306 -0.2090159 -0.5925502 -0.6596984 1.7417177 1.2875822 -0.13897747 -0.25208846 -1.2362105 -0.023132388 0.31297535 -0.34744608 -0.48588577 -0.3686962 0.29807037 0.89771396 -0.66710496 -0.05310337 0.30917746 -0.55910176 1.4811052 -1.3416759 -0.8762595 -0.11931315 0.77901 0.49080408 0.19638309 0.85448307 1.5789331 0.7281113 -0.10152469 0.18389992 -0.22953431 0.679763 0.502822 -0.69637674 -0.04223648 1.7053688 -0.0052391407 -0.42644647 -0.13225807 -0.18609317 -0.58312505 0.6810989 0.33544293 -0.82766765 -0.76228666 -0.7014312 0.4318624 -1.0642114 -0.6797483 -0.84372044 -1.2499275 1.3354439 1.4370768 -0.20437315 0.89286447 -1.0087099 -0.15037675 -0.06059634 -0.24116142 -1.1900942 -0.7673884 0.2910037 -1.0003732 0.8299024 0.71393913 -1.1523663 -0.3483986 -0.6222775 -0.45547 0.13701954 0.7745904 0.5333731 0.59488726 1.6078494 -0.09716966 -0.11019799 -0.333294 0.91459703 -0.1600783 0.5573619 -0.70164263 0.4910266 0.46552613 -0.3036307 -0.8068298 -0.11397176 -0.3031922 1.6064719
343 -0.96295863 -0.710935 0.37618604 0.07381338 -1.2823545 -0.09674777 0.016264748 -1.5466719 0.69981426 0.0049130013 0.26337162 -0.868516 -1.1634536 0.7509165 0.8908097 -0.3035825 -0.782608 -0.29007608 -0.48475724 -0.8235988 -1.7232679 -1.1765856 1.0013884 -1.4695514 0.6142275 -0.668815 -0.2095346 -0.31204587 0.66356033 0.27261233 -1.1705836 -0.8395549 -0.09811991 -0.32101044 -0.6458253 0.5684366 -0.8364804 0.4812882 0.2178727 -0.58629584 0.28494588 -0.31430507 1.0741476 1.415999 -0.07683721 -0.86642295 -1.1651201 -0.80430955 0.1617292 0.032365017 1.065449 -0.13565521 -0.0051766885 0.12038929 -0.7787905 0.95801455 -0.23853403 -0.9700415 -0.7033321 -0.42693797 0.58905727 0.11467286 -0.016716164 0.96961826 0.7945467 0.49371827 0.7874445 0.7540502 -0.10559 0.006289712 -0.5987339 0.1842913 0.5617605 -1.0071564 0.17952657 -0.11073493 0.5481836 -0.086713046 -0.23173891 0.2867039 0.77674395 0.42062122 0.104480974 0.11846699 -0.100751996 -1.1887301 1.2342639 -0.868961 0.014582282 -0.70720744 0.28302413 0.95008004 0.5480877 0.17937993 0.9378966 -0.14199318 -0.6204157 -0.25868613 0.6880525 0.29349256 -0.3572125 0.047450755 -0.6613303 1.3459389 0.092997774 -0.0947614 -1.2341412 0.29356784 0.7513898 -0.39580846 -0.18666528 1.6380602 0.24771221 0.16416569 -0.9517856 -1.2937584 -0.15080698 1.4365085 -0.2775579 0.3562377 -0.04129963 -0.9424291 -0.82030255 -0.7356434 0.72390854 -0.3914674 -0.79192275 0.52405673
350 -0.8806838 -0.6062568 -0.14163443 0.26572382 0.33946195 0.92475927 0.19601153 -0.46806404 -0.91903806 -1.0499061 0.1370711 0.41481832 -1.9577783 0.87529016 -1.4975648 0.7645878 1.0576676 -0.5720971 -0.38209566 -0.5747127 -1.0407395 -1.2983938 0.56077707 -1.3728725 0.8574328 -0.8380996 0.65698004 0.0060862 -0.1422725 -0.6233679 -0.12314578 -0.9188219 0.23802316 -1.4036844 -0.18478487 -0.48405564 -1.2252651 -0.041450266 -0.32910973 -0.6917963 -0.2011424 -0.72696805 0.80238855 0.27602816 -0.9819619 0.44909307 -0.8332778 0.653089 0.32346228 0.004900242 0.3926517 -0.1782389 -0.097265966 -0.4024505 -0.6415992 0.9090887 0.20349243 -1.0036154 -0.6444743 -1.6197865 0.3231988 -0.3124744 0.5374041 0.16886985 -0.047229104 0.19805491 1.3351036 0.09987356 0.63142705 0.5465382 -1.375666 0.5139191 1.8558904 -0.98146796 0.089297056 1.2293746 0.55536526 0.8681579 0.3243955 -0.087351955 -0.34705088 -0.318065 0.3536678 -0.031773306 0.25388962 -0.81439394 1.0643119 -0.20698991 0.34161958 -1.0336761 0.088889875 0.36273104 1.3469077 0.67083466 0.30520368 1.1511533 -0.6039415 -0.03972028 -0.13001192 -0.14505893 -0.15389703 0.6891084 0.53850555 0.4460887 -0.16297454 -0.21831241 -0.25054568 0.1853105 0.17136584 -0.9532507 0.47845688 0.989618 0.5734044 1.3953159 -0.6856955 -1.0686206 -1.237688 1.1882546 -0.048592754 0.56800604 -0.34594634 1.0010958 -0.103592955 0.45178354 -0.31898353 0.084710814 -1.1438066 0.058470085
597 -1.6691021 -0.76556444 -0.64431036 -0.3040172 -0.5472587 0.744027 0.45053476 -0.7782291 -0.049141105 0.54080945 0.14628378 -0.1653134 -2.1473079 0.8053867 -0.6873522 0.49026647 -0.46073803 -0.38783565 -0.09568672 -0.6932337 -0.8449081 -1.1741577 0.18594344 -0.29978943 1.1786623 -1.1255884 0.26462188 0.7227517 -0.49427828 0.90863395 -0.2320416 -0.21461134 0.61781967 0.21774513 -0.09619137 0.31420925 -0.9633606 -0.12441748 0.090610944 -0.15758818 -0.5415601 -0.56462985 2.1809032 0.6119447 0.10464536 -0.44923943 -1.3284363 0.2869029 0.49925736 0.035502676 0.48686108 0.13522439 -0.5311727 0.775592 -0.3284203 -0.07350418 0.43302217 -0.5427927 1.2195574 -1.494389 -0.6348611 -0.5471253 1.3423396 0.2823454 -0.28911445 0.9235626 2.026019 1.1214211 -0.040320866 0.52602947 -0.1428158 0.21465217 0.9681865 -0.06706549 0.44104552 0.97784114 0.09805891 -0.28363803 0.18264544 -0.6247632 -0.6456573 0.10521871 0.41977367 -0.0060648886 -0.08232225 -1.541409 0.21464124 -0.8679739 0.08936201 -0.90190136 -0.2624226 0.9606728 0.8943097 -0.89319307 0.697243 -0.7736211 -0.06299841 -0.07049079 -0.009898385 -0.6275781 -0.20220031 0.32726705 0.02129013 1.0155241 -0.030019715 -0.6927394 -0.79492474 0.36786374 -0.119457014 -0.22820248 -0.14372273 0.78868663 0.4448675 1.5914807 0.13642797 -0.5136242 -0.76937485 1.1972945 -0.30763718 0.71068764 -0.52468514 0.80734044 -0.32829666 -0.602839 -0.7545887 -0.27153236 0.14602429 1.3122808
248 0.18572143 -1.0007602 0.8125894 -0.3551859 -1.917654 -1.0582598 -0.55802155 -2.4592931 0.51354283 -0.85874337 0.19997519 -1.099213 -0.9329526 0.79602426 1.7954344 -0.16099997 -0.57150704 -0.21247807 -0.64520776 -1.0082699 -1.1125348 -0.037577 0.85268885 -1.9898081 0.9844364 -0.28464767 0.16131163 0.58827704 0.99114084 0.7650028 -0.0021832811 -0.83659726 0.17764874 -0.6320463 -1.0027845 0.14067726 0.1154061 0.43607226 -0.027972423 -0.20978709 -0.047203157 0.17577225 1.4826336 -0.39743498 0.6967627 -0.50441957 -1.2508684 -0.6039651 0.4743897 -0.17454465 -0.5125647 0.42573497 0.59957737 -0.22124138 0.029331408 -0.08710057 0.08176632 -0.2850763 -0.27629846 0.66055274 0.3688707 -0.77951866 0.30555135 0.23031367 1.0301167 0.71168476 0.30490944 0.6171388 0.87879246 0.010865527 -0.009923363 -0.5432272 0.69845325 -0.9278949 0.6951402 -0.22376508 -0.25556737 -0.31736547 -0.9629051 0.23620518 0.5040243 -0.12235138 0.6481261 -0.6287531 -0.110707015 -1.031772 0.8951793 0.854679 -0.44066027 -0.12421213 -0.30136243 0.8388427 -0.4449151 -0.23615375 0.5229937 -0.8941438 1.1488951 -0.41116047 1.293884 0.5097486 0.12042406 1.0663974 -0.52483284 1.1719368 0.077932805 -0.4692602 -0.03752159 1.2655859 1.0300237 -1.4475602 -0.5589443 1.60742 0.21205217 -1.4393121 -1.2939918 -1.522167 0.20584151 1.1176533 -0.59792984 0.6582236 0.33072612 -1.1388655 -1.7662605 -1.0172464 1.231406 -0.09160976 0.66430175 1.1427195
603 -1.518726 -0.71525896 -0.32072988 0.45410138 0.5915764 0.344982 -0.15229374 -1.1649675 -0.3151091 0.041464753 0.40820858 -0.025322394 -1.0745678 0.43348557 -0.96857816 0.9955681 -0.10157803 -0.29150242 -0.3498653 -0.65501803 -1.1873118 -0.85025704 1.8407047 -1.6520693 1.1536989 -1.1604462 -0.36903137 -0.28438243 -0.6957414 0.13105218 -1.2074486 -0.46928996 -0.042961646 -1.8154117 -0.027344512 -0.04214503 -0.270142 0.49681973 1.6725712 -0.99241835 -0.15115066 -0.3608264 0.7410327 0.31275192 -0.77090144 0.39781895 -1.5066512 1.1104153 0.54080015 -0.057526104 0.55618066 -0.3786617 -0.9253266 0.32347816 -0.65753216 0.08172046 -0.34781504 0.13134709 -0.578061 -1.0146582 0.82353175 -0.21446788 0.80907655 0.23389588 0.09535023 0.20246795 0.98086286 0.93342227 0.133827 -0.28493607 -0.8724601 -0.19028962 0.21630807 -0.68014926 0.19184534 -0.19617873 0.7484463 0.6580856 0.26122576 -0.3560034 -0.09990529 -0.28288203 0.7369521 0.28004116 -0.23027132 -1.74776 1.2155626 -0.5000642 0.97564036 -1.4304101 -0.015800826 0.5735682 0.9171025 -0.0028311787 1.3254046 0.14984201 -0.9625804 0.2958328 -0.71934587 0.6190068 -0.3930975 -0.113969035 0.56392217 0.8597221 -1.4505765 0.45916963 -0.7158425 0.86431324 -0.17240539 -0.50157523 -0.23725827 1.1602815 0.82012075 0.7673925 -0.2692778 -0.8617748 -1.1376863 1.762732 -0.9039745 0.77712804 0.03937217 0.13099441 -0.766404 -0.70785594 -0.3159338 -0.87518066 -1.6029844 0.036986157
116 -1.3320599 -0.6715923 0.5893112 0.1229117 -0.98560107 -0.26171887 0.29192957 -1.9377431 -0.07645209 -0.2883512 0.67794746 -0.27249792 -0.75992525 2.1792963 0.050888795 0.7585316 -0.34299764 -0.6421143 0.21870954 -1.3970646 -1.4900411 -1.0759057 0.2360553 -1.1938622 -0.01053743 -2.0870783 0.797045 0.91126513 0.49512315 0.6655036 -0.567842 0.20108402 0.3451033 -0.14395954 -0.12806636 0.700235 -0.3033424 0.42305183 -0.34399793 -0.80336004 -0.05947507 -0.121530615 1.5351087 1.599898 -0.31840867 -0.9986055 -0.68717426 -0.42848435 -0.29929924 -0.076747894 0.0840852 0.35330462 1.20023 0.7397947 -0.7581829 0.6367232 0.18645667 -0.15774135 0.8551672 -0.50782204 -0.07459022 0.014746396 0.67260116 0.4078291 1.147323 0.86132765 1.4301645 1.6838628 -0.03186398 0.20358662 -0.7358116 0.120411776 0.39525986 -0.6204419 0.66898155 0.9268001 -0.37691516 -0.659682 -0.75845706 0.5552694 0.40168005 0.14546882 0.07563134 -0.49680093 -0.24867938 -0.6372688 1.470864 -0.70153344 -0.14424561 -1.9985435 -0.8640159 1.1861963 0.37285414 0.30091062 0.8137021 -0.39122716 0.89530265 -0.10049677 0.37197736 -0.2550757 -0.38574302 0.26611584 -0.73151666 1.0266682 -0.5583805 -0.92721516 -1.4111003 -0.31560665 0.19156735 0.59882903 0.8157717 1.8164359 0.57607085 0.24140047 -0.042485032 -1.290371 0.18182173 1.4987674 -0.7790213 0.86664844 -0.4707836 -0.6958679 -0.28735852 -1.2853316 -0.22193898 0.49798 -0.5472537 1.045271
374 0.43680114 0.608996 0.22538528 -0.6956355 1.1712241 -0.38346842 0.6803766 1.6099142 0.015731905 1.0088261 0.12664111 -0.23840444 1.6127851 -0.64656055 -0.7728768 -0.7664471 0.20571575 0.38250598 1.5854595 0.33201864 0.8943225 1.1836319 -0.45802906 0.46385762 -2.2133815 1.4877702 -0.026197271 0.64264053 -0.91536534 0.03978946 1.2248781 1.1408632 -1.1550941 2.4819705 1.185299 -0.11400941 1.0620488 -1.5704769 -0.34378192 0.8407377 -0.26908717 -0.19695419 -2.358905 -1.7415267 -0.57028586 0.34999725 1.4423326 -0.9622658 -0.9902336 1.6826528 -0.4560155 -0.7672627 1.0776798 -0.09087851 1.5003066 0.26847625 0.14847286 -0.16179815 0.93758225 1.8370222 -0.5599302 0.49178964 -0.49518913 -0.4965338 -0.18645774 -1.0677679 -1.458602 -1.4336976 -0.5690064 0.15388082 -0.06520546 1.1658342 -1.7880948 1.7586142 -0.29679006 -0.66123116 -0.30098307 0.011736926 -0.35639778 1.0270232 -0.4653161 -0.08796371 0.60268694 -1.2239537 -0.48333013 1.1716404 -0.5386658 1.391362 -1.3582976 1.0938509 -0.8178111 -1.2644022 -0.04712895 0.6040442 -0.79285794 -0.04142216 1.3289915 0.15400107 0.27055833 -1.8589976 -0.07287256 -0.43949032 -0.13633335 -0.41990855 0.5144679 -2.0991995 0.61376446 -0.4153104 -1.7521832 0.7296805 -0.15161206 -1.1098547 -0.73410845 -1.2357422 2.0262043 2.2575793 0.21828201 -3.3208575 0.043335333 -1.7011056 0.5227711 0.6196601 0.086888514 0.011878065 0.16152138 0.25900996 0.07666132 0.84453404
434 -1.3169351 -0.99996865 0.38878098 0.24033949 -1.3863394 0.25296348 -0.2406558 -0.32472298 0.5236682 0.09327479 -0.2439864 -0.08262433 -1.9504079 0.19470893 0.24372424 -0.62297314 1.2003304 -0.5970461 0.00931124 -1.5237814 -1.9222192 -1.0923325 0.63070816 -0.83389837 0.17143522 -1.1211212 0.55829275 0.8758296 0.47681907 -0.22134036 -0.2495263 -0.22997701 -0.68018556 -1.0192099 -0.7677567 -0.8982394 0.16055512 -0.45094773 -1.061826 -0.23939751 -0.4857917 0.08012885 1.1544554 0.18735145 -1.5558853 -0.77374154 0.029411197 -0.45549417 -0.38596314 0.7210292 0.5042249 0.39773184 0.79858655 -0.13044764 -0.14378765 1.2242593 -0.24258554 -0.4915161 -0.05180928 -0.77661574 -0.039502103 0.04068642 1.2958139 0.4451425 0.22376162 1.0996357 0.8510498 1.2695872 -0.21913739 -0.11024026 -0.7888822 0.72031915 0.56232023 -0.88249224 0.66097504 0.30128574 -0.49346063 -0.5249261 -0.6456994 0.5644735 -0.30998382 -0.8570229 0.66235536 -0.42964286 0.43033516 -1.2294364 1.5640161 -0.47933307 -0.049112134 -0.32985136 0.033576503 0.28793338 0.91405106 0.047211654 0.45021203 -0.06934886 0.56925607 -0.94333684 0.29897675 -1.0312942 -0.072081506 -0.2167289 -0.58994174 1.4697149 0.0045878636 -0.5638942 -1.4707433 0.71912104 0.29659453 0.2612325 0.6480464 1.3815459 0.07518568 1.2920922 -0.60776573 -0.73013765 0.5826229 -0.1446262 -0.4138357 0.1953042 -0.88093376 0.11188997 -1.3603457 -1.0260917 0.19113347 0.04317164 -0.22511026 0.42287073
550 -0.0015492011 -1.1264431 0.19190548 0.2091788 -0.77897066 -1.0426712 -0.123432934 -0.771657 -0.2215639 -0.8766563 -0.17453969 -0.66046715 -1.9920098 0.28865987 1.3106012 -0.7115015 0.32138336 -0.2375893 -1.0583491 -0.28852034 -2.1410816 -0.5321612 1.599041 -1.5078255 1.0653175 -0.82068205 -0.20551056 0.5402552 0.52159196 0.3402023 -0.87256134 -0.90682125 -0.8863301 -0.8678444 -0.12318575 -1.3185155 0.23315825 -0.47867012 0.7241183 -0.6839746 -0.1516414 -0.42253092 2.2097886 -0.020332167 -1.0439879 -0.30307025 -1.110881 -0.20490232 -0.18931772 -0.0119124595 0.72510725 0.93133974 0.14303462 0.20529507 -0.017239673 -0.2267678 -1.5875183 -0.07556494 -0.4611248 1.2089179 -0.12102596 -1.0235565 0.6416059 0.23593318 0.33423075 0.9906771 -0.6818109 1.181243 0.6342593 -0.69293475 -1.0148659 0.072517395 0.37596965 -0.9614495 0.6354599 0.5770523 -0.92774475 -0.12722436 -1.2188425 -0.8721251 -0.13489546 -0.033112634 1.0581802 0.11241721 -0.096382014 -1.463819 1.7205228 -0.83575505 0.22402307 -0.062592 0.5901027 0.73729295 0.46677867 -0.9560102 1.6534411 -0.74285895 -0.23935427 -0.6909816 -0.7879689 -1.0784868 0.08289793 0.42626914 -0.57914144 0.77721685 -0.60083956 -0.33679786 -0.61042947 1.4168388 0.97604585 0.426654 0.77166325 1.2217752 0.07207177 -0.39140123 -0.4856957 -0.77905655 0.80309546 -0.2297047 -0.680675 0.47898722 -0.3034013 -0.3829691 -1.8069843 -0.85457236 0.9543658 -1.3047494 0.22375627 0.63230747
151 -0.8694275 -0.9116242 -0.5354914 0.04181683 0.07554138 0.48375005 0.87397784 -0.67258644 -0.8447309 -0.37808454 0.3729828 0.47230345 -1.1297774 0.7977257 -1.2541617 0.5995367 -0.36054838 -0.90693897 -0.57025576 -0.008841445 -0.20171337 -1.1290225 -0.35925108 -0.82516026 0.6923062 -1.4531003 0.5529812 0.34555155 -0.5770238 1.1507477 -0.31241783 -0.22996852 1.0085139 -0.31136316 -0.109705955 0.7011237 -0.52857167 0.33749744 0.39196283 -0.10563404 -0.33162478 -0.3633297 1.7145945 0.80605155 -0.42128316 -0.09474488 -0.21261849 0.63862216 0.33428603 -0.6926161 -0.4821295 -0.16473258 0.17958415 0.1863286 -0.70078963 -1.0484108 0.66756445 0.07126136 -0.010994957 -0.57652086 -0.5606849 -1.0713475 1.0632119 0.3306842 -0.18830113 1.3423901 1.7486241 0.38945696 0.5688113 -0.001367598 -0.32998702 -0.64736235 1.13967 -0.38814607 0.4292173 1.2252156 0.13162251 0.8468938 0.692472 -1.4767942 -0.18843462 0.00871597 -0.16433214 0.49228293 0.13143235 -0.39248726 -0.5648939 -0.98651546 0.63981414 -1.6549008 -0.10197218 0.3969679 0.7345217 -0.2253715 0.8219205 0.098048635 -0.5088393 0.061764907 -0.115280405 -0.07774823 -0.22762667 0.5573181 -0.0400646 0.6170009 -0.039263908 0.14986946 -0.7323786 0.039313246 -0.31198922 -0.7220586 0.26522607 0.40016946 0.26199827 1.6444987 -0.435903 -0.53121024 -0.8811005 1.5500683 -0.18478686 0.41264957 -0.044500448 0.9194301 0.9551477 0.5789533 -0.5949858 -0.27146322 -0.08779397 0.8229881
545 0.28083324 0.32147813 0.36198696 -0.7526926 1.0687653 -0.41470063 0.73779327 1.3578818 -0.095506065 0.9174453 0.11632602 -0.33583456 1.4633818 -0.37653047 -0.86797917 -0.7808114 0.09114576 0.2507153 1.5270188 0.18368827 0.7246334 0.85285884 -0.4532733 0.21858057 -2.0292952 1.1322721 0.21062624 0.6830826 -0.91537595 0.22231877 1.088459 1.0543481 -1.1163114 2.3495913 1.0444951 -0.063855134 0.91848624 -1.5771224 -0.32742354 0.6801947 -0.3181767 -0.23871668 -1.9984844 -1.6119354 -0.74687815 0.26667902 1.286336 -1.0317863 -0.9860105 1.6786728 -0.4098534 -0.79741466 1.0980858 -0.13067582 1.3517247 0.31761602 0.2220294 -0.21219614 0.86185944 1.6260449 -0.5990397 0.44828013 -0.3098738 -0.3804703 -0.06693713 -0.88852435 -1.2366686 -1.2794195 -0.41614845 0.03831322 -0.08549162 1.1262784 -1.6081076 1.5105445 -0.22616719 -0.45699105 -0.31257072 0.05013705 -0.3850735 0.881596 -0.5196533 -0.10079072 0.70050967 -1.2805823 -0.5707027 0.94950163 -0.27469325 1.231761 -1.367471 0.93434805 -0.9717313 -1.0595571 0.10377425 0.6060641 -0.6010289 0.010338852 1.3046148 0.19278054 0.27062038 -1.9577572 -0.03618339 -0.33337668 -0.24418846 -0.2218361 0.518483 -2.1122978 0.44526663 -0.3881055 -1.7098169 0.6382756 -0.039540686 -0.90930635 -0.65351075 -1.0807374 1.8912239 2.1429775 0.26397222 -3.057364 -0.064665005 -1.6638014 0.50675637 0.63606143 0.07529645 -0.066755384 0.10691019 0.31720787 0.0103944875 1.0035305
446 -0.35384226 -1.3321618 0.0973991 0.9994074 -0.17223744 0.24359252 0.10003173 -1.1375579 -0.317381 -0.349531 -0.32533365 -0.23839328 -1.708182 1.0580312 -0.74690646 0.1576972 0.355632 0.053685237 -0.32231084 -0.5684773 -1.465366 -1.02181 1.194297 -1.3196989 0.280646 -1.091351 1.0029233 -0.3042088 0.17888318 0.60537475 -0.8055805 -1.0439026 -0.044080995 -1.4109851 -0.7696366 -0.2734008 -0.47671565 0.46640095 0.7042258 -1.2234836 0.13206057 0.34685394 0.3693964 0.49442357 -1.1349937 -0.68228775 -1.3309344 0.738595 -0.05087401 0.07492031 0.59264165 -1.034681 -0.19990197 -0.36481607 -0.44531217 1.3308887 -0.261786 -0.27047813 -0.98693216 -1.6591322 0.44878873 0.05260283 1.5428462 0.78312117 0.045807023 -0.4496371 1.4754523 0.14947404 0.41830888 -0.33017015 -0.8498735 0.2062135 0.60860693 -1.4233003 -0.30728573 1.5218745 0.475956 0.2567104 0.46221355 -0.024451947 0.09735273 -0.42253712 0.9446075 0.6546999 -0.033471387 -1.0279614 1.9154439 -0.6945381 0.8303569 -0.5723342 0.30465513 0.24349314 0.9301546 0.40080518 0.39197698 0.78796643 -1.418601 -0.36951715 0.5739447 -0.27440885 -0.39902854 0.31418866 -0.19392468 0.58818597 -0.68577373 0.2943275 -0.54612654 0.10688008 0.25424248 -0.5912944 0.87766665 0.7445076 0.9984064 0.24075885 -1.6562363 -1.0068393 -0.8924806 1.1147058 -0.51836544 1.3134819 -0.003713055 -0.6190796 -0.41129237 -0.43370226 -0.13664758 0.031489745 -1.2208555 -0.09669669
555 -0.9507424 0.5731397 0.15094121 -0.96201444 0.37642795 -0.4152645 0.28679404 0.089817464 1.3353829 0.61370105 0.8754621 -1.2399347 0.5218971 0.26552767 0.6911737 -0.44652206 -0.64500535 -0.16767319 1.3362572 -0.30334967 -0.85673666 -0.59050083 0.8932236 -0.73460865 0.83156306 0.292323 -1.7288939 -0.63859427 -0.20792522 -0.84491414 -0.88635004 -0.79577136 -1.4139119 -0.4266199 0.54230535 0.4172976 -1.9571687 -0.18486279 0.97348726 -0.995198 0.5311695 -1.5569153 0.13161287 0.8245879 -0.04600442 -0.14602144 -0.8623266 -0.8979621 0.47219962 1.0956864 2.0272114 -0.16443242 -1.2475814 0.4269377 -0.7991782 0.78806525 -0.717899 -1.2240947 -1.495719 0.574346 0.49500754 0.6301832 -1.9044857 0.015909968 0.2211857 -0.26000702 -0.952006 -0.14918828 0.35166958 -0.6381561 -0.9071121 -0.39933267 -0.2575742 0.027866673 -0.56288147 -2.1267173 1.9324195 -0.14177254 0.15860839 0.585475 0.7843684 0.51169556 -0.15730475 0.33787832 -0.45582741 -0.9145318 0.7691244 -0.72678745 -0.6020991 -0.49498507 0.43579802 0.34298173 0.90950036 0.026938321 1.704269 0.17480204 -1.2292296 0.25393638 0.010476198 0.51247007 -0.19191554 -0.50035983 0.13905713 1.1005585 0.0794723 -1.0963744 -1.2326932 0.26965663 0.019441053 0.10710289 -0.633376 2.1022677 -0.9108707 -0.14302778 0.26760352 -0.243143 -0.897706 0.37492839 0.011911984 -1.2333411 -0.453718 -0.72198963 -0.55548525 0.00433701 1.3089623 -0.051568337 -1.8643183 0.4383141
230 0.42046773 1.2609076 -1.4305507 -0.34048247 0.7297393 0.07011194 1.8597567 1.179965 0.6138984 1.0331321 0.9704857 0.35557002 -0.637653 -0.3427053 0.0014164677 -0.8097558 1.2006894 -0.024510888 1.6252158 0.09118844 -0.14094292 1.96253 -0.255286 0.07555861 -0.8085409 0.025648551 -0.8605992 0.51197743 0.49679315 0.026110454 1.7355483 0.8984837 -0.32139182 -0.014888977 1.4950498 -1.4310032 -0.11529904 0.08302807 -0.27678835 0.46851417 0.5656292 0.07887539 -1.9710076 0.79064035 -0.7405705 0.4265185 0.756386 0.49273688 -0.46382087 -0.14384374 0.445172 -1.4096134 0.7732178 0.4134629 1.1044153 0.9030992 -1.0433276 0.9589595 -0.12741579 1.1445321 -0.27505302 0.99377865 -0.11938457 -0.37161195 -0.8378196 -0.25275552 0.08304833 -0.35381615 -1.7152389 0.793871 -2.280141 0.16331509 -0.61511314 1.1283313 0.8719321 0.5402383 1.5367188 -0.106889285 -0.05660464 0.382544 0.75949544 -0.6756879 -0.03135545 1.9418546 0.39174902 0.4955213 -0.24941388 -0.3278839 1.3543555 -0.66324365 0.75726956 -1.0203491 0.6310702 -0.85073876 1.3961645 -0.60052514 -1.4757969 -0.81262326 -1.3112918 -0.7688528 0.3819712 -1.5786779 0.13351522 -1.6743892 0.1415955 -1.5931144 0.57141703 -0.25659046 -0.3922953 0.9116443 1.3406175 0.013541214 -0.32490307 0.8509578 1.1173954 0.82164 -1.6655293 -2.373489 0.5057253 -0.33371547 -2.0260084 -0.97293055 -0.5549287 0.21245891 0.8659281 -1.152136 -1.1720568 1.334718
491 0.6045024 1.6817998 -1.3166937 1.2055038 0.8036201 0.259313 -0.3554868 0.93468916 1.731944 0.0783906 -0.022544637 0.4278068 -1.8665092 -1.3695924 0.5903584 0.9567662 1.3022096 0.3183898 -0.5140215 0.05699398 -0.1137141 -0.035933662 -0.0369333 0.88784367 -0.29701865 2.7445056 -2.0309322 -0.0069655417 0.450611 -0.56960005 0.89220613 0.9079151 0.64240247 1.1235669 -0.021457873 1.0817797 -0.7387833 0.7811803 -0.5238458 0.61804897 0.5861376 1.4376805 -1.1202884 1.0235504 1.7233243 -0.4065471 0.765026 0.79690063 0.8640278 -0.07371623 -1.0108575 0.0029606156 -0.29542953 0.6867096 0.4716853 -0.21490365 -0.47990274 -1.2793248 0.4447327 -0.3735633 0.9133344 -0.45466062 -0.27573845 0.23136729 -1.195425 0.38835543 -0.13030586 -1.0981086 -1.1686519 1.8621633 0.2517434 1.5008873 0.46746236 0.5511776 -0.49081042 -1.141975 0.55923283 0.8311005 0.6589051 0.4066143 1.0293691 0.10435316 -0.38949662 0.4220993 0.19645752 0.9089335 -1.7980453 -0.20325536 0.8226469 -0.010978566 1.2824719 -0.7395139 -0.4724889 1.3095057 -1.1335034 0.15085045 -0.0922612 -0.45454633 1.1988217 2.2074318 -0.7850699 0.17615655 0.011920612 -0.4070667 1.2048374 -0.7387217 -0.8160959 0.018806241 0.4497612 0.054048512 -0.44806004 -0.04588646 0.5343686 -0.039321613 -0.41546816 -0.48573667 -1.1505889 0.114269145 1.2107028 0.5195405 -0.22765914 -0.37491047 -0.4445984 1.0489316 0.3948161 -0.5042816 -0.12903686 -0.14766029
154 1.721167 -0.24496391 0.5649727 0.58460927 0.6937173 0.029144498 -0.15383732 0.032857027 0.6542933 0.991023 0.26327938 0.31452277 1.420921 0.48879638 -0.23047096 1.5367417 -0.34984735 0.21654402 1.5476674 0.11659294 0.7484498 -0.049229816 0.18749566 1.4026778 -0.4555286 -0.21099378 -0.5635362 0.5795807 0.7399543 0.94327456 -0.346187 1.3275489 0.91186607 0.760233 0.33794293 0.095875524 -0.85642666 1.4082594 -0.89013636 -1.0278404 -0.7306349 0.42051387 0.37132353 1.2229148 1.1417148 -0.11052053 -0.6743564 1.0455078 -0.89231503 1.1754518 -0.0033852397 0.82889634 -0.14539047 -0.012234433 0.7951199 0.26847237 -0.27063128 0.24293512 1.7832055 0.66611207 -0.8501684 -0.0033934494 0.361301 -1.2230603 0.54834986 0.10134937 0.50082 0.22462417 -0.6191008 1.0509543 -0.1552859 -0.13307235 -1.421494 0.4449094 0.22746709 1.7976549 -0.7881064 -1.5887288 0.33466282 -0.13453515 0.24193975 0.07030128 0.4717609 0.28710955 -0.28864184 0.61794114 0.31271422 0.031298965 -0.12731144 -0.7110947 0.58478254 -0.6994928 0.22616087 -0.11003446 0.14330958 0.07965861 0.51212335 -0.020027848 -1.2680012 -0.8080468 0.16105033 -0.13116336 0.16832663 -1.5480798 -0.5359935 -1.0823865 0.1528408 -0.8179827 -0.77382255 1.0617731 0.80431116 0.0712623 0.89697826 -1.107271 1.9412005 0.5118278 0.1240706 -0.8904136 -0.100740544 0.24490893 -0.39233717 0.037818346 1.0313615 -0.031559393 -1.8108636 0.19037849 1.1094056 1.4354197
352 0.42306703 -1.0149987 1.6457769 -0.18297827 -1.4422213 -1.263449 0.17905496 -2.5544367 -1.1157163 -0.36855963 -0.56158674 -0.99293816 -0.022727463 1.3957063 -0.2872333 0.050618198 -0.9915066 -0.3559596 -1.0453523 -0.5275059 0.38620624 -0.49882463 0.7327685 -1.3074825 1.7471541 0.6111219 1.050144 0.3833981 0.29879192 0.7148151 0.34249553 -0.72801656 0.9610049 0.56186986 -1.6240977 -0.09927224 -0.1152033 -0.12634197 0.3747368 -0.39458352 -0.317137 0.18407945 0.8166877 -1.688166 -0.039134584 0.39121556 -1.0273743 -0.37305757 0.12236256 0.84385747 -0.87161994 0.29169086 0.13603173 -0.14887172 -0.6655768 -0.45693645 1.0702224 -0.2584625 0.4894193 -0.13897581 1.4724365 -0.71043277 -0.19273122 1.1675117 0.8740704 -0.035324767 0.4942609 0.24343818 0.5210613 0.7763594 1.1817526 -1.0110908 0.14640972 -0.64811724 0.996008 0.1041074 -1.0940933 0.38950184 -0.8873786 0.6624441 -1.0995221 0.23729448 0.14812621 -0.4850305 -0.7605381 -2.2722356 1.3223504 1.5685912 -0.5716816 0.64717937 -1.0476947 0.67828274 -0.47583032 0.31546444 -0.21137927 0.35714653 1.4720201 0.41969627 0.8561143 -0.5799882 0.70335394 1.9642379 0.03851155 0.41453946 0.5299114 -0.1296533 1.4627185 1.2744635 1.1383153 -2.4131012 -1.0631975 0.43786076 1.0054371 -2.581867 1.1052233 -0.087328516 0.78770894 0.8077448 0.06490152 -0.5616689 0.8073702 0.85062546 -1.3685503 0.0076434864 -0.25826126 -0.048888024 0.73926663 1.3169738
576 -0.456672 -1.5747406 -0.020864125 -0.07918189 0.032773454 0.018098712 0.36639842 -1.9204315 -0.14973389 0.79353577 0.43265218 -1.022033 -1.7066839 0.87001926 -0.7604177 0.037821114 -1.1719486 0.25179836 -0.52758217 -0.35263744 -0.6010974 -1.4828707 0.04527661 -0.9285511 1.3953258 -1.7535627 0.37359005 -0.29649347 -0.59969234 1.8642313 -0.4350997 -0.5378832 0.2989765 -0.38908932 -0.013870696 0.13300502 -0.3860953 0.649098 1.0813959 -0.5373508 0.2832027 0.16702826 -0.13856019 0.93888324 -0.7576966 -0.45535937 -1.2418487 1.1061096 -0.13291228 -0.79116493 0.65251946 -1.775957 -1.2141616 -0.27834994 -0.1724764 -0.61459804 -0.5919723 0.8794049 -0.6863936 -0.6608802 0.30028695 0.049509052 1.9868455 0.59155196 -0.33299187 0.07958593 1.1923119 0.8304795 -0.30629304 -0.95312583 -0.3946039 0.1932545 0.4080225 -1.1702838 -0.06771508 0.7887661 0.97508746 0.7004667 0.08350715 -1.0553881 0.41874418 -0.06328511 0.4197173 0.79617906 -0.84834945 -1.1041408 0.7769494 -1.7206445 1.2820313 -0.43627337 -0.27841496 1.2786738 0.75495774 -0.7262975 1.164114 -0.4771354 -1.2482339 0.14649558 0.68354106 -0.25768015 0.22471718 -0.29191136 -0.112459786 0.41009837 -0.97932076 0.5025899 -0.4467955 -0.2796538 0.101185925 -0.2738024 -0.19651279 0.28903264 1.3900646 0.8772361 -0.86906993 -0.7358424 -0.99225885 1.5275819 -0.27246413 1.7213194 -0.8841357 0.10895915 -1.0516241 -0.7798565 0.013592896 -0.1991486 -0.14892109 0.6003357
601 -1.4822206 -1.0972322 -0.9761012 -0.2857904 0.16615702 1.2058532 0.78075534 -0.6565991 -0.6665478 0.4370439 0.40157208 -0.39275506 -2.3416173 0.64406717 -0.7766773 0.108665265 -0.27736014 -0.07981822 -0.22761345 -0.0069664014 -0.89544964 -0.9138362 -0.81201816 -1.2242515 0.97809696 -1.7700992 0.7319992 0.06520855 -0.796127 1.6692122 -0.28079075 -0.8649131 0.7327673 0.6622813 1.1141621 0.8291491 -1.2246902 -0.40849876 0.65695 -0.011386921 -0.20575608 -0.94202644 1.0196629 0.89878446 -0.14370504 -0.19521855 -1.9246022 0.7340716 0.4737206 -0.5779188 0.4201952 -0.8171892 -0.75164664 0.5204447 -0.334775 -0.75036585 0.30640924 0.07040339 1.0243548 -1.3145822 -0.26939273 -0.038162023 1.2301129 0.6090719 -0.59157664 0.6663406 1.8624666 0.9276473 -0.45624045 0.7177757 -1.0045826 0.45767078 1.4603059 -0.7435683 -0.23826522 1.1116266 0.658838 0.42003134 0.04315469 -0.86010385 -0.4464175 0.40299308 0.37054327 0.25709054 -0.5408712 -1.1668156 -0.4598642 -1.1513901 0.9026774 -0.88667697 -0.57447726 1.3182379 1.1741829 -0.7796051 0.84637463 -0.9327932 -0.5381753 -0.33320466 0.17329344 -0.56605875 -0.49372548 -0.04228975 -0.44219843 1.0292504 -0.70172834 -0.32134312 -0.15767103 -0.33824632 -1.0577041 -0.4563675 -0.49040565 0.085619256 0.9538686 1.981862 -0.45213845 -0.08888174 -1.5408635 0.99176335 -0.15035604 1.3832991 -0.653559 0.5037401 -0.17181772 -0.37821284 -0.31971526 -1.2726521 -0.717831 1.3652773
485 1.1314203 0.4326179 0.5543668 0.48722252 0.56020147 -0.21173741 -0.9110818 -0.5097164 -0.5456697 0.4516621 0.72440183 0.8378068 0.7590458 -1.3911853 -0.4724704 0.4938846 1.0399182 0.6222234 -0.1613241 0.27795252 1.273703 1.7927845 1.0930711 -0.6617393 -0.93653667 1.371726 -0.23816922 0.4577836 -0.0103459 -0.2864706 0.28393668 -0.26338315 0.34493917 -1.1754909 0.08577313 -1.5182533 2.6053753 -0.13216875 -0.8456333 -0.04310399 0.40989938 1.530946 -1.7064469 -2.0273032 0.002636758 0.18767454 0.26925212 0.7919867 -0.4015694 0.30810806 -0.2517648 -0.24739526 0.7506634 -0.9239694 1.8893706 -0.38602084 0.33303174 2.2289228 -0.22411981 2.4371562 -1.0074222 -0.9494325 1.166183 -0.8872131 -0.57369584 -0.5787217 -0.35592195 -1.1034126 -0.93727815 0.046217 -0.8658921 -0.21237779 -1.83219 1.6877097 -0.23691882 0.3336946 -0.56718427 -0.19030586 0.40000215 -0.28605542 0.7636526 0.23380682 1.3437086 0.71476924 0.748405 1.5990726 0.20786044 0.66124976 0.062153175 -0.16644196 1.4959782 -1.6527069 -0.59875953 -1.0394137 -0.35590643 -0.24110405 0.18537453 -0.22461483 -0.17303169 0.46975502 0.42407095 -0.7133808 1.1240352 -1.5800982 -1.4071317 0.07969568 1.2316343 0.5579101 -0.10467658 -0.153679 -0.8776683 -1.2960219 0.55256844 -0.54797256 0.2615175 -0.43705365 -0.61383766 -2.1017087 -0.40391552 1.2151233 -0.09114843 -0.12070911 -0.705994 -0.3197323 0.18428412 0.008538958 1.269596 -0.32588866
526 -1.2780725 -0.9894404 1.7735505 -0.856631 -1.6497104 -1.3575832 0.79139704 -2.4179354 -1.1390418 -0.32348084 0.8379133 -0.89483047 -1.1059526 0.9221819 0.266597 -0.7584352 -0.9338718 -0.49479842 -1.183798 -0.0961688 0.48691082 -0.57899934 -0.3975717 -1.6604574 1.6731015 -1.2566781 1.8004544 1.6190461 0.03605057 -0.0015896405 0.77932674 -0.18140927 0.16797666 0.61888504 -0.8698681 -0.13372737 0.18896385 -0.63409084 -0.9626522 0.6426891 -0.35401028 -0.80142015 -0.31527618 -0.67274857 -1.0138558 1.8377566 -0.7913622 0.07898651 -0.08750667 -0.22459373 -0.6059252 -0.6928364 0.42158663 0.08418828 -0.14499094 -0.7143134 1.6684989 0.34606594 0.42592868 0.07168855 1.17162 0.2005018 0.48944846 1.622523 0.61652887 0.77304816 0.7669877 1.0409951 -0.27712557 0.74678785 -0.29148546 -0.2090848 -0.17203346 -0.8566634 1.3970346 0.16494687 -0.012546055 -0.13844503 -1.1117047 0.9284706 0.3880211 0.35224453 -0.66384596 -0.5727967 -0.95543 -1.4112704 1.0007589 1.6417595 0.3726826 0.50844944 -1.8414549 0.8626242 0.0401668 1.0820569 0.0765719 -0.53675324 1.0925863 0.9016818 0.6831636 -0.8022525 0.63854325 1.2100453 -0.31945783 -0.3086158 0.9145923 -1.3969996 1.9598316 1.2846305 0.91127825 -2.8721073 -0.4909042 0.6664302 0.6953183 -0.5833367 0.8153907 -1.3822193 -0.028081147 0.20184708 0.19997846 0.542103 -1.1575824 1.031203 -1.2140068 -0.45192644 0.3776055 0.46817234 0.7161802 2.294371
58 -2.1065 -0.6994828 -0.55851763 0.13800265 0.39339602 1.1015046 0.8924063 -0.33264223 0.21537106 0.6186974 -0.15419395 -0.36187115 -1.1799192 1.0842417 -0.6401972 -0.11176644 0.44085014 -0.74614286 0.5585398 -1.1003002 -1.7182071 -1.0068992 0.45717332 -1.7771249 0.0032638623 -1.2834513 0.7959413 -0.15562779 -0.5931754 0.15708718 -0.53826696 -0.15332314 -0.1155982 0.1082385 0.24664752 0.48231888 -1.3135089 -0.20990817 0.24996564 -0.13916129 -0.48702985 -0.6734543 0.6733317 0.50128645 -0.82599777 0.1258217 -1.1308144 0.25974008 0.29175818 -0.12408255 0.37277 -0.39810824 -0.041363865 0.6219394 -0.55233634 0.466616 -0.0030085237 -0.039844602 0.48709723 -1.3471377 0.34554332 0.5929681 0.6793932 0.06842109 -0.2071338 0.20480593 1.5115684 1.1694483 -0.63837856 0.5531675 -0.80516154 0.39831635 0.49042362 -0.3528408 -0.11344408 -0.039158307 0.8851061 0.1971631 0.07665588 0.9814284 -0.3586252 -0.14004242 0.23868261 -0.58564955 -0.21595164 -2.1596558 0.83296555 -0.6266736 0.29767132 -1.0721743 -0.9963696 0.80041283 0.9246844 0.66530186 1.0479715 0.20914856 0.10327122 -0.24214236 -0.26586938 -0.09520139 -1.1478344 -0.32521904 -0.14839783 1.7942283 -0.2768818 -0.26097643 -1.0629683 0.24771863 -1.167459 -0.01567727 -0.22135708 0.83804333 0.69535905 1.884832 0.13634154 -0.24294527 -0.94677615 1.3383766 -0.6342757 0.1891262 -0.36012277 0.13454463 -0.13746636 -0.6426353 -0.41199377 -0.15795368 -2.0437906 0.82785445
235 0.5137631 -1.403616 0.43610173 -0.36239055 -1.1807398 -2.273245 -0.16946724 -1.9142148 -1.350334 -1.6383063 0.017692363 -0.72956866 -0.69652617 0.81091124 0.5426481 -0.024219172 -1.0593876 -0.21804138 -0.8338859 0.1658308 0.49184972 0.30486435 -0.08646372 -1.3260912 2.1329198 0.13729689 1.10678 1.0183876 0.17570263 1.0526762 1.1366965 -0.633907 0.7147141 0.5519357 -0.5068646 -0.640926 -0.36476716 -0.26097938 -0.15370199 -0.08992653 0.62454224 0.23965892 0.6440105 -0.6911263 -0.22656655 1.2931466 -1.4399143 0.9280972 0.26978928 0.45970562 -0.4938369 0.8185077 0.50272423 0.15307105 -0.45216334 0.08628328 1.269495 -0.6480814 0.56562096 0.6356048 0.5014075 -0.2029316 0.006747066 1.0969578 0.9131225 0.29335418 0.12066962 -0.5945353 0.46295795 1.112853 0.10663575 -0.32230195 0.26920587 -0.79157096 0.6073911 0.9397228 -0.44616604 0.061599918 -0.97774196 0.36937013 1.0402647 0.28826162 0.015055477 -0.84531087 -0.6836786 -1.4681287 0.92870665 1.4452496 -0.0018012413 0.9126971 -1.2637455 0.9251216 -0.18495674 0.5179209 0.695634 -0.47646135 1.2243602 0.51379126 0.24183188 -0.5254622 0.37022975 2.0592873 -0.8295344 -0.77140343 0.47793877 -1.5582693 2.328864 1.2181163 1.4566109 -2.244632 -0.30002132 0.66062516 1.3315557 -2.0837831 0.092545815 -1.2552342 0.28420275 0.08806874 0.24480106 0.057089332 -0.34482485 1.3168857 -0.8022251 0.17653367 0.7794197 0.39494783 0.65325093 2.5376694
264 0.7740672 -0.10663584 0.86013436 0.60760266 0.3147801 -0.2627714 -1.0201865 -0.7180463 -0.8798173 0.23437023 0.4235039 0.80961317 0.5714357 -1.1480231 -0.37303823 0.2722532 0.79886544 0.54023993 -0.7621893 0.29451025 0.9551725 1.0103282 0.88651586 -0.8906831 -1.0601232 0.46548343 0.3198821 0.3224669 -0.08316593 -0.036943316 -0.50733155 -0.5402049 0.41249734 -1.5328536 -0.36240298 -1.1533804 2.4782076 -0.111907735 -0.9348202 -0.18964857 0.26695406 1.4375921 -0.86311233 -1.696775 -0.11642422 -0.038660116 -0.021065753 0.481871 -0.3576729 -0.044318683 -0.37609908 -0.37095642 0.634491 -1.0204228 1.4470705 -0.39530006 0.6136809 2.2302725 -0.46194166 1.7247672 -1.0249217 -1.0132314 1.5224676 -0.48056787 -0.4370021 0.0999958 -0.17118247 -0.66462594 -0.62458163 -0.26733732 -0.7836128 -0.1988455 -1.4221824 1.0217361 -0.36756423 0.62290925 -0.71695274 -0.26328233 0.46816257 -0.71291506 0.55559057 0.3644469 1.4822375 0.5798879 0.5400073 1.4793003 0.47398788 0.18884541 0.10577316 -0.05264857 1.3617601 -1.3079221 -0.40257812 -0.92711884 -0.4880456 -0.23679702 0.086234614 -0.15859908 -0.053290606 0.64845943 0.24547677 -0.6652898 0.62378234 -1.0587758 -1.4740227 0.5132306 0.7028523 0.551907 0.1570118 -0.5003291 -0.8280027 -1.1363403 0.5823412 -0.033663835 -0.4524668 -0.566508 -0.30655077 -1.3621064 -0.5067339 1.7094879 0.1713251 -0.4058606 -0.45177603 -0.68587065 0.117823474 0.010823477 1.3768803 -0.33318093
179 0.2699293 1.8696046 -1.593257 0.2842545 0.29817715 0.5799009 0.20675918 1.2381146 1.6418753 0.28936154 0.46842638 0.37824187 -2.0306218 -1.1857953 0.7386105 0.05578708 1.9155258 0.27746934 0.23154765 -0.061461158 -0.5503157 1.020563 -0.6168456 1.0335073 -0.4261165 1.979488 -1.5332526 0.4532779 0.4393602 -0.5967727 1.632357 0.9292522 0.33644956 0.69953114 0.8558982 0.022809813 -0.22807749 0.27078933 -0.4161463 0.5655726 0.98210996 1.0189655 -1.4254986 0.6699531 0.86246854 -0.86439043 1.194784 0.08711711 0.5258083 0.113889836 -0.55818975 -0.5649237 0.12013 0.68339956 0.6740553 0.0980047 -0.8059324 -0.7942368 0.33598638 -0.12220819 0.6295573 -0.062249996 -0.35419542 0.07244058 -1.485493 0.17454508 -0.043938104 -0.7732761 -1.445129 1.3410026 -0.269582 1.1570297 0.55720156 0.87333983 0.11641963 -0.9795848 0.6910896 0.6620165 0.20388338 0.31610978 0.6935596 -0.5096051 -0.14872 1.1544704 0.68076247 0.94020337 -1.3488907 -0.4077887 0.8535884 -0.12740833 1.3957596 -0.75858384 -0.26359424 0.098199606 -0.5638653 -0.41015974 -0.43874118 -0.98950684 0.6000744 1.0470914 -0.19761713 -0.30051503 0.026540292 -0.54026425 1.0365629 -0.8322202 -0.35843948 -0.28345254 0.17682976 0.8346667 0.19100863 -0.19819835 -0.36728296 0.4456751 0.04214465 0.2471955 -1.1664258 -1.0292311 1.0845577 0.1285804 -1.1036307 -0.5124249 -0.9617284 0.52173847 0.91414917 -0.7845382 -0.41073877 -0.18064927
128 0.4577658 -1.7657042 0.015443824 0.96239895 -0.5199223 0.55621463 0.26642418 -0.73924583 -0.10428987 0.048320085 -0.8124138 -0.403562 -1.3248171 0.64646786 -0.14612457 -0.08345558 -0.552462 0.22534525 -0.2820102 -0.16503103 -1.3248487 -1.0251098 0.17858733 -1.2245588 -0.116417095 -0.9725075 0.9802492 -1.2652714 1.1175876 1.362062 -0.6429159 -1.1412812 0.8827978 -0.5243726 -0.7970441 0.33462456 -1.30779 0.72022706 -0.33623466 -0.6750803 -0.1786947 0.6337158 0.58509666 1.060831 -0.33735 -0.8300922 -1.7106667 0.14652014 -0.10077901 -0.16990036 0.74401027 -0.3037303 -0.27382553 -0.55267584 -0.5917634 1.4635811 0.061146744 -0.38938493 -0.7299413 -1.9070134 0.14062172 0.51170546 1.4415396 1.1918522 0.21424575 -0.18178667 1.6287208 -0.081120625 -0.24083452 1.1708987 -1.1576355 0.5401458 1.101398 -1.6887468 -0.5268131 2.1191947 1.0710062 0.033258896 1.0133202 0.13743979 0.5002317 0.049045935 0.6499336 0.86242765 -0.16485214 -0.6156057 0.8049191 -1.1824763 0.96171427 -0.034667857 0.81344044 0.367719 0.7407897 0.06446153 -0.3010816 0.39093578 -1.6298378 -0.73586136 0.7627782 -0.48921326 -0.38788453 0.30870542 -0.8659671 0.98989207 -0.1498226 0.73086035 -0.2546592 -0.047386333 0.24230532 -1.0816168 0.27750236 -0.14551993 1.6199702 0.72155684 -1.8825042 -0.39211747 -1.0191607 0.6278247 0.42950907 1.1878527 0.3338248 -0.94694674 0.14928082 -0.03760587 -0.07756622 -0.4691674 -0.8567778 0.6880894
254 0.5889802 -1.8766267 -0.0029755838 -0.19093306 -1.1216023 -0.40346164 -0.5747653 -1.4419544 -0.078567594 -0.30314407 -0.15785107 -1.1395826 0.08398762 0.24281473 0.6745629 -1.3247786 -1.0968245 -0.02601548 0.12694407 0.039711513 -1.1098046 -0.3271213 -0.43485212 -1.5682943 -0.6477806 -1.4925431 0.511835 -1.1710967 0.49338114 1.8867117 -0.9925313 -1.1505263 0.842168 -0.6757983 -0.18580796 0.8481082 -0.13523792 0.07876437 -0.34816957 -0.5386904 0.6663833 1.084944 0.81055295 0.3835326 0.24522963 -0.7678413 -1.1707826 -1.0945233 -0.47567558 0.34585753 0.24357791 -0.3130761 0.40329546 -0.72568476 -0.43698135 0.95515966 -0.3535892 0.05290391 -0.8804236 -0.7961395 0.18684715 0.5951189 0.68020266 1.4103913 0.346528 0.52270794 0.6891241 -0.4404977 0.46839362 0.48569012 -0.69125766 -0.106690414 0.76822317 -1.7223656 -0.027476441 0.6927833 0.028729785 -0.18872361 -0.22777581 -0.5293512 0.89671504 0.08789776 0.41009393 -0.070409775 -0.09273295 -0.23966523 0.41207176 -1.0940408 0.15000048 0.014580356 0.4226649 0.3484809 0.750438 -0.77050817 0.48374173 -0.35846525 -0.07221383 -0.73956305 1.2063193 -0.033896793 0.53027385 -0.008988311 -1.4826878 1.4473829 -0.64410037 0.672279 -0.35432202 -0.2494843 0.5429763 -0.7126363 -0.33892882 0.32397243 1.0242226 0.625918 -2.1430047 0.6264238 -0.22579508 0.5904092 0.6881736 0.8444285 0.6248906 -1.0748565 -0.63261443 -0.18828243 0.4547606 -0.4739428 -0.3044238 0.9553474
227 0.0067896293 -1.4434083 0.49398515 0.5709756 -0.5752744 0.15601833 1.0813897 -0.9276714 0.0004165885 0.81760645 -1.9366838 0.063529916 -0.3486659 1.5698835 -1.4536378 0.607086 -0.47305772 -1.1849682 0.10781483 -0.8956857 0.58669645 -1.5966525 0.8670551 1.169602 0.6044726 0.28337717 0.37429884 0.39886665 0.32138532 1.573303 0.3098242 0.8571989 1.2747837 -0.050720543 -2.549703 -0.2532822 -2.0185492 0.8973126 -1.1104268 -0.89093536 -1.7722888 0.99735016 2.6553974 -0.27635568 0.4714784 0.0207914 -1.0711612 1.1942874 0.34060338 1.3671906 -0.24812162 0.30899903 -0.63069576 -0.40827593 -0.50956964 0.8454405 1.1117935 -0.486558 1.2178743 -2.4642186 -0.13407661 -0.45545205 1.5857184 -0.45794758 -0.3083245 0.8217018 2.6276944 0.17756271 0.5245846 1.0673957 1.6126015 -0.41214052 0.597996 -0.20077066 0.5112841 1.988461 -0.87887 -0.46856198 1.1956542 -0.516071 -1.1409386 -0.6384375 0.2983379 -0.48181993 0.22058706 -2.535602 1.2123845 0.22514871 -0.35463047 -0.0005538113 0.17775422 -0.049277198 0.4118065 -0.000107811706 0.0044379057 1.1468272 0.58760136 0.30211595 -0.15863861 -1.2627965 0.058446147 1.0727408 0.32125467 -0.06451159 0.8702225 0.17869405 -0.6426687 0.79820836 0.7106062 -1.1997985 0.43349543 0.17735611 1.3303622 -0.041478734 0.57053065 0.6533393 0.21133488 1.4866099 -0.107747175 -0.3624085 0.29091886 1.2262589 1.026699 0.23004706 -2.3877428 1.0378829 1.1165173 1.7290744
50 1.0651101 0.15835166 -0.15984082 -0.76636606 -0.30663908 -0.33646044 0.58217 0.11143412 -0.20569497 -1.541901 -0.07543903 -0.498958 -0.5975436 1.4575596 0.18151061 -0.05401362 -0.5509684 -0.43566287 0.51719344 0.2690263 0.3584297 -1.6763359 0.3034761 -0.5029579 1.7265466 0.6570953 0.2858602 -1.1147457 1.054252 -0.813 0.1734148 -1.5009819 0.111317344 -1.335893 -1.2514445 -1.2188879 -2.6979282 -0.15122734 -0.48141104 -0.5890895 0.5320836 -1.1733669 2.058933 1.0730963 0.574769 -0.044004288 -1.0150588 -0.93374616 0.8357844 -0.49312282 1.4621735 0.29618055 -0.39021736 -0.8050401 -0.73644394 1.0612634 -0.043798957 -1.6443586 -1.7175266 -0.017010165 -1.3603415 -1.2045157 -1.3781762 -0.8466802 0.9331036 -0.096664384 0.6464487 -0.66237825 1.1552868 -0.741655 -0.083762996 -0.29322827 1.5086151 -0.37436607 -0.76326376 2.5808084 1.2700701 0.035092674 0.46533388 -1.0595756 0.34979185 0.3825083 0.6075262 -0.5966558 0.21337773 -0.58121854 1.3258444 -1.6095843 -1.038427 0.368693 0.48281258 0.98189384 1.2964902 -0.6707454 1.5957495 0.60078067 -1.8921456 0.5892061 -0.48581773 -0.4034102 0.17463219 1.0315868 -0.4147645 -0.25277555 1.7496097 -0.9662206 0.67165965 0.24835931 1.1078084 -0.7076795 1.1937854 0.6229523 -0.38640365 0.29927576 -0.8257293 -1.8581448 -0.53912777 0.002654906 0.21281575 -0.36889973 -0.058129996 0.18170285 0.3615266 1.5559047 0.6631716 1.0057508 0.66720366 0.46018928
570 0.6232565 -1.8203363 0.6157506 -0.14951979 -1.1488583 -0.44095212 0.036947504 -1.1234585 0.35605264 0.023561655 -0.17302962 -1.3271152 -0.37588438 0.4735435 0.4615901 -1.3209964 -1.4351507 0.14536588 0.108747765 -0.16494907 -1.3676641 -0.65830284 -0.32322288 -1.159843 -0.019591069 -1.7067662 0.671024 -1.0408871 0.72215503 1.7081916 -0.847591 -1.0722001 0.65477955 -0.3369679 -0.16701418 0.659175 -0.54044527 -0.12751932 -0.34696403 -0.5049213 -0.2062487 0.33192006 0.76932925 0.7353688 0.25272107 -1.2566674 -1.0760932 -1.238599 -0.79150987 0.008130522 0.36764485 -0.51681817 0.0024032951 -0.6140638 -0.7125757 0.5321597 -0.522559 -0.22940406 -0.82936376 -0.3497327 -0.16620584 0.3893157 0.6809482 1.1923112 0.73063666 0.22078441 0.43810788 0.39691013 0.16225168 0.11454491 -0.9799316 -0.043651454 0.42086408 -1.509539 -0.21872179 0.9429677 0.21217161 0.20510636 -0.2765515 -0.562605 0.6610224 0.3858032 0.48069295 0.3534006 -0.48804712 -0.30481097 0.5871305 -1.4629762 0.27833802 0.34511295 0.29336616 0.8954896 0.55609745 -0.8604151 0.39480296 -0.6337617 -0.5450277 -0.4987255 0.994491 -0.8693144 0.010741592 0.03378655 -1.3576634 1.467157 -0.31177357 0.7606338 -0.2761559 -0.32151952 0.3881544 -0.57714933 -0.4172248 0.5211194 0.76235205 0.23852623 -1.2396348 0.35491347 -0.07189773 0.55612725 0.20290379 0.48732373 0.53609544 -0.94580024 -0.45762095 -0.4726189 0.3855402 -0.51390845 -0.14759974 1.3978484
224 0.06909876 -1.0553757 1.1476748 -0.59499085 -1.2823179 -1.6976264 0.53729266 -2.8027737 -0.8381814 -0.9041078 0.4925927 -1.1937814 -0.37886518 1.4580324 0.25674728 -0.059062067 -1.2967169 -0.32696646 -0.6632862 -0.45200306 0.33557126 0.42339247 -0.3261935 -2.1525393 1.6730101 0.011540338 1.1818407 0.8997837 0.46842265 1.0751414 1.9450309 -0.36400545 0.78287244 1.1478496 -0.5639162 0.2697341 -0.21347092 -0.15400997 -0.41223812 0.29030177 -0.009043809 0.20194466 -0.513518 -1.1917596 -0.31993854 1.2314109 -1.1023513 0.28201267 0.20744747 0.1103284 -1.1727799 0.121199265 0.9350051 0.41933766 -0.21677303 -0.40072098 1.4840409 0.142356 0.5388351 0.6791531 1.2752352 0.100765966 -0.013952514 1.2685466 0.9638874 -0.26817194 0.45725167 -0.17071609 -0.16487049 1.6617675 -0.13060983 -0.50706184 0.18938103 -0.69492674 1.2175488 0.02724568 -0.039281756 0.34146675 -1.122983 1.5888699 0.7099205 0.3192761 -0.41539142 -0.5666933 -1.2469352 -1.4619315 0.54168683 2.136328 -0.26299512 0.0746967 -2.08016 0.8408107 -0.6966465 1.0317198 0.032418296 -0.46249315 1.7112452 0.3734809 1.2193083 -0.43543985 0.5585295 1.8672763 -0.40064293 -0.078687936 0.6170468 -1.2830508 2.0561056 1.2865617 0.8493209 -2.6263404 -0.7204075 0.6525548 1.5300025 -2.1728644 0.7533608 -1.0256352 -0.122011356 0.42173705 0.55186176 -0.094275445 -0.44623488 0.57056093 -1.4182397 0.07233861 0.8676342 0.47889853 0.1281289 2.6386588
253 -0.8209208 -1.1687003 1.8850313 -0.02964489 -0.20689406 -1.0170712 -1.3331999 -0.8919768 -1.5577039 -0.36807424 0.2336989 -0.48065847 0.22588642 -1.5956131 0.6374516 -0.94663644 -0.070066616 0.4797658 -1.7666193 0.36033714 -0.10774003 -0.48713624 0.76569957 -1.3518665 -0.4451927 -2.1634912 2.1061182 0.56961906 -0.960898 -0.5068081 -2.8982127 -1.109411 -0.58723277 -1.9805837 -0.7054091 -0.49326903 1.9745703 -0.79945004 -0.6602926 -0.18576698 0.09283684 -0.57686096 1.0769771 -1.1549397 -0.68621975 0.21121585 -0.5236003 -1.3107436 -0.7983338 0.20018277 0.35258728 -0.43308267 -0.7146167 -1.2302676 -0.008251829 -0.22792861 0.77334124 0.4804555 -0.8784138 0.51639146 -0.18931197 -0.97525626 0.76879334 1.5982832 1.0088217 2.3575294 -0.9168408 1.1816233 0.49992636 -1.7413605 -0.74470043 -0.3781641 -0.689317 -0.8359337 0.17201823 0.2690376 -1.48197 -0.7141837 -1.0975165 -2.0552611 -0.20342435 0.2863088 1.9059479 -0.022586787 -0.23451132 0.61011493 1.8388877 -0.0077617113 0.77438116 1.9495763 0.89477056 -0.55879337 0.5325005 -0.8446076 -0.1590574 -0.69616324 0.48147446 0.91520065 -0.72934353 -0.4394452 0.33015576 -0.3970069 -0.99595106 -0.22943932 -1.3636459 0.2084712 0.6406383 0.43151972 0.97325397 -1.015419 -0.83799356 0.0052648927 -1.0113672 0.16527294 -0.7866419 -0.39331394 0.6921186 -0.9942723 -0.9084289 1.5771514 0.7479326 -1.1928455 -0.58534133 -1.5953535 0.17451167 -1.0529836 1.6753254 0.20895322
299 -0.17292301 0.46886638 1.0642514 -0.32434106 -0.23393603 0.1281399 -0.81935465 -1.6025283 -0.55785185 0.216753 0.22076103 -0.7349035 1.0117159 1.2184463 -1.764358 0.48494166 0.33437 -0.119424604 0.5564918 -0.72222036 1.3411566 -1.3565123 -0.14537928 -0.010194135 0.8528491 0.9300403 0.31546405 -0.45669934 -0.9716911 -0.14436054 -1.4169844 -1.3175685 0.75330114 0.14329107 -0.7188145 1.1177931 -0.75071615 -0.687887 0.7902983 -1.4051602 0.14640269 -0.40710595 1.42606 -2.0860186 1.0924015 -1.4448143 0.41842923 -1.8009628 -0.2014901 2.710427 -0.16082805 -0.1610741 -1.6657883 -1.482963 -0.75398976 -1.703525 0.6728167 -1.4250162 -0.051949583 -0.26523295 0.056498013 -2.6219265 -1.2980455 0.26781896 0.024045888 0.0477844 0.7890299 -0.5046782 2.03025 -1.0906168 1.6780798 -1.5622174 0.34889126 0.6245594 -0.56517875 0.097304896 -1.9601865 0.6918382 -0.2455505 -1.9318492 -2.1436102 0.5857021 1.0602248 -0.8486134 0.17525122 -0.59395057 0.27377495 -0.6692511 -1.6832243 -0.30313206 0.57659984 -0.08077476 0.45106313 -0.63164514 -0.4772506 0.7206223 1.3652692 1.1744857 1.9567488 0.102824725 0.77664405 1.6408954 0.41966346 1.0645319 0.046264943 0.07389851 0.076097295 -1.2153916 -0.42859954 0.04378166 -1.4390662 0.4100055 -0.8460692 -1.8427721 1.0133182 0.8180944 -0.2905057 0.92833465 -0.23612525 -0.16102633 1.6074611 1.0950404 0.22840291 0.4444604 -0.91746175 -0.17829704 1.5054789 -0.7336058
181 0.3032093 -1.0699869 0.26627618 -0.2147069 -1.7017461 -2.0716007 -0.22196329 -1.8610889 0.18170944 -1.4402906 -0.090853125 -0.75587237 -1.2766509 0.69620615 1.5078025 -0.3119331 -0.9387379 -0.75271523 -0.753218 -0.3203143 0.23919556 -0.17852199 -0.44541463 -1.0680267 1.6629618 0.48463422 0.2910229 1.3356181 0.5840183 1.1420978 1.599765 -0.110521875 0.46708018 0.7692162 -1.1487839 0.30139998 -0.27778876 0.1505903 -0.69638336 0.30753082 0.46213448 1.0603615 0.42932355 -0.3212565 0.5801961 0.9427717 -0.90604347 0.8521065 0.7446986 0.04794032 -1.2220602 0.32335642 0.76234055 0.19434386 -0.1286427 -0.0031550503 1.4834721 -0.8530375 0.21953343 0.19054689 0.7936308 -0.064878985 0.48051268 0.7228845 0.2601995 0.6376443 0.48422694 -0.57385606 0.45095518 1.0514616 0.63634974 -0.13874663 0.5178635 -1.0250725 0.47846428 -0.16500446 -0.15666765 0.25721914 -0.6108715 0.9882563 1.6769425 -0.21211547 -0.4969657 -1.3635895 -0.35170105 -1.526091 0.1636764 1.354159 -0.2257079 0.5472489 -1.3957685 1.039739 -0.89551896 1.146259 0.37089393 -0.6149946 1.5151143 -0.095566854 1.4376624 0.7193207 -0.13653272 1.8987305 -0.93896043 0.3050107 1.4038197 -1.4159259 1.0373609 1.3605099 1.4022185 -2.4675658 -0.27960357 1.0770959 1.1644549 -1.4440603 -1.1190132 -1.8887354 0.07870781 1.2183449 0.10235369 0.44275966 -0.44159675 0.9855263 -1.0464379 -0.1127023 1.3562222 0.9552764 0.92884153 2.4822197
432 -0.7018513 -1.0479051 0.315294 0.767072 0.649572 -0.5508399 -0.22277416 -0.5963413 -1.083289 -1.2204428 -0.8211169 0.16478865 0.61807674 2.0898597 -1.690717 0.59957093 -0.10588286 0.49967745 0.040917337 -0.24608094 0.15336879 -1.5653704 -0.4426304 -0.9129705 -0.511815 -1.2267059 1.7633413 -0.444105 -1.2325015 0.96434623 -1.3505789 -1.4372398 -0.23130651 -0.5723208 -0.73762816 1.398616 -1.1986185 -0.13532637 1.0358005 -1.5956056 0.017869636 0.04721027 1.6133618 -0.47117296 -1.2658504 -0.9550631 -0.036098063 -0.49492925 -0.06441775 0.47899017 -1.0926003 -0.39740863 -0.0006229522 0.09925957 -1.4194478 0.14627154 1.3403175 -0.7444891 -0.91012573 -1.6523793 -1.0181412 -1.319626 0.13421771 0.96652925 0.33579496 0.015582094 0.4226393 -1.3888019 1.7573653 -0.5226876 0.2883269 -0.4492409 0.99012846 -0.58168316 -1.3027991 1.0793751 -0.19189647 0.44021752 0.6859595 -1.1224474 -1.2084277 0.6471687 1.6416134 -0.3558869 -1.2762915 0.5814595 1.0097467 -0.99454886 -1.4755124 -0.7075229 -1.1918355 0.19927202 0.60262585 1.2521467 -0.95401746 1.2173059 -0.3311513 0.7053072 1.2929429 0.39962637 -0.7756545 1.2121161 -1.1537237 0.965344 -0.5932238 0.3285735 -1.5554274 -0.5288324 -0.23597512 -0.3354816 0.49645534 0.23978308 0.4904452 -0.25135124 -1.8825401 0.15145066 -0.14162476 1.4167336 -0.5925668 0.9062834 1.385384 -0.40110433 1.9663128 -0.12464167 0.0665748 0.75951797 -0.63733834 -0.4134603
195 -1.4473165 -0.7760696 0.18406059 -0.3151898 -0.11454467 0.5081278 0.89464915 -0.9793729 -0.4255098 -0.41351044 0.2123831 0.15412533 -1.9549676 1.1695386 -1.4709492 0.8231026 -0.095484845 -0.71180314 -0.25342226 -0.20960158 -0.07559329 -1.1883005 -0.12957998 -0.6135993 1.1314493 -1.1370974 0.7591465 0.6866262 -0.29706767 0.3617425 0.42809007 -0.15988144 0.564523 -0.325201 -0.45087516 0.108881965 -1.2239269 0.17374828 -0.53897357 -0.2025059 -1.3055766 -0.46149993 1.4762083 -0.06313199 -0.40954563 0.6577069 -0.8868501 0.9830286 0.36997637 -0.24544747 -0.5114314 -0.077848874 0.03652786 0.13604555 -0.65510976 0.0043569356 0.74251515 -0.35468584 0.4842933 -1.3689411 0.021136621 -0.4692706 0.989839 0.3411134 -0.13145398 0.69883615 2.3121636 0.38243264 -0.027647482 0.78755355 -0.167809 0.004187756 1.0976511 -0.42032087 0.8336818 1.4269327 0.062324457 0.19370751 0.30965203 -0.33101603 -0.6336907 -0.27794772 -0.11572013 -0.11431911 -0.27207005 -1.0293669 0.43918464 0.09168062 -0.19182101 -1.2084526 -0.58911926 0.7228891 1.0571814 0.04368832 0.36866933 0.11595589 -0.21091364 0.5391816 -0.39094105 -0.9993109 0.04585238 0.9702515 0.25179315 0.13288993 0.36527598 -0.08933397 -0.13895223 0.59900117 0.1541205 -1.1136379 0.4030952 0.41407847 0.84382796 1.291398 0.49307108 -0.6227274 -0.7952097 1.3378065 0.045826085 0.5197914 -0.7424106 1.21312 0.1302783 0.37888 -1.2852148 0.17126957 -0.07139045 1.4190187
245 -0.40246367 -0.6486092 -0.29661036 -0.6746802 -0.43957114 -0.16588281 -0.3283244 -2.3561933 -0.87991333 0.089194134 0.8269351 -0.5564329 -0.42535102 1.2837254 -0.1980416 0.29325724 0.023147745 -0.89948547 -0.2062364 -0.9483886 -0.5969463 -0.6497948 0.6985172 -1.1300417 1.0007838 -1.8968085 0.13752986 0.30734637 -0.51573163 1.1977464 -0.46603796 -0.27685887 1.4268743 -1.6391691 -0.4720041 -0.49584413 0.5002091 0.5253101 0.5642392 -0.17266496 0.3454488 0.24901162 1.5661881 0.5827632 0.25482178 -0.38359898 -0.21489939 0.646833 0.16317679 -0.7628226 0.14420342 -0.04450324 -0.1952319 -0.23820181 -0.32607684 -1.3411539 -0.010814996 1.3343239 -0.3008039 -0.2208643 -0.28607944 -1.1295582 1.4571842 -0.042326495 -0.08791803 1.8581952 0.7951273 1.0764765 1.0180318 -0.97580093 -0.3714444 -0.9426855 1.0575008 -0.449682 0.6972387 -0.08503423 -0.05370829 0.26830646 -0.13785398 -1.9345864 0.27873808 -0.102592625 0.6554104 0.33094215 0.077313006 -1.2250136 0.0021576 -1.6133858 1.404632 -1.1158193 -0.19725162 1.076855 0.33743483 -1.2450118 1.4900608 -0.27036363 0.59686786 -0.0016630155 0.8111572 1.1224158 0.6181175 0.42613965 0.3015657 1.0533861 -1.1485382 0.06030595 -0.7873761 0.52521354 0.74271625 -0.6662773 -0.78247124 1.410007 0.23817517 0.8336523 -0.9617946 -0.98532325 -0.7133525 1.8114666 -0.9024251 1.444723 0.36719778 -0.12868945 -0.8317788 -0.58475333 0.20291065 -0.32279953 -0.04056407 0.5122102
593 -1.233639 -0.68603814 0.52478427 -0.5090608 -1.2798467 -0.36712283 -0.26459977 -1.9534897 0.43805805 0.44839847 0.7315107 -0.8950467 -0.94026744 0.76924205 0.25960222 -0.16379689 -0.3200813 -0.10842596 0.30641976 -1.7194756 -1.3035702 -0.5436714 0.82421184 -0.85121256 0.8193979 -1.846787 0.49911797 0.46933848 0.3329837 0.616809 -0.567002 -0.27957323 0.054229893 -1.3538442 -0.43057555 -0.09957855 0.18067186 0.19085343 -0.059752814 -0.64195347 -0.080833785 -0.13394657 1.0243112 0.6606519 -0.2173468 -1.2412065 -0.7208351 -0.50620246 -0.3588873 0.123480834 0.9819153 -0.2519041 -0.17614771 -0.044671495 -0.30057836 0.5927459 -0.17126659 -0.0058614383 -0.25080147 -0.21935323 -0.404025 -0.07009742 1.1503843 0.46531206 0.7289756 0.81191003 1.0221808 1.5342557 0.012309073 -0.9735915 -0.5732223 -0.102981925 0.1791895 -0.6001729 0.3272528 0.19351171 0.113979116 -0.6848003 -0.7730844 -0.5552154 0.4952098 -0.47958502 0.9217192 0.1276211 -0.055195447 -0.784192 1.4222084 -1.0231236 0.6469125 -0.51235896 -0.11966636 0.89848626 0.48517993 -0.91642886 0.81520265 -0.7968777 0.25359708 -0.046245724 0.6325521 -0.24242353 0.25842038 -0.1780904 -0.5199957 0.9289032 -0.8928084 -0.28296477 -0.9825037 0.15362835 0.39604238 0.12129075 -0.032578383 1.550303 -0.14155701 0.27770492 -0.70789635 -1.2362092 -0.036308747 0.5698997 -0.97647953 1.1358317 -0.41702422 -1.1659936 -1.0971396 -1.5524355 0.27019247 0.23110558 0.07697943 0.75442386
147 0.38608435 1.1156757 -1.1662966 -0.4172593 0.722176 0.09507274 1.7092559 0.96172035 0.36593586 0.95513004 0.984736 0.36661643 -0.3090207 -0.37115306 -0.18645956 -0.7582233 1.1000054 -0.023334442 1.5318035 0.026943943 -0.028733084 1.9122846 -0.0754697 -0.071356885 -0.72425765 -0.09425485 -0.7072841 0.48517665 0.4010259 -0.1044773 1.5434619 0.7674974 -0.39459866 -0.2653295 1.365426 -1.5412662 0.13613415 0.05063245 -0.25476316 0.42850956 0.5043579 -0.015131035 -1.9157697 0.53407997 -0.923802 0.56144387 0.7574865 0.42276827 -0.5372257 -0.13420475 0.5361918 -1.3611225 0.7947625 0.22980484 1.1369262 0.8439403 -0.95732987 1.0980014 -0.2878976 1.3170435 -0.36007833 0.89856374 -0.060260538 -0.44572577 -0.65826714 -0.3229325 0.04281016 -0.3104807 -1.4530796 0.48946956 -2.1747959 0.01341928 -0.70038486 1.1150186 0.8956064 0.5469358 1.4004568 -0.09360661 -0.110157594 0.28425375 0.6657154 -0.6928719 0.03293737 1.8179239 0.4030875 0.5585194 -0.078779496 -0.17452042 1.2611709 -0.62521553 0.69210064 -1.0455861 0.6004046 -0.95948726 1.3614683 -0.4712138 -1.3624618 -0.656167 -1.3493001 -0.8383623 0.53319544 -1.5618578 0.28331938 -1.6644503 -0.07916003 -1.3752784 0.63172364 -0.1884767 -0.43681148 0.83601576 1.198954 -0.05274841 -0.39253703 0.80247235 1.0992161 0.77212304 -1.4901204 -2.3557322 0.3175521 -0.40713003 -1.836162 -0.8708911 -0.5563205 0.15800582 0.782119 -0.9712867 -1.0456343 1.0641781
494 -1.2793952 1.1851834 0.08456361 -0.3036128 1.8814745 -0.17554723 0.7735465 1.1690931 0.8476018 1.1557081 0.66082466 -0.58814025 1.3840907 0.012173311 -0.8332437 -0.06966121 0.010756906 -0.16852674 1.5055918 -0.061674777 0.14748357 -0.3063672 0.98361886 -0.16698822 0.1555401 0.7839019 -1.8111604 -0.40164655 -0.95990705 -1.2345355 -0.6859391 0.19402625 -1.508124 0.08288741 0.9040007 0.84787405 -1.6838526 -0.6412286 1.4856389 -1.0723553 -0.10406109 -1.4253962 -0.72846454 0.068069495 -0.44349563 0.12778747 -0.1521408 -0.69765025 0.15572461 1.8054026 1.451746 -0.43005538 -1.4610603 0.4989736 -0.6822217 0.071557194 -0.46571362 -0.7815948 -0.750625 0.3411507 0.83389735 0.628079 -2.334258 -0.30184445 -0.30586255 -0.6827296 -1.0194036 -0.4442844 -0.011537268 -0.16986503 -1.1940461 -0.06715334 -1.025131 0.9631169 -0.768135 -2.1935134 1.6230462 0.6507638 0.5739525 0.4954214 -0.36936942 0.6183066 0.20592713 0.3489585 -0.72532034 -0.92789406 0.37531856 -0.4025692 -0.63293594 -0.7878124 0.06590714 -0.20899114 0.82107157 0.66396093 1.1846654 0.3989462 -1.0461928 0.78948444 -0.54150647 0.25039327 -0.45249704 -0.9335271 0.66766524 0.8412276 -0.010564655 -1.3344747 -1.0682006 -0.14456353 -1.2297628 0.78049475 -0.30139062 1.1930677 -0.8302983 -0.22036359 1.7388203 0.9797898 -1.1560129 -0.15991665 0.01816604 -1.610801 -0.045552727 -0.07709551 0.08035697 0.38220483 0.53444594 -0.76521325 -2.2573168 0.5720773
502 0.9403304 1.2501578 -1.5348028 -0.11887125 0.7931447 -0.65871775 1.69806 0.6059181 -0.018701322 0.73343945 0.44764462 0.38454545 -0.4833894 -0.63877976 0.30507365 -0.92347246 0.8821183 0.11868635 0.49544537 0.12532915 0.30721116 2.0296626 0.2172136 -0.26412863 -0.80716336 0.61400914 -0.9943176 0.09244439 0.38956186 0.3768944 1.4718777 0.9389902 -0.13153234 -0.29888406 0.747006 -1.3404808 0.116548054 0.59129137 -0.07433094 0.5196746 1.0667751 0.72096926 -1.9192002 0.64633 -0.3361522 0.94388515 0.64256674 0.60902643 -0.09455533 -0.67031837 -0.05514878 -1.8536447 0.6577076 0.38767505 1.2851285 0.8045229 -0.60080254 1.0192441 -0.7933182 1.417604 0.06379012 0.9030426 -0.03418202 -0.22872758 -1.0514318 0.1511455 -0.45240027 -0.8609544 -1.2930588 0.5759571 -1.8760988 0.023199437 -0.47090638 0.9942007 0.55766356 0.35188147 1.6702641 0.27770585 0.032450486 -0.18180922 1.2743524 -0.71491426 0.002959189 1.9223839 0.451381 0.43494034 -0.56019145 0.127931 1.8488708 0.18304472 0.8514874 -1.1699504 0.13144809 -0.4058121 1.284358 -0.39749524 -1.5275168 -0.670023 -1.1285893 0.5220804 0.3120266 -1.3074605 0.025887717 -2.092758 0.12948275 -1.2903723 0.7268251 0.28977337 0.31471452 -0.4414431 0.95257294 -0.14418319 -0.36575925 0.3609754 0.16436076 0.46018028 -1.5134989 -1.8382275 0.40258446 0.11549559 -1.3984925 -1.5180731 -0.4886492 0.12255506 1.4215136 -1.0108687 -0.6975319 1.3772923
613 0.35142332 0.35463837 0.3868014 -0.77787614 1.3727819 -0.20945832 0.4308892 1.2717972 -0.00095021125 0.9439747 0.1691906 -0.2483214 1.5471518 -0.91573524 -0.8694147 -0.5547979 -0.3014698 0.1830199 1.1618731 -0.020889591 0.5592401 0.6075803 -0.19810146 0.032635454 -1.4679918 0.8990075 0.030927386 0.3758032 -0.8590304 0.23900084 0.60709006 1.1467261 -0.8635628 1.9407859 1.0181555 0.19516148 1.0176452 -1.3219615 -0.2303435 0.2678533 -0.16105199 0.14325467 -1.8162719 -1.1395469 -0.5875057 0.14970854 1.118214 -1.0387607 -0.84120303 1.2973424 -0.14330813 -0.93016434 0.74607986 0.006552888 1.2276447 0.38805866 0.23015785 -0.2265079 0.3060769 1.5246625 -0.6065796 0.5917928 0.054151405 -0.19594395 -0.107838534 -0.78991205 -1.2955514 -1.0149702 -0.37393588 -0.39382207 0.20355687 1.0470519 -1.556025 1.2452549 -0.32365644 -0.6570333 0.04067925 0.38545626 -0.09133699 0.36965013 -0.10799256 -0.12330141 0.81290656 -0.8185733 -0.5087871 1.0605888 -0.17035477 0.92367965 -0.8133926 0.86218673 -0.6617489 -0.9203333 -0.101225 0.4218553 -0.3666609 0.21925615 0.7186803 0.19801046 -0.21556 -1.2049633 0.14091833 -0.5178481 -0.041282468 -0.2819633 0.42931518 -1.495865 0.15737335 -0.33357018 -1.7094296 0.6513803 -0.24452212 -0.8508318 -0.7866431 -0.59972864 1.5433711 1.8156089 0.33524477 -2.5590475 -0.38011047 -1.7509046 0.5529824 0.335521 0.06518702 -0.088882305 -0.040227517 0.4294906 -0.055655126 0.6889977
